{"meta": [784, 1, 128, 10], "input_layer": 784, "hidden_layers": [[{"weights": [0.020396013996717026, -0.007077848036237153, 0.02196478376339562, 0.0060895994894272845, 0.008918679420019601, 0.0011464956816967242, 0.03230263036756992, -0.004247835510027442, -0.020216599739978795, -0.032152287671499226, -0.02545449831727492, -0.01729835307829719, 0.03275153920170064, -0.03147326634059159, -0.02045820114739055, 0.02353816352636365, -0.025570906983808497, -0.023298091697061887, -0.024654888047003536, -0.030676372060359836, 0.0027412661594744397, -0.015837489192498555, 0.005890705291222764, -0.007600437981545138, 0.008286200195094025, 0.010172854587254539, 0.007168982223966301, 0.0007846326886672417, 0.010263431095323225, -0.03435923656758969, -0.007574335859250245, -0.03220300377730402, -0.007569755785884172, -0.005940139562051176, 0.026772466989125797, -0.03738742828962136, -0.026553476551903783, 0.032999412464018524, -0.006252933687366467, -0.036050047526642884, -0.025172775583067585, 0.021986103267805528, -0.009538259606544985, 0.013320073899521808, -0.019366635979475265, -0.03190440169968936, 0.01923532443298276, -0.020633429833719727, -0.014192167600407701, 0.004877396720823523, 0.012874493365434083, 0.015835950396736194, 0.017319729316400738, 0.0027170975579331597, 0.005674417903182863, -0.027609689649793594, -0.010707686427271348, -0.03435420766240426, 0.006243180888038991, -0.028137721898093573, -0.019299161783161163, -0.004916791523697098, 0.008494389502862566, -0.007301361777527265, 0.017934081501016566, 0.010443574421793476, 0.022572319264795023, -0.03004254673056655, -0.021731394809358942, -0.011631611327086072, -0.037794992091688906, 0.002527437337352036, -0.03328288583316538, 0.0029089725985879345, -0.03244874555564808, 0.009404022006373544, -0.01927468132561741, -0.023897056123047968, -0.018278658075980156, -0.032414261822448914, 0.030305224078065976, -0.00990556905265827, -0.020399834099795254, 0.03556086434743523, 0.025035807631728406, 0.03061559696881079, -0.017405058616168426, -0.0054762433052556484, -0.014300980378923685, -0.013713381140441853, 0.019441588272880866, 0.022759363845237707, -0.027337325412107354, -0.012152300198901568, -0.01748710389434144, -0.00835291596081197, -0.025124682239408815, -0.022476448225712955, -0.011255041569053287, -0.06089762237320429, -0.010123296474331588, -0.03932695659616585, -0.0132810329718037, 0.01722701879018443, -0.00887274262800677, 0.01814120353633535, -0.020592698845261867, -0.0004310084364105183, 0.012785341631420796, -0.02735830142323491, -0.024666192443896662, 0.005817425807913272, 0.010542889464008824, 0.004376471854964052, -0.035633262377925974, 0.03452616143208527, 0.03355969848637797, 0.020893683048680358, 0.006120743831902366, 0.002004384021097582, 0.006949398161726912, 0.030422311800825306, -0.04881851878888483, -0.016888161570687538, -0.03558259342787884, -0.031066042322233995, -0.09043983794799455, -0.09035492643220416, -0.0475979701166073, -0.06840765163497656, -0.07271977209542889, -0.041431534656694795, -0.016394915082704863, 0.03739644072355852, 0.03575504459695902, 0.009121688523666046, 0.0066725726534648516, 0.02751533420007438, 0.00875974983815091, -0.025758786565191143, 0.020308457617663443, -0.030057656973680957, 0.013867191442964168, -0.027534765384372148, 0.024251531845165958, 0.01569256917293548, 0.0062346722305515, 0.01760981893543368, 0.02187325035522536, 0.01895576116901378, -0.028352939810725286, -0.02636141165996895, -0.03162806588445666, -0.06582674260047823, -0.09101670970804973, -0.13487390372543068, -0.09749140460330472, -0.11642407200977065, -0.05772037444384301, -0.06467146003098262, -3.205908464743941e-05, -0.018078426986121023, 0.055017968681232245, 0.0010370072652188154, -0.01539213661786071, -0.0002721511389483174, -0.015150326501800131, 0.03250139935744796, 0.01388248605684713, 0.016949368459206245, 0.005880116961932767, 0.020589524713764407, -0.02911847534806267, -0.02621600332054706, -0.017954620092443002, 0.00961371785183488, 0.04281629192894169, 0.02183712451862163, -0.02739826525860821, -0.014964634633444291, -0.07724651269844805, -0.11961749305406014, -0.19568901522362475, -0.19194329728889492, -0.10393697791101125, -0.10159293549694978, -0.07853326955731044, -0.06798853953158443, -0.024881248256212626, 0.01537104590137778, 0.04912027286917511, 0.07434610424885969, 0.04958479078848958, 0.01897103387693116, 0.039269239212894665, -0.024790909400069457, -0.020875842704781884, -0.007097689462013764, 0.009192265163778043, 0.03135399816760261, -0.03905866393886582, -0.03126576536952208, -0.029252429201945863, -0.014183250044275847, 0.049572396801388426, 0.04155253725996246, 0.014193786845656867, -0.06397866839827819, -0.1226642683148088, -0.2060201635365184, -0.16664331158601353, -0.19405773042469054, -0.11456268772817216, -0.04243858357695616, -0.07252439609710276, -0.003996303145779094, -0.041247724406464986, -0.0029480411535991948, -0.02563567163258397, 0.06883700513137853, 0.023831359269248658, 0.007216436911383987, 0.02237270814970868, -0.0014414108797468671, -0.020257946098678054, -0.005673952804715685, -0.004172372995777493, -0.03426190518180192, -0.015922418980801992, 0.0034748837517626892, -0.011731993349351847, 0.007345034769441874, 0.039145466655217585, -0.0008933912887446349, -0.03759972845241933, -0.07563965596166798, -0.15805627408823048, -0.19833930630413316, -0.19044548933666086, -0.11322773219650657, -0.0891160228060614, -0.03402476503425491, 0.0130573566176909, 0.019138759921916465, 0.01919007381202559, 0.029521656926551534, 0.0010128357264632044, 0.014378990618288325, 0.09518249076864771, 0.0472451821047316, -0.021485603246793286, -0.018368435333595605, 0.028753542378035433, -0.011320321037088237, -0.01695175642930336, -0.007058650606960018, -0.05024463813175494, -0.006500135664256306, -0.0006632951858771768, -0.020512200079950058, 0.019375431496860527, 0.04469535918597161, -0.020178388692331233, -0.09614209911714952, -0.14522875661904244, -0.1572945010677277, -0.12421507460899639, -0.07647257075226095, 0.01631656311141513, 0.07565269057084331, 0.04438480381311164, 0.047309018791890076, 0.04856074684538723, 0.04149861652337193, 0.020225012175532662, 0.04375533301393034, 0.05206460372203644, 0.018673403996044835, 0.027020873388861125, 0.028719605278262336, -0.020429751250618876, 0.0033565747656542117, -0.008733940139070893, -0.014874839239781876, 0.01613686438051227, -0.015756991668813638, -0.013658306219060517, 0.038004545786824356, 0.028031204954289023, 0.03024235529755239, -0.04674770713488553, -0.0993533287076745, -0.14074251581268563, -0.11986968048607165, -0.11019437380281849, 0.04051141714899857, 0.06532720758896654, 0.06287589570319294, 0.10210694451273963, 0.08718149480371816, 0.04122517434356864, 0.06006660468571066, 0.010446919363953528, -0.0014733464899341219, 0.05897673184530677, 0.0525390327042519, 0.0046479556718078355, 0.025370128158940485, 0.007276029053567749, -0.022645891329087828, -0.029070813057149265, -0.008734773440127273, -0.03141776777697288, -0.0035543835337274493, 0.01653881514285989, 0.06035260369619429, 0.10425158545423856, 0.05790826877181918, -0.005976738726459729, -0.14332638502490935, -0.1516410981379502, -0.05314488799706816, -0.018731909995406568, 0.054862308817966346, 0.06477920743865614, 0.05590675490727729, 0.016330046902896442, -0.02115949424275295, -0.032625608142028674, -0.01801172691870809, -0.015061685583340404, -0.024474124221902253, 0.024507263104358717, 0.023708911206058003, -0.0010960915554055382, 0.030985805753228728, -0.012516947578856234, 0.018913369873623263, -0.023487742180669326, 0.005185112017278456, 0.016867489595154276, -0.041897361307153526, 0.06334797394579222, 0.046106984973344596, 0.09299199635815525, 0.048749089450456175, -0.012737715734302435, -0.06952484055273284, -0.05447493189170957, -0.06690569927921643, -0.06728505255483246, -0.020439207906012773, 0.006518790107162458, -0.019108514491432516, -0.07834854279932309, -0.06984333253017833, -0.09937421899069726, -0.08236768864359349, -0.04989255815043624, -0.10420168181309165, -0.05972230605270424, -0.026014403839678617, 0.003434063768485805, 0.022258935377331764, -0.00944665006986643, 0.012518682198621081, -0.024217802971135915, -0.03244819388104538, 0.022561245615275307, -0.005968476318503276, 0.06498256119327302, 0.05567250014914747, 0.02180009137806262, 0.0475488118767033, -0.03308661938025293, -0.03715155407577531, -0.06498449664163605, -0.06861814397368243, -0.026915894539514307, 0.01608161755152306, -0.012359260528494002, -0.035085763343782043, -0.049574822555321, -0.05333178178689823, -0.042838607768293784, -0.018931800856645423, -0.05908856912353879, -0.017634135631673972, -0.002352907042996699, 0.01900121165212454, -0.03683010829471911, 0.028336656686652226, 0.03479783679185236, 0.011103510725318518, 0.01323768696806322, 0.0015712561075671434, 0.005902881704896613, 0.05231201804115202, 0.003368503027499498, 0.0430663620705059, 0.016557627392857047, 0.033880581959097364, -0.004987993520742629, -0.048569254757029064, -0.04449610775661393, -0.06780545033491554, -0.01762195630819513, 0.013073052332012444, 0.0024895533880087972, -0.020327191789252123, -0.07099974077752765, -0.016180101256294547, -0.014168330979443268, -0.04247962208862099, 0.009861197287309801, -0.005162382718765597, -0.033208955939768546, -0.005489516175877041, -0.014459023105315456, -0.020778407996702466, -0.02675257876059787, 0.020743443772034666, 0.005618590935933455, -0.035716612871279356, 0.025445530020947484, 0.01958343843694004, 0.04091817279652844, -0.0126231886095466, 0.045243272522376934, 0.01538331799785433, -0.005843262863754073, -0.043834488780464566, -0.06382079016181298, -0.052111262011779465, -0.06745073206563104, -0.06261938204202035, -0.04837181248017469, -0.03522960849532329, -0.08169616422016389, -0.0934094828183364, -0.01812527295664243, -0.07303544745848276, -0.0011925693271147668, 0.014874944556989372, -0.005410722793972597, -0.035183878332615715, 0.02839346577165917, 0.030513938066119302, 0.031492311043769775, 0.0017553645584414662, 0.018218117224879475, -0.0338896067738474, -0.02163014975364948, -0.019402460902835133, -0.010809854591181892, -0.038135470447834253, 0.04409702107567416, -0.0002951714451491677, -0.030060925420687643, -0.017424327300412407, -7.656918907185268e-05, -0.03317605796771456, -0.03610236994690674, -0.033691417461394986, -0.08461115862329584, -0.054043717225313634, -0.06819321179233846, -0.09875229664690957, -0.03555262007035858, -0.07139858386118476, -0.06651970890976014, -0.015713160002943715, -0.0036205915328656993, -0.041828849961200884, 0.02074672094417647, -0.010681789323735983, 0.00108352451854387, 0.02407280965634563, -0.0327456258108561, 0.007995648909264994, -0.032422541230442255, 0.009078927698781445, 0.04853289893201996, 0.0413608169151047, 0.006804290045826268, 0.06507490971313999, 0.055703436102564334, 0.01073671036058313, 0.045866591613443926, 0.007314717453904646, 0.03529311453164878, -0.08307276577559033, -0.06646406412278134, -0.0795159070794072, -0.02866813264834269, -0.045196636210480916, -0.03403868929118395, -0.02320985869163994, -0.06660526805620588, -0.0261362653665899, 0.0113685981593826, -0.005335562102546541, 0.027876514123422458, 0.027091005632890398, 0.02587758092034164, -0.028559842863592557, -0.02180276200170098, -0.0014112143673011544, -0.023510607611211046, -0.009161731242144297, 0.01248030752659436, 0.08227679808290682, 0.06621007013440809, 0.04710379697248778, 0.04497597722445702, 0.0882416301230532, 0.048761600544886236, 0.020444026059154838, -0.021724221546415748, -0.034282739435663366, -0.06366047663536675, -0.08445694004785433, -0.08128020453203769, -0.08186268001271678, -0.056083737747061435, -0.01837127097391176, -0.036821582137113354, 0.008554764369484437, -0.04009743392489503, -0.025768291448498865, 0.01814104512391119, 0.013141632326232212, 0.010506972391869922, 0.02723725915221532, -0.002709484087032859, -0.028719183185862432, -0.04089974518018319, -0.07196245286729712, 0.011333556456521392, 0.046725725556613446, 0.060189207554710765, 0.13018056610961293, 0.10265686707604155, 0.0633864447988526, -0.0017471136390850557, -0.023441405078215793, -0.04522250977114259, -0.06928042729666711, -0.09874857636898728, -0.09238568930334908, -0.07326440595162984, -0.016656337958978206, -0.0031488609790749854, 0.0017379293850385568, -0.007413906573753395, 0.02036399328054362, 0.017067801639155118, -0.04194057940580989, 0.010808199572650133, -0.0021100832185291267, 0.026517262570748212, 0.001246236409669669, -0.031431931430150814, -0.03446997407083146, -0.06542953176771014, -0.05770465363131882, -0.0635063068223455, -0.04065832391748372, 0.03340143890831079, 0.05735039979838953, 0.06248219910425419, 0.051377927705497796, 0.011562671579945113, -0.05344630880359209, -0.029137165217055935, -0.0416252460840148, -0.0490844602137284, -0.01365418257810169, -0.04660619643775053, -0.021132279605245316, -0.030342341422334922, 0.015936285435931577, 0.017112506912580348, -0.031012972405732857, 0.017108995127183776, -0.030813846841293877, 0.01743887111664946, 0.004708939483980288, 0.017318538707732773, 0.0066531710812969234, -0.03452551918630335, 0.012685960737349565, -0.025820555547886512, -0.0675396015815192, -0.040799218192891194, -0.04084273440051435, -0.048619909639656206, -0.05627789273566081, -0.07788901946844722, -0.05281279528450203, -0.08376331223351081, -0.058533067354334854, -0.08751394638019451, -0.05347359788706736, -0.051184477605755334, -0.02333043753521535, 0.008274299114723084, -0.016467262258847894, -0.016468147262770343, 0.020299687849524635, 0.015624234139977846, -0.02615622948587616, -0.017263492593871107, -0.0015945206663411145, 0.00413008685823548, 0.018375242258961807, -0.006568742104554971, -0.0333724276279481, -0.030825672217888355, -0.011071293904883624, -0.003289585011753516, -0.022084852520444696, -0.01632177637693255, 0.0034143766748274485, -0.029592798962891347, -0.05611303421265144, -0.12900365280093595, -0.12717899992776374, -0.13472586599981645, -0.09226828336393618, -0.07474746256300421, 0.0027720390627132465, -0.009877010601540502, -0.0093483463938004, 0.02778541958332072, 0.024359763607631698, 0.03160301454572951, -0.0038629625627857266, -0.0025456332066325685, -0.0042186133901972655, 0.01018239115728391, -0.0034174190587410334, 0.03431095094212684, -0.02568320989626341, 0.02768172174218178, -0.022939106582165532, 0.0010549734398374198, 0.0037884082928308412, 0.008574171994389162, -0.0004919563022565312, 0.0347203972165889, -0.013559308663679916, -0.038477684348230456, -0.045427072490282466, -0.06418689145947183, -0.06989805143834549, -0.12099136948038469, -0.10880134808499338, -0.09756154590733337, -0.01214940049645127, -0.016523830829716205, -0.01326904964661407, 0.038074815580710616, 0.02877652553184737, -0.008033989483435186, 0.00010528528458370764, -0.007890560102028158, 0.00670295008916375, -0.0018612259594793345, -0.011245912642675686, 0.020333040891375453, -6.535760581338756e-05, 0.02476995105188165, 0.008098893031333973, 0.015412506454589152, -0.03390720366483226, -0.034796705848300205, -0.001612545386474127, -0.0043140944266696415, -0.04270445821632989, -0.0326403078407749, -0.023980952199514672, -0.05132889967774405, -0.07142006196101369, -0.047671409170245704, -0.030281480011209987, -0.018629403178060396, -0.052682480415893906, -0.058478988263368906, -0.03458505238354262, -0.010107404966024353, 0.03174017876380023, 0.016822017833843635, 0.020255221038689493, -0.019450796023074594, -0.03047771298903404, -0.01743496159400887, -0.029654086197758337, 0.035661444699830305, -0.00547296700737792, 0.034845186449763504, 0.0071769138001271035, 0.017067355530634255, 0.029066263314640448, 0.022221345718301286, 0.029654212291081228, -0.020548696623958793, -0.008724407954645819, -0.050931822716394404, -0.01318106367966346, -0.04168231862187324, -0.03094551617018229, -0.04480149989569824, 0.0019519674893529503, 0.004302060314750724, -0.00840498350200888, -0.057707368696486024, -0.06055951752351642, 0.011403848503507532, -0.03622976852204124, -0.0404031136379609, 0.01115327991713003, -0.03223043127261336, -0.01965948653083677, 0.03417785810721671, -0.02438500758439879, 0.03241146206604697, 0.024295843051897373, -0.008387657557703574, -0.010325801443168296, 0.018009566611478588, 0.029976474870140723, -0.01761461629106212, 0.023380663368201028, -0.022460585525902636, 0.017119916506073227, -0.035478055306452386, -0.007289213190017741, -0.030447229801473276, -0.03746211804487805, 0.011664980296086843, -0.02890471806771219, -0.0017918282286220008, 0.006242985848144999, -0.035722534185071014, -0.04252080946100798, -0.015470948723260025, 0.006120703098959436, -0.006207248207650937, -0.0037198579564265088, 0.005204260827309239, -0.026373506506746722, -0.014341047114447112, -0.013741078157066216, 0.021547867744918202, 0.026164028948794098, -0.0052748045835243375, -0.005057320459775052, -0.009909872118766767, 0.014734812486660323, -0.03132160788038138, 0.006451151772580086, -0.0013107868526285283, 0.02302155897343538, 0.03317742407507053, -0.021714221381042, -0.03325124160920816, 0.0005248298645495309, -0.006125557664058668, -0.007886493457241883, -0.01922624699258344, 0.01631979574209936, -0.03182052908904956, -0.006391559556699785, -0.016484479038205633, 0.00194421258465106, -0.03405054871680445, -0.023721820705433307, 0.00695455615629238, 0.007950265432016676, -0.034569281206693635, -0.03239622675763051, 0.004027485571267149, 0.010866602141124726], "bias": 0.13345060566429062}, {"weights": [0.030531015581746493, -0.02775449570142738, -0.014254497142839852, -0.016881440392957754, -0.02552418337646585, 0.018848218819623813, -0.027677490583980818, -0.02642464603609946, -0.03173335675771698, -0.017403690071792877, 0.027908005348384987, -0.028367622199502125, -0.02539765184534117, 0.0065069050870667, 0.0021435423336113074, -0.006841631270107206, -0.021586146363679275, 0.019391383501974613, 0.02660255697380097, -0.02193108491230185, -0.019329808377971935, 0.03457785578736117, 0.0338475495170491, -0.02366813110929788, 0.030974996696077367, 0.032994329843553355, -0.0009994466305819974, 0.015814629548717984, 0.022822686152171916, 0.004681901625632187, 0.017654292311986, 0.03104365825871501, 0.024729216803367156, -0.015875273507371255, -0.010042688308749026, 0.034170947165975726, -0.03514922309448734, 0.02576516425778762, 0.03588467681970343, -0.002382667878033655, -0.013355587377916487, 0.00828694662930051, 0.00833522240942712, 0.00031923723087862, -0.024953125905967724, -0.006605088904430665, 0.01274247121109523, -0.003949046968270031, -0.028894811086807207, -0.012470067962135492, 0.026758767134652032, 0.02088299760758153, -0.016696689884499023, -0.01578795255497138, 0.016782798655382174, -0.01631882746982366, -0.0325504302364856, 0.013102484747990403, 0.025375778475923302, -0.024182166637188373, -0.025857016159256334, 0.022748020263966422, -0.017998714267251994, 0.030395135402429687, 0.018495601887643605, 0.03062113715669824, 0.019418645353405116, 0.005159522498079614, -0.016862436979691735, 0.04581975246986915, -0.0030905161152144033, -0.027774156859745037, 0.0003435231294797417, 0.041853291605871694, 0.06115883201150382, 0.05323136409113476, 0.001590979254946819, -0.01130381785368725, 0.032239615951445394, 0.03709721585916757, -0.022147722765425915, -0.008889156675942249, 0.03446761785268798, 0.019116797259039038, -0.03178525034724278, 0.029908335575923137, 0.01974147177500492, -0.02183975976384198, 0.035556557579588144, -0.01568325131726827, -0.01905007270949397, 0.030211025012063897, 0.011988007301604646, 0.019746159927171977, 0.026330223945531767, 0.007964349347952574, 0.005230225683710574, 0.052726456786983525, 0.0234165968225234, 0.052744821879336684, 0.08373722764077475, 0.0875675943337896, 0.08399473452294264, 0.12086349173081881, 0.10482329830189273, 0.04530619263166272, 0.035430997256961375, 0.03189040737052576, 0.036059564115950564, -0.023482362673633173, -0.027910562540208204, 7.381741780052714e-05, 0.002896997407314708, -0.005812861621683524, -0.032120534122430315, -0.001175517336737899, 0.017630368100321717, 0.027866912426276324, -0.004548464746557688, -0.0070970372915649125, 0.04120975791316692, 0.07380935080390778, -0.008294136945153447, 0.020606631708453765, 0.0027272361896405082, -0.06632876813063845, -0.09905013696226103, -0.07889364267372438, -0.06170016577402533, -0.009916446986244323, 0.040837014300069224, 0.03978860452019931, 0.04493311828915758, 0.06187391890048911, 0.02507292054349629, 0.00026666435878254497, 0.03963192543057765, -0.0012702711150914918, -0.014678160457009615, -0.024678919665297682, 0.017155197044242752, -0.01569778416635702, -0.006612000254027972, 0.020027076643276635, 0.03218510972668653, 0.009330446938338796, -0.02112758460922704, -0.04021850711037949, 0.028832888473776203, 0.014950193024673234, -0.04089456073260281, -0.059649897761933794, -0.05202014157060298, -0.06565315213412837, -0.06322825434430783, -0.07520736495119427, -0.06435648862199264, -0.04893582423384596, 0.013325329590586757, -0.0012862854613418203, 0.04284893620790533, -0.021640958919573943, -0.0688128688739092, -0.0072547662685848524, -0.037597802828830004, -0.020119770569651686, 0.007172843500702693, -0.003508899615907517, -0.010317968632870243, -0.020408140280268466, -0.013955490873098622, -0.01981514769442503, 0.0005413095719565348, -0.047417641023957624, -0.09028540975439925, -0.07081015132294176, -0.10750686390325725, -0.11513550128920251, -0.15282475878522733, -0.14223134017307026, -0.08756075960195732, 0.0017315518356392447, 0.07176917838764237, 0.022230606608153555, -0.022377187277571927, -0.07972807344413897, -0.017384479535666474, -0.13945364415120592, -0.09118130960621638, -0.19320834684539423, -0.14921886708065135, -0.05452072216443051, -0.045678216041608447, 0.025629208118639016, 0.014086199638801455, 0.020267395547589658, -0.019390858270098725, 0.0010780316029542197, -0.019310431921586636, -0.028310402248884124, -0.09163238657005285, -0.11547449513910615, -0.21792472676084285, -0.22091606095264202, -0.24047293434176217, -0.2697255096503828, -0.2461903405619613, -0.22387588182210708, -0.3001772423051729, -0.10469223254952406, 0.015309330638606842, 0.17451765442940245, -0.0026960403431175893, -0.08039129169596412, -0.13421982891228681, -0.18941980282236537, -0.16131278979453179, -0.1999105197739599, -0.2257581360563868, -0.12924563766116293, -0.0662434589186553, -0.01530258331604844, -0.012843567795038249, -0.02492605291734829, 0.010720570620214944, -0.033305092454056225, -0.021010823949227146, -0.0796654545067178, -0.11891922731379918, -0.22564117998741842, -0.299083071241784, -0.307486734096007, -0.29700477597451364, -0.19200499122060752, -0.2627177891440095, -0.329428064802333, -0.33596400336916465, -0.2178353757507489, -0.11533583940568282, -0.019486236081746943, -0.040285674035152264, -0.1968732579343697, -0.2560795280132898, -0.2416964971826524, -0.1898348545379069, -0.15287930364563182, -0.14159384404491152, -0.0890280863886714, -0.008425456840623733, 0.05121673414721806, 0.006624900982374702, 0.010002068224885688, 0.022669544843205505, 0.006404535445485961, -0.03706314640732699, -0.04264754591271859, -0.12218841076710361, -0.22568827542189346, -0.18672758034666379, -0.15860108695403635, -0.13945083188597432, -0.07493152571927583, -0.1713615680083841, -0.13807444649222456, -0.26671141397895737, -0.30117163714085243, -0.24988727946153755, -0.11848518683138942, -0.21656127018930174, -0.2878458940185542, -0.2643602933111245, -0.18147765078234052, -0.15446520308210002, -0.1537277262744168, -0.12925156551155673, -0.10957783506581803, -0.04034784979988998, -0.026467903829543695, -0.007465541855813064, 0.01621449045029178, 0.022118276959888855, 0.011739915136810065, -0.022768303873860567, -0.10158757347460598, -0.12692599760618276, -0.1420873571015797, 0.006858557390978173, 0.054168368560801664, 0.07870647993810774, 0.13962556187850622, 0.06874825309143914, 0.0287795847703794, -0.20971099235320056, -0.4610424221236378, -0.46038739983875354, -0.4236619613793813, -0.37305275545139516, -0.39735295655200104, -0.20469337458320397, -0.1160213794914463, -0.14616261160389868, -0.07771616431550614, -0.06495480350968164, -0.02050395259701725, -0.003948117984794673, -0.03285369979807319, -0.031858253201388194, -0.011731498140013662, -0.027321086263493322, -0.044471702232738816, -0.0061419930610115865, -0.042091648820099324, -0.043887449601722715, 0.11029337587363196, 0.12496637302444541, 0.23233894678422817, 0.27913705840420444, 0.19564849331443693, 0.20446413855517734, 0.026682395112031382, -0.34502022413334354, -0.6208267723026437, -0.4798793260220564, -0.38259183051775864, -0.2688864057401949, -0.18443657185212606, -0.10957097182591176, 0.022173925832499764, 0.012420550206370805, 0.06008167191952179, 0.00039758726143180635, 0.009014915414850189, 0.0341640366351679, 0.0051097833315457905, -0.00806027947163157, 0.0042260583731230286, 0.014142164957096656, 0.022299806501410915, -0.03511948574791574, -0.007312607871833992, 0.05739381000664483, 0.1762889207726847, 0.2298069080597383, 0.25421508897019957, 0.318203304511708, 0.4466270151706043, 0.37454933363708165, 0.21492986967507963, -0.09797607333110885, -0.19746982104584254, -0.10646430618632313, -0.0938863505821762, 0.01392273243118008, 0.08479581539447584, 0.09605695442570515, 0.17004631733324008, 0.17564459571117896, 0.13930505255958175, 0.05395051679929553, -0.024685725475967642, 0.041237377856368766, -0.017994896879350023, 0.011187241371990946, -0.0018859601597525063, -0.015694272215012985, -0.012005756073319378, 0.012637444926952492, -0.02233513214501405, 0.052010319045513016, 0.26765868657870934, 0.29181659425288703, 0.266217374867661, 0.3651940392480731, 0.5267747599869956, 0.524488515063718, 0.5490060271253118, 0.38821244588276566, 0.2758698890815929, 0.21453185144202883, 0.19998915255810493, 0.20054867732860898, 0.21305015628342389, 0.2254312408029135, 0.20333696123318548, 0.11281540211644162, 0.07737369102672255, 0.058899140294465295, -0.013580055916554635, -0.005775146701203741, -0.009187475374691367, -0.00041831853347437285, 0.010795859754865638, -0.007160709832464537, 0.0064805440941823785, -0.030918653445398892, 0.003138231609984996, 0.10233936098282648, 0.24316168533535187, 0.34210399822811033, 0.3054018934677597, 0.35651451456277644, 0.45391417534744094, 0.4993187673991914, 0.519962535500973, 0.4667288968527508, 0.3595588276254579, 0.25362770692932424, 0.22759229378499435, 0.30819622798489926, 0.24460000420635641, 0.12751467325403315, -0.0068963198400625834, -0.03472396445903082, -0.057993543509460364, -0.07758076776632725, -0.06661492601367146, -0.05208954019288315, 0.010395540288520227, 0.03018002924592433, 0.003150356965037208, -0.004848222208447004, 0.027367153825255085, 0.005135160619988319, -0.0022505003127022295, 0.015751304984530357, 0.1424439416630604, 0.3457284396202359, 0.28228295670330955, 0.3109181567553348, 0.2349937578840703, 0.27333072062062735, 0.42137783063604256, 0.325578094348234, 0.1901504291259449, 0.12314749965956831, 0.30536515432601835, 0.3283348254126136, 0.25211852142920144, 0.09055629289356382, -0.10944809167664382, -0.14811406123709714, -0.18737530686789813, -0.1671558523841317, -0.0689652533023003, -0.0857842643837915, -0.030190687661145146, -0.004904396958255578, 0.02089437596874634, 0.008342530005708, -0.013081499645669275, 0.010387158257728579, -0.014906049799614208, -0.03149414207505471, 0.10445788537561937, 0.2787167986388091, 0.2370876216778972, 0.17111535907148712, 0.09961272864291189, 0.1178729610912784, 0.26968860122003047, 0.26324915090933143, 0.16248973682620346, 0.13759048933047985, 0.2951257020160963, 0.3625182755594354, 0.22283461726876927, 0.09078192494571787, -0.08273885023710498, -0.18024673946588832, -0.24042811083284313, -0.14029587484618078, -0.06879809029144021, -0.0675155753177911, -0.0302650223749553, -0.020270012226801137, 0.013144055559071789, 0.010113514847312495, 0.014632099611855052, -0.023434039023842394, -0.01290675092179815, 0.0002636168401430082, 0.04353694947914207, 0.15226907175876006, 0.20438166421036275, 0.16772743834791318, 0.05377041375310806, 0.14763315009872094, 0.18086284207788902, 0.19343520477417886, 0.17770673490657948, 0.06981352645834935, 0.19438220755399865, 0.30219296839680815, 0.11981705542184323, 0.10871310903632389, -0.031765824438919565, -0.10068685120087427, -0.12564177307747373, -0.03987692865082079, -0.06663199042752324, 0.005084891509179795, -0.029825547642022394, 0.007275847190751835, 0.008184128903607764, -0.035047083154156826, 0.01777247821446748, -0.04535752307376852, 0.012888944632679986, -0.06613805337387735, -0.00983320765318252, 0.09852436615928833, 0.18167135155603858, 0.1623078271577104, 0.09620255145951309, 0.10332951880865048, 0.0637150061265965, 0.09381060349354349, 0.08662580644935824, -0.010788372082589783, 0.01780445856071526, 0.10250796419703631, 0.048000037557937345, 0.04275504341472961, 0.050033280180407695, -0.0001569347036724348, 0.018183086817472553, 0.006824856082643484, 0.01078773884679877, 0.011711509804212065, -0.033821395932696514, -0.005903091298752485, -0.014922962831321765, 0.0272763192694519, -0.008798252043076136, 0.006847538310084584, 0.006804793486926326, -0.0684999685014921, 0.021004630698933793, -0.0042599979281229, 0.07627842359795314, -0.03476566426745775, -0.10957672426767902, -0.1108702976510032, -0.09105333862547949, 0.00420721993758608, 0.041291928851459235, -0.049795788764243024, -0.03122594489913273, 0.01651617748683939, 0.055937671649412254, 0.08395525022737065, 0.1341997929592665, 0.08379159382142273, 0.04887140008121363, 0.035498883091975235, 0.04669248945642632, 0.04484863143148782, -0.010939001713058758, -0.005435826935734275, -0.0075502218266060095, -0.003756518979147694, 0.003916839357497818, 0.013039146350428884, 0.011274809365365936, -0.07538403250927175, -0.07876868798511201, -0.086603543153163, -0.10887172469503052, -0.21097308280864502, -0.22101247928165332, -0.22995288185848925, -0.17644653101044863, -0.08545170562541861, -0.0350503781953494, -0.10204865657915735, -0.05933440133095865, -0.01752057445901735, 0.006913075388101348, 0.04336721731767502, 0.13109183387447507, 0.14654336065230247, 0.10852828936662023, 0.08646598548707371, 0.030321160544619245, 0.03992929281131101, 0.03084235711000611, -0.029170699444898928, -0.01852493489648531, 0.0060475922033820595, -0.0006357928573496903, -0.03425536688704438, -0.03333486862549855, -0.0351391975442248, -0.131201989596127, -0.21694618949846922, -0.20925858609215978, -0.20784470443774342, -0.14166231262106893, -0.15925080905265657, -0.11743550261212177, 0.025750922765883796, 0.008063403317317981, -0.06460069164447854, -0.11550528448104062, -0.09893276648292516, -0.0659454738608595, 0.011708984238094055, 0.12354202514092318, 0.15696421852942916, 0.09975597804466481, 0.09125453299016961, 0.022787818598057952, -0.003440483036813137, 0.029149112203519054, 0.03345952107549745, -0.011633272054580089, 0.0269952779188893, -0.008476030605109272, 0.02407857893711604, -0.0028835423337418746, -0.013139237384358847, -0.13818709605976873, -0.24530368440387934, -0.28190452752747613, -0.27494017053863423, -0.1826383010570838, -0.1330964177235826, -0.16339374627833297, -0.13051251833272468, -0.15694255926128733, -0.1362583535936781, -0.20520303247978913, -0.2125704618836465, -0.1617576551563588, -0.08788385816397665, 0.07050811934633183, 0.12934209236329572, 0.13561227651462707, 0.07480137121565457, 0.05739696379138132, -0.028495346990549366, 0.008886820827837654, 0.019595150229533065, -0.007951801507747436, 0.027335045994154594, -0.017340331413701116, -0.006200432346688452, -0.02880703110567211, -0.035640223024940826, -0.09133297805446618, -0.280044336087255, -0.33171862877578523, -0.22973653765131122, -0.158324261421165, -0.22447864269629447, -0.3338509921724863, -0.3178717303135451, -0.30389040184860266, -0.2527240886950379, -0.27369858553582566, -0.18014025563013117, -0.11288492964476772, -0.04504192222171416, 0.05972757142453831, 0.18700059978479985, 0.16065233262092016, 0.11112499758882187, 0.08697958605136491, -0.012744202463212265, 0.009691671207147189, 0.02712249972541411, -0.0066279752321260176, 0.004196093708725736, -0.014979993168478714, 0.023434963699558307, -0.003744554391019707, -0.010979012736821524, -0.023347406816442363, -0.16639824083659882, -0.16685189957430052, -0.09664796820079202, -0.09645586441416158, -0.1386798146117851, -0.180426225407294, -0.17557362230089354, -0.11454874615597971, -0.07863828703262082, -0.06052937209823942, -0.08631205393888511, 0.01592509182583304, 0.06999880913441402, 0.11890550748067152, 0.12707870829249235, 0.11944349434101553, 0.08008987928660875, 0.07959705279470401, -0.022307439136778955, -0.03205878753669911, -0.01197316257837295, 0.01909905138271622, -0.025760543853569573, 0.002807598848320679, 0.007968637206114177, -0.012117333937900685, 0.0028523115413317066, 0.017408700249119467, -0.009683759315049154, -0.0004067218478784448, -0.018762748844511443, -0.05481288158089217, -0.13262175926586056, -0.12646593563797812, -0.06316161648493318, 0.026125624137635098, 0.039491899441412286, 0.0052424041628110415, 0.05950611684401016, 0.03381572284051381, 0.03329972513390028, 0.09634477801269938, 0.08697921775409838, 0.08337555859234222, 0.029975144240646814, 0.053044603725535225, 0.004053543016677992, -0.018502386618280835, 0.005984357604923343, 0.01917036089958768, 0.01666130042090442, -0.03413254646148213, -0.020959429396873983, -0.03331135095770624, 0.022516617340532594, -0.02102454474141031, 0.01784158976687997, 0.06682783189657875, 0.032800079455906204, 0.07407727838276763, 0.013988274954057855, 0.05757538665959255, 0.08949287041413452, 0.08220084395093248, 0.05147406758161205, -0.03664281041731104, 0.026472250148725212, -0.008969840409559681, 0.010103899956970008, -0.03289696232909543, 0.07043454049046527, 0.018009318599679427, 0.016833093814826672, 0.006135879097633854, 0.020394666370343813, 0.01832734649120314, -0.029134756933003388, 0.03176043869806905, 0.018410146384103016, 0.0051134570511490104, 0.024855816138226725, -0.0240276225171885, -0.020717225453144944, -0.007226676365545069, -0.011326427250429382, 0.013584774719238319, -0.030619196649808274, -0.011761601690735406, -0.006596656090437759, 0.014010726560964824, 0.006696649180593267, 0.012059717624713044, -0.025712373284773955, -0.051194944698444544, -0.028545455418880265, -0.002066646909256383, -0.04504521893486674, 0.012259043573186912, 0.024398257150127195, 0.004577699789064896, -0.03852681040601162, -0.013045119096363758, -0.03512979957498703, -0.026175306471297177, -0.030714042719196522, 0.013556151860750841], "bias": -0.07893172982347813}, {"weights": [0.03015574928788521, 0.0247009916755074, -0.026029773617438228, 0.015818938069369445, 0.013434454500447272, -0.002821270505795205, 0.015667469684816915, 0.021372087609437915, 0.006057958288400042, 0.01025722756723084, 0.01771424738316462, 0.006504564158337327, 0.028822901003572564, 0.02316386520762053, -0.013553128328412956, -0.029489449166841514, -0.021785785378729182, -0.010233766237424138, 0.003761935668745775, -0.0019903973985062814, 0.021495741875237312, 0.023797332264000895, 0.012401862783054211, -0.02703220527933428, 0.016434869836699978, -0.03188623646107968, 0.020260423592569715, 0.03362786793017157, 0.013510138500110118, 0.016364745203298996, -0.017083398188168238, 0.007695139996103842, 0.011773535510213307, -0.01187083063634109, 0.008859320888500747, -0.02577207271277677, -0.01130010555761969, 0.02207243042038954, 0.017233381829082677, 0.015558889683894581, 0.016676548984340313, -0.005008625433224302, 0.02124490177819973, 0.03251050987976461, 0.00015121685899411642, 0.015503953307928618, 0.0038536955790875417, -0.006550000915884779, 0.03185285760842586, 0.018498806670566074, 0.01843864324804149, -0.03001091168974505, 0.02401967935585072, 0.016422286488625502, -0.01329982508033712, 0.03135452316147602, 0.015150215023580785, -0.008071198509885722, 0.021086074075888955, 0.009062967509492353, 0.03348108668700867, -0.006017807813194971, -0.01400304081961657, -0.0019277920872346295, -0.013511943709819892, -0.02127720542627887, 0.009927511800276817, -0.004067317527205332, 0.012163330874122517, 0.036694522068855026, 0.003965687492150687, 0.04197502780222774, 0.004761565380453393, 0.039120249769436, -0.032243074594893235, 0.006175721025088337, -0.027394934583547033, -0.0177477153026318, -0.0314778808329687, -0.0045346570566417955, -0.0040548122740157455, 0.027630390494863453, -0.006006470608412022, 0.03411741015303019, 0.0017066177108703631, -0.028798449129933446, 0.0016656637745742797, -0.03391259214121919, -0.014347649358098584, -0.00014460450143048643, -0.03136837606635803, 0.038823193888827434, 0.028792100218749197, 0.009726912252158644, 0.03064251822639502, 0.11049551874924353, 0.13418606245601433, 0.19170263841330404, 0.14791633195475978, 0.14968552726496706, 0.08165560903098719, 0.07346302864369528, -0.010199948458553978, -0.030038751053811253, -0.007179596013172705, -0.026120427757606687, -0.05326763566553981, -0.029063685716741193, -0.014102043552861425, -0.014098910900124812, 0.0006601131124726711, -0.005176956108934483, 0.02689817225776045, 0.027199259075576254, 0.022256844328438646, -0.0003473770953410285, 0.011554995504501137, 0.045024188269134464, 0.0631555202912789, 0.059019162553555465, 0.10902638339970876, 0.10908270587443786, 0.16848387314082208, 0.2005531873919483, 0.15662618565052666, 0.20078576897727846, 0.21857436538757047, 0.23683654259687675, 0.16707232921298726, 0.15106178345218618, 0.12278657482291158, 0.04548881083381427, -0.06399944873907842, -0.0813622645278202, -0.07496728100914454, -0.08379606324698113, -0.0372204353353372, -0.00921655300223343, 0.0046369307277281495, -0.02184160809089831, 0.021233184421678042, 0.022476027141538277, 0.017024566221140798, 0.027729873090388546, 0.03311737426924137, 0.03218019619455641, 0.05114009983198406, 0.12252837688881715, 0.10590131014979492, 0.10855559779534749, 0.137525576207583, 0.026600980403357777, -0.04807399098920486, 0.05156404293940349, 0.15856392194417696, 0.23093308494811626, 0.22671081076108912, 0.10908545331732507, 0.13118557723087457, 0.03605840621608248, -0.023722748784825796, -0.020822471344423867, -0.06959982373566152, -0.0860019306266649, -0.029058352997794773, -0.039886342040542797, -0.02985872788640512, 0.008715956196630905, 0.026675984217522673, 0.00882665357816299, -0.0037174237992678304, 0.004029917997319557, 0.07706637233625054, 0.0944114028671914, 0.11608649477368536, 0.053367302644001864, 0.015809241487408136, 0.06179711790105802, 0.05514240118941896, 0.008495526035167345, 0.007739915523573909, 0.14605015648212133, 0.18750189232577644, 0.18968904788761878, 0.18356369799259692, 0.08008081648991269, 0.19967526106853198, 0.0497981985574637, 0.026389165566775077, -0.00924240255335279, -0.10493872190791799, -0.11368656350935284, -0.011662498656154806, -0.00497178827142517, 0.032960787109305945, 0.025606562250302917, -0.0037494930047904714, -0.007856545270774637, -0.0305039187457456, 0.0015035214844805848, 0.06978933159674419, 0.06764189107106135, 0.0839084343215574, 0.04787372305041802, -0.0697932725708849, 0.040673060724167064, 0.021577948865276586, 0.010924038075052973, 0.11558570304993122, 0.18912898433262748, 0.23964839731212004, 0.2224307524036426, 0.13441746845491953, 0.14234679040938186, 0.1280084229437471, 0.1032767812589279, 0.05727787795912376, 0.016835307256280775, -0.021733350670465727, -0.12726457835677074, -0.07952888925974966, -0.03543867597574768, -0.0035234318929792366, -0.020082665816658837, 0.013453452822424692, 0.011425250361361695, 0.01653306938932606, 0.04749537260494309, 0.051113989392449426, 0.10683978439041843, 0.04073868771006651, 0.04674257076723365, -0.007003510769246002, -0.07133916101463028, 0.048695732789797594, 0.009794010874405516, -0.07245626826680665, -0.13636752334114782, 0.06981674313177105, 0.10036598465940921, 0.0448582600276673, 0.0776603485920529, 0.05178621185496135, 0.09121043922320528, 0.049045496350366515, 0.02633467126448283, -0.09203442399406495, -0.1343336716437317, -0.14830935967487519, -0.04253045343505871, 0.0015380287874237578, 0.011442312974299354, -0.01595035096722853, 0.013630912585636439, 0.04012469111516741, 0.06052220926785907, 0.07365515414693295, 0.05797255656867899, -0.0011995622160508603, -0.01379829635843735, -0.042021733359592126, -0.059796510563270046, -0.14438854320757002, -0.30476014776815147, -0.49937232316719077, -0.5269774266704165, -0.25020377848160397, 0.065565354147342, 0.14617126030051378, 0.12105742352995738, 0.08838194962682826, 0.04784216781080455, 0.0667400270832935, 0.024925334930141253, -0.07366447167422176, -0.19487833076602445, -0.09957973669977335, -0.011314244771440862, 0.03268553727421361, 0.020814501652368624, -0.02843956083453883, 0.0351752212494819, 0.022042966113116895, 0.0051196557986379464, 0.036109252699160294, -0.032595151100629535, -0.0931543066552055, -0.24779205080479236, -0.2528156632654556, -0.3106054251389696, -0.526144371418422, -0.633190395722626, -0.7529048296846433, -0.7070394700064682, -0.3746268172074253, 0.031109218261701422, 0.11366454937845662, 0.13992126488188306, 0.12331733713391484, 0.03575646303248511, -0.004852935399057659, -0.03925533883294567, -0.19749559616584664, -0.19005332065468242, -0.0782386985630101, 0.034872185544807255, 0.027718376398466988, -0.019417197843959965, -0.0007334980128078314, -0.004123011458556745, 0.0018884011657125924, 0.027844069177256382, -0.058069265777513, -0.16539545432606967, -0.3328749016565321, -0.45815696111814125, -0.5194472094744716, -0.5609655661773087, -0.6662448025547592, -0.5893449515991981, -0.5777581343264627, -0.6001207974579753, -0.31040091280228266, -0.08040018933176225, 0.1072277133686605, 0.05630273650247116, 0.14062301018799575, 0.058403519534500264, 0.04448353462509301, -0.14357930886958423, -0.1703015944057825, -0.1333190577160871, -0.03523679811884934, 0.027618683365241637, 0.02146821086866868, 0.02504638599304134, 0.0041344094575244145, 0.007807314762082029, -0.031878887130866645, 0.018135667083640325, -0.0620883852723001, -0.2325347907801406, -0.4260390593505684, -0.5855644477976869, -0.5608398441100971, -0.5085337963228026, -0.4202194605110771, -0.39413892455389893, -0.28819831143788815, -0.38426600085640183, -0.23328187337369222, -0.04112545836897355, -0.02842467131730355, -0.010437955376899028, 0.01181834644015894, 0.07458880452126612, -0.08649869934948912, -0.200670867360321, -0.2523630412587379, -0.16395151505142436, -0.07135064952220437, 0.025980807396760567, 0.005032285257184982, 0.009136704763553476, 0.012958317643366864, 0.00883519692092139, 0.034312493333881804, -0.0027196028656141093, -0.05532412634930978, -0.304301184055109, -0.46396973619129295, -0.42411401158765616, -0.34938040695616146, -0.25199369611083694, -0.14546122664766878, -0.07058628812615036, 0.06243248846333472, -0.04078788000153269, 0.05652686601155827, -0.07146583418133046, 0.021049902166113087, 0.021590827648705083, -0.011505999827692726, -0.039743064251880525, -0.10435148131329593, -0.1369205914807154, -0.1988206282387332, -0.1851398501516549, -0.08381409270025933, 0.008720757745199762, -0.026280834315623287, 0.02719875379144513, 0.008530275729089896, -0.02274510106220406, -0.031564122314569856, -0.010112740634981823, -0.05454990849834523, -0.188479464746881, -0.26250779435006816, -0.22238373033558206, -0.0956111473547652, 0.01696403989949172, 0.05175181472617158, 0.04753086876047072, 0.13065324729161354, 0.1197769459522144, 0.09255619740853514, 0.004621395467262979, 0.051521394802248446, -0.04591860303849899, -0.04381663869914933, -0.1004705733652429, -0.12806782187308674, -0.08690999857446907, -0.1477288840744834, -0.10657081098643953, -0.0817017919633986, -0.029960658531553264, 0.03963937293397181, -0.026654204383890743, 0.010555339403469314, 0.035416219417899394, 0.0009132787310401095, -0.008910254502814541, 0.00927487318180037, -0.08500135270059214, -0.11170843379022202, -0.08671877575025509, -0.06321688990834602, 0.032496191354727325, 0.002450753407392153, -0.01952113467394969, -0.029359192395550522, 0.06453695596364072, 0.11963205413218518, -0.020429823510764285, -0.06141801683563195, -0.0983456208580436, -0.1149423816631491, -0.05278377434953346, -0.05477905879990299, -0.016583334098537586, -0.07834390961058776, -0.10905344508041653, -0.08169314220653111, 0.010172562182065947, 0.019725392651380534, 0.006289719885116009, -0.007695238199073767, -0.021721608175712157, 0.05564253044509003, 0.032729269330190436, 0.07958063702378489, 0.05105914584449711, 0.02547857936340641, -0.1260341674342598, -0.1408298120648202, -0.1715391918721217, -0.13622692852783844, -0.10945064012661954, -0.05300108801703166, 0.10190156409412147, -0.020576449053179142, -0.1614044492508464, -0.13131824068893733, -0.1097186302542035, -0.0737264940645032, -0.022157329653877785, -0.02782173162452165, -0.0021292705592113105, -0.00901048381765568, -0.015043836820236646, 0.0023421107446009956, 0.06371371052106872, 0.002443295394240335, 0.02715953859653516, -0.0010456025142627778, 0.018472160989086342, 0.003868492217698705, 0.08472146971579367, 0.13728088419687573, 0.14090475888047366, 0.09607405954576091, -0.08279110795402209, -0.20826219858394693, -0.3060086567565494, -0.23475670356522788, -0.23738535369238403, -0.13705057358965872, -0.005896093349456882, -0.02835633286657578, -0.03891509532845269, -0.08356437012637062, -0.027794852371097484, 0.01376615451811014, 0.03100311827608042, -0.0588521737038796, 0.05645841382516912, 0.040940829953660975, 0.058061221239304496, 0.05251872045157493, 0.07079281828591469, 0.05197326580193022, 0.03650043681442742, 0.0010644858083499003, 0.01892042844284, 0.03311809224416881, 0.10748197209176151, 0.21808588931719344, 0.15305932641716072, 0.08715659030012907, -0.03597826782045048, -0.1054670462949585, -0.16375476657411028, -0.20037683888062782, -0.19153509004570982, -0.07580896717324259, 0.07544769786792985, 0.03538153411722836, -0.07854031870670461, 0.0648034401739398, 0.10836312911504797, 0.1265372435213834, 0.15600332324608873, 0.026537108707186386, 0.13060653533774375, 0.10955740067865516, 0.09125046577643278, 0.09806359501028948, 0.09428258953501298, -0.004563956315234663, 0.038757167733823525, 0.008043103149638938, -0.007711857851895689, 0.016017563045970948, 0.15220373997410264, 0.19779163633368868, 0.20535838495727074, 0.12374791875051856, 0.03628788553313045, 0.07777124117415479, 0.08328822972455566, 0.09677653203501313, 0.10592999227482451, 0.08963001545861986, 0.15995853644917066, 0.03298354201732872, -0.013724616524712088, 0.09158861665189467, 0.18075506280501966, 0.23171938356465052, 0.20494203316915285, 0.09105544733089987, 0.15129678917000244, 0.14388403582535178, 0.10168482626903605, 0.050656793321789954, 0.029260257095514865, 0.033270064646228024, -0.008821812076625477, 0.0025794265214169124, -0.010322776747639073, 0.035159936332595634, 0.11072201506525044, 0.2548314117759999, 0.16397476580437761, 0.12815269562167317, 0.12197766759949545, 0.18930515399649508, 0.23256124229896152, 0.15555281784313782, 0.23901673765746811, 0.1043115478837152, 0.06997802635166962, 0.02992580336180033, 0.010144627969969582, 0.14049735143632083, 0.14392412042049998, 0.23102413296355576, 0.20914623347121036, 0.18929661683193358, 0.13966389130217402, 0.13979750131083865, 0.10613819484361851, 0.07254737321392168, 0.01464952212342554, 0.010193320844433962, 0.019994740385811997, 0.00300823699849511, 0.018063774061341104, 1.2009751885244373e-06, 0.10805580134661258, 0.21449688242447848, 0.19333268488284916, 0.1514922288664643, 0.059391766928239935, 0.11715821821451551, 0.0822569065363554, 0.06216147841114483, 0.004875440450262139, 0.028439555122027768, -0.00671750871106786, -0.010503520413209467, -0.03934752408452479, 0.010207550327046752, 0.021731078055006136, 0.06687926228878592, 0.13727481971404135, 0.15553816112756003, 0.14269775755726563, 0.10325184667799862, 0.05252409441979287, 0.060820902449574894, 0.03521705487350981, 0.031570812784530326, -0.0018667470800096647, 0.0015947965520174906, 0.0040119952126013905, 0.01802688762000121, 0.052799644231927165, 0.14595831886334962, 0.14943365246920215, 0.1471577742562884, 0.17243402606474895, 0.04569590175116247, 0.0612539169587102, -0.059946709008362256, -0.04428261925830786, -0.1457409653936989, -0.187743151203289, -0.11159021567389565, -0.1463144922384633, -0.011924561299785403, 0.028801416796215777, 0.05370968471716383, 0.16444578055452727, 0.10675174316901874, 0.07082659170220128, 0.08640988181799195, 0.022339770117921612, 0.01922327156295283, 0.03713742178436484, 0.010996865837526591, -0.005106495488885127, 0.03415967386447738, 0.011618208278096585, -0.00963147497404995, 0.05881408760157803, 0.11141998740681829, 0.19395597062174127, 0.13383242742748105, 0.13198321711072625, 0.021767657961167794, -0.0037001148608392475, -0.02551317853613833, -0.10349825819243152, -0.18137531263297674, -0.1832823265592239, -0.2364935227151841, -0.1576865037345886, -0.09430690194300864, -0.022546707299008782, 0.06639684630770441, 0.03375783466701214, 0.03881901238309447, 0.026442930561406144, 0.00030768765806720604, 0.010501219240883297, 0.026952098525857178, -0.016719471504501378, -0.008336604550260642, -0.015211106063302882, 0.02221275688147961, -0.03066254806329973, -0.003979531871275959, 0.01571948052649803, 0.002391031622080983, 0.09237276731468531, 0.04109801134135903, 0.11820082194628026, 0.07624276929244739, -0.010473839940977754, -0.009374222359100905, -0.038197140659144806, -0.005745407990466805, 0.06515796425725146, 0.0009386973790827391, -0.05201856364863717, -0.06837299737393338, -0.036005876018958785, -0.07985001060096526, -0.0854740329483712, -0.10082962603006448, -0.011468257064377145, 0.010167804224222698, -0.010730266589055432, 0.007642100354706396, 0.02551608414189704, 0.020383405380671866, -0.03442465482355788, -0.026673195811533774, -0.0028188458639055794, 0.02312151432091356, -0.004381426909081051, -0.007125584879035689, -0.025190825614541428, -0.01715607526345905, -0.01932002592543533, 0.013044736130566833, 0.08714835792162184, 0.11048962314028858, 0.10444371864227207, 0.06683186367558229, 0.05515124037427498, 0.024717852991051184, -0.0010679978675606106, -0.05966223770618039, -0.08851862520700225, -0.11345785106487549, -0.04352135609300698, -0.06657700685811521, -0.06133310061255864, -0.04866882735330287, -0.01139486925875071, -0.013068196359587034, -0.012640052206868077, -0.011399859866842624, -0.0009600314351094347, 0.026846354761298333, 0.009373092730714593, -0.030711111161514114, -0.015398756301312655, -0.0024364873823466216, 0.03429520492375009, -0.002900174531674088, 0.038277353405815874, 0.03311148200462055, 0.02613625070283171, 0.020017727157664613, -0.013236799637700494, -0.013510818390530071, -0.0183936462012499, -0.019687756092365498, -0.036607568225266944, 0.01228837995799046, 0.020378743172611354, 0.006361404923186681, 0.0237362878370221, -0.01920383598910529, -0.00891548052388614, -0.013104566916624682, -0.03526587051838343, -0.035623689770780495, 0.005819010403805635, 0.024245333373625576, 0.004017654790996035, 0.017558584362149028, -0.009498966001204184, 0.01750156094942159, 0.02580739843618722, -0.03492450779380389, -0.022597302451939784, -0.03140198605471425, 0.006351473826190447, 0.004911180519161233, 0.03210468325144401, -0.012254275976916834, 0.008791414193982734, 0.016173630578760596, 0.02590461324645515, -0.009207353356684139, 0.005723849919257535, 0.009674580598257109, -0.032819837735615594, 0.013373076921978966, -0.03546850777116007, 0.0031523041582528053, 0.0005283281187807223, 0.013203938445431568, -0.016430581199304243, 0.017403230811044328, -0.03052521166937448, 0.03142869987998917, -0.009403233414754835], "bias": -0.3501465297391044}, {"weights": [-0.018114446344491608, 0.016594207017112533, -0.0326971671761484, 0.034264729021097534, -0.028358108160272604, -0.030156932306000066, -0.03455165408371997, -0.008447308893933383, -0.03402113657936331, 0.03382154808978893, -0.032230143475665676, -0.03561892733467371, -0.03208274932481283, 0.029208629992608336, -0.033807169500445586, 0.02129813063067355, 0.017531479939555, -0.018339919663632645, 0.007346180548361517, -0.013459769212383912, -0.0221317512243662, 0.030947124738043216, 0.0030722364505238256, 0.0046746187844524875, 0.023603869511741447, 0.007937845612585578, 0.005472128463791949, -0.006716421188407342, -0.008398062547495724, -0.03449602249808168, -0.014903751770767207, -0.008888510792751419, 0.0030641309575224975, -0.004697092401501917, -0.003956442541312254, 0.013932685877826772, -0.022750137219391203, -0.00941802310568657, -0.021072318523295126, -0.013115993295607257, -0.023902780286410196, 0.0051825565876036025, 0.026749432618975725, 0.026748305357208194, 0.03441834809547794, 0.03291258149557591, 0.032019613646280226, 0.029750956540266982, 0.00453243991394472, 0.018339639909250798, 0.006865176971023567, 0.03021390099139507, 0.019115021662135905, 0.018848384253008617, -0.01859904044447906, -0.0016807991086389557, -0.03187582701278629, -0.021849516864413315, 0.004791391398466488, -0.005299685765869282, 0.017443629209713526, 0.015756658875969567, 0.004116121180083497, -0.0030523478139048814, 0.04490181392950012, 0.03152173729510987, 0.06519308322157673, 0.012287352555831575, 0.06468763267313415, 0.01783272966353539, 0.026893501969828593, 0.06335195460824176, 0.02873265579758984, 0.02613723850283475, -0.0013004417850627748, 0.0017305415352638096, 0.010972161790337963, 0.04780644649532012, 0.015783184045683386, 0.009991568528754362, -0.008502108455068439, 0.017979803445209778, -0.002336733071867124, -0.02658138695421372, -0.026439055138683797, -0.016137957953428785, -0.008764021652517353, -0.009729194119022283, 0.015666249275006875, -0.019852656157824125, 0.007980615212067856, 0.020926760028828404, 0.039067554406446936, 0.04254141679210835, 0.03965874912738301, 0.0586258895024836, 0.06951740716813372, 0.07997288935081742, 0.10418350475319901, 0.04140651358636784, 0.07114204581996349, 0.049648443306497134, 0.04535859229936249, 0.08429848419086108, 0.03465053031332503, 0.030244329165915494, 0.00953619269228016, 0.03238438324124524, -0.012454271379808157, 0.030707075122744558, -0.009839325874857878, 0.004695103526024057, -0.03530130070318593, -0.02353102937427467, 0.0072704606875890745, 0.02347774375852974, 0.033203323692407756, 0.02595072746113826, 0.02560975987664684, 0.007648966630476913, 0.007106101978758792, 0.019485649244258066, 0.029665937951871668, 0.07461304109953153, 0.0730957558537589, 0.03886380564893637, 0.008834547377036402, -0.005739398879393412, -0.11052251208679709, -0.07914184604501313, -0.0490887587674339, -0.027478889396480653, 0.06599370145952675, 0.04712813265856905, 0.06496532182736445, 0.006877411357691047, 0.016372704665369824, -0.002524417913905427, -0.01855012343466391, 0.014048847511566223, 0.024444456860251748, -0.007375668258826889, 0.009541556361470216, -0.0038713664354595345, 0.016752238957613894, 0.013337664102081644, -0.006267196655022634, -0.0052977120232132364, 0.042946275008226405, 0.009417865823401955, 0.062406208337476794, 0.017730604621208155, -0.014581852520982265, -0.06876018531792204, -0.10310045163669292, -0.14418334425458865, -0.24531181500841542, -0.2379255495144312, -0.14729481761777827, -0.09145413747880021, -0.08981712657624741, 0.021514986528359058, 0.05849027404038142, 0.006236939300135747, -0.004988203465761156, -0.05008797648361198, -0.02401265872570919, 0.029633708238821305, 0.008071503086225278, -0.0015368758270618503, -0.0013340495941539026, 0.016950418247700674, 0.016633444461253158, -0.00507381207966412, -0.038669474570855344, -0.017874811625549214, 0.022037407411109784, 0.03973777727687821, -0.023583890758811635, 0.03098189978569958, 0.004294802067214901, -0.08680244562696278, -0.10997249945184151, -0.16951784929194158, -0.14373189574803133, -0.22101850070963672, -0.17819949049059833, -0.1573921589288612, -0.1525427939164341, -0.12789115083411223, -0.10230890317190468, -0.037416641736535236, 0.008421891826678124, -0.028231431746480965, 0.016013561218921057, 0.015043365952059589, 0.022058606957391723, 0.020283649849921856, -0.003496112638877182, -0.03153174016084664, -0.03684574581370756, -0.0034377154816498806, -0.022051782315787364, -0.02535186081167247, 0.0022368004588195285, -0.024505637762795948, 0.010727955094777591, 0.06609314250619289, 0.010665771054956214, -0.09633309544792444, -0.10614740804845463, -0.16439150888124418, -0.17852972150024274, -0.14647598791452734, -0.14056692023862602, -0.14536506660231513, -0.10055196252616368, -0.1485424383813504, -0.13166733391734492, -0.1151662617481757, -0.03585277843326695, -0.00836649729045797, 0.007375541125118772, 0.007871045342104761, 0.03145676291715934, -0.020937007281194825, 0.006242162400873319, 0.0032412328773252608, -0.021281306459283243, -0.026991978203821886, -0.045169853416962454, -0.049477243125006024, -0.0155528067946435, -0.0724015622566025, -0.0399425854586604, -0.022735936425475587, -0.09201405136271412, -0.1481888610381406, -0.15111519419198946, -0.07728462583902232, -0.18542001404678146, -0.1206148749763744, -0.1611988059060003, -0.1819784903749092, -0.09472753041239591, -0.14591605650327855, -0.08873790438178132, -0.08531624936198737, -0.03819381165531253, -0.025291399870397413, -0.02653020581242652, -0.020019852195235947, -0.0024120669477088854, 0.032028312459480866, 0.0015432777459776794, -0.008654096654043835, -0.053046096482600516, -0.0571583274298948, -0.06294579478236773, -0.002076871522013736, -0.03118440193250048, -0.0749065209196197, -0.10132778804933432, -0.1595559790546753, -0.17279314777849827, -0.13095041711206473, 0.05220879059215174, 0.02283591843864275, -0.008649273854710779, -0.08647018650119402, -0.10411310095006611, -0.06349599208593645, -0.07065299025607168, -0.05561856886044951, -0.06844810833168455, -0.0752085529550958, -0.05721727613268549, -0.03972425149735124, -0.04203385568886611, 0.02517266040596044, -0.009085190478773068, 0.02062788915024545, 0.01117079726116796, -0.03721187877124091, -0.0016915438324255883, -0.0393213382295139, -0.05431540890497029, -0.04263670967635328, -0.03823380588864485, -0.1204042566145297, -0.15352879921406967, -0.1668420521992423, -0.2070337843242255, -0.049171492238654815, 0.1283743551899079, 0.23828451519174174, 0.16497037259614045, 0.023553477454393915, -0.088874812780137, -0.0442437713887631, -0.021253083800939737, -0.011190870751718315, -0.03915258307786447, -0.0502533929176097, -0.05348866822258945, -0.02880705752154435, -0.017585646103875904, -0.029449071093601766, 0.03040393418224174, -0.012566971975334256, -0.02979200944332103, 0.030896929741475766, 0.0001372871633615171, -0.051585650572728944, 0.004676425032912155, -0.014351860683521197, -0.0472948474744686, -0.09795372606554258, -0.14186275091170503, -0.21656207457135784, -0.1885111291814506, -0.011430313424557866, 0.18063260116920776, 0.26381180585503206, 0.18640172302409444, 0.022477599959977234, -0.07350127398365405, -0.09130190494753286, -0.029080924704633977, 0.028317897773284712, 0.011764101813388682, 0.032210262764008235, 0.00839967889498631, -0.04299369260729084, -0.007766491416790707, -0.0348821128329161, 0.00616112687785753, -0.03242483489890678, 0.03219722940514702, 0.017645382761328328, 0.012353860413433015, -0.02238732468806091, 0.0006760535998104007, -0.00813442699923031, -0.05298299797068516, -0.13013337078691492, -0.20583953980918165, -0.22352666069404092, -0.13163174686962079, -0.05820958807913987, 0.09068530421048752, 0.17258883762772306, 0.075845666149333, 0.017581627606721835, -0.03607331574742279, -0.1226428868063793, -0.06508668035544428, -4.42723623195582e-05, -0.021708818816375205, 0.017522700895061527, 0.04145886369038012, 0.0016989230303423087, -0.006189510811887581, 0.029154571577047237, 0.007566589096935457, -0.014254979200977796, 0.0029874744769198243, 0.03213019907113324, 0.015581727436181941, -0.06221889595925387, -0.01011531548584933, -0.06643457986223217, -0.11738220125545844, -0.1937868520197944, -0.2217628985372407, -0.19856483938065148, -0.1293154031998387, -0.06522698606671253, 0.09077893812942178, 0.18117951153071943, 0.03979503427545045, -0.04056769524309393, -0.0909226762662271, -0.012124588114445016, -0.031636907457325086, 0.01210414119783394, 0.017527245423757862, 0.06866143566371886, 0.07756655492030386, 0.03412032403416208, -0.013332091830978644, -0.008689001888104796, 0.009353011184338414, 0.025661762418053433, 0.009569561393632497, -0.02971777107857746, 0.015591384117484407, -0.016205325488918947, -0.018780166512957736, -0.07165651199429163, -0.11182124965646406, -0.14243750464260255, -0.06927701355684895, -0.07384428521657045, -0.05156166315693812, -0.0609470470068237, 0.16741192487142534, 0.12975739148897714, 0.04998798775687116, -0.09127954789873584, -0.06316698541121182, 0.017441065844101954, 0.059045590690599344, 0.08885812663354178, 0.07271085260701032, 0.08489077416983655, 0.04816064247198592, 0.0006001945160417926, -0.041043118792407844, 0.0038672648910080343, 0.018162702681850256, -0.008925312630544045, 0.01340762288556202, -0.022023022272124656, 0.005641088497058316, -0.07696831693817485, -0.023784678496485065, -0.06154102038488907, -0.0431026172001746, -0.1277775718901668, -0.04904502050629716, 0.041358586911935766, 0.007081241545752144, 0.03740877862093221, 0.18394040885830706, 0.12804678384266377, 0.06582949400915994, -0.09979794216795364, -0.06035515359432268, 0.016943835716770526, 0.03338013149953203, 0.07329557178280541, 0.055123671046438574, 0.02550361119331988, -0.017359206483755944, 0.0023543058957283505, -0.025832892671139085, 0.012300498083911012, -0.026842974339810508, 0.010213058606052724, 0.012559857747646919, -0.037083332989845015, -0.06757290501997337, -0.0637387207332003, -0.07331721739149745, -0.03498959833019432, -0.0827619572158952, -0.05637218772199318, -0.02199697830395345, 0.11734144340183403, 0.05985433608203658, 0.20640264793078208, 0.2408986377353001, 0.1274017107686309, -0.034350749885146616, -0.12061506330310925, -0.05828471884598803, 0.021260994987954775, 0.08620000215329202, 0.00802147197613885, -0.012020127917313642, 0.025777685487240087, -0.0017901989644405212, -0.013575327554509097, 0.01919997046718836, -0.03710517931329324, 0.01839283721555117, 0.021670557548105526, -0.00817605604215005, -0.017163557041526188, -0.042392593616769274, -0.08992310966266108, -0.02755690061068886, -0.043168531434906024, -0.01990774619936896, -0.009569561646745434, 0.072234788812018, 0.16546887093721818, 0.19933826455806763, 0.2732011802294799, 0.2563399350466674, 0.07891075373629512, -0.1463243873348361, -0.14047475001365164, -0.04999900126532876, 0.02241289656892608, -0.00042698245901718414, -0.06273370387453825, -0.04843644494649786, -0.019490713399795506, -0.026491652220109636, 0.018211133092184837, -0.028021896888211946, -0.018628059399223316, -0.004666611909036548, -0.005980045269596687, -0.023209855121723483, 0.019206079295228815, -0.05056365078548648, -0.10808992205903149, -0.10039820291455849, -0.09019157832013379, -0.018333926897660068, -0.008355256194738016, 0.09034117663711437, 0.19613434280329609, 0.30568308446662235, 0.3333392092391136, 0.20602424785913323, 0.009626570196684234, -0.07052955676953393, -0.04630530499450434, -0.015201103919507497, -0.03824351134539746, -0.05546287588123448, -0.015449881313343112, -0.005206042482744082, 0.01877809723578347, -0.0510269086339214, -0.027511656062916532, -0.01748474682653349, 0.00768190997917392, -0.005349011616358399, -0.02126757729675322, -0.0176265044744165, -0.020266681336712434, -0.05152941746332351, -0.08531390848221718, -0.11904974174623349, -0.11938391154318319, -0.07530400265925052, 0.033082539333858116, 0.12113358257385708, 0.2443142585942218, 0.2735752287955624, 0.3031685449545852, 0.20249655346703926, 0.019314504606604933, -0.021374449572935286, 0.0124409326870625, -0.09250726180359864, -0.07624620341098359, -0.052510455212837155, -0.08594378890035774, -0.030539188961530545, -0.032535069747983446, 0.027420571801127336, -0.0024739935310894553, 0.00016902581459902411, -0.01928674677142281, -0.02680464766690545, 0.007099868417841711, -0.034415793032342934, 0.01145472914251548, -0.034410807774780866, -0.07680335730763285, -0.12877328044656658, -0.10579120094473056, -0.05490357665554756, 0.014428079284384922, 0.07567232490051852, 0.12942206831233996, 0.14570890568822664, 0.18672293017212366, 0.13205685745742585, 0.021977395066489307, 0.012168133645325522, 0.05953804509381198, -0.05685029909184918, -0.0548441131510585, -0.04955607319029322, -0.05614554442256842, -0.04893477033077716, -0.0033819327110554947, 0.025548645698433667, 0.024762268666942006, -0.002859787667946901, -0.014193219402822123, 0.022282072523656278, 0.032616335740551554, -0.020206651191208985, -0.009272835127366657, -0.0010475273569990051, -0.09174509376757049, -0.044469759192194334, -0.03487207100333769, -0.033069647584595185, 0.006509876066426611, 0.02974629512946537, 0.017536951263177454, 0.027977609449410537, 0.009662664863969477, 0.03275225140043827, 0.004659754094891284, 0.045405915493394046, -0.010534104490945646, -0.07573542176927409, -0.06304022207855892, -0.07948900144997874, -0.07107850378785154, -0.03745084971286183, -0.035231536093602106, 0.03714966823583314, -0.02949308235191403, -0.006570040024850193, 0.0031315893920762275, 0.005349553533153457, -0.016906925041645225, 0.02066363326753426, -0.0075425293525584036, -0.0022965881170013626, 0.02252470367121152, -0.015458966494258097, -0.007262645830656118, -0.01908380672024289, -0.10600949634651072, -0.15722943759954228, -0.229425768263968, -0.22255472829029, -0.24396112842539822, -0.14636671014743466, -0.11709479378773688, -0.038201436717349456, -0.085235737544999, -0.08077787603383531, -0.12964525252297943, -0.0995352985648083, -0.06208688671447144, -0.017973376846111097, -0.04368058528145279, -0.012919431059984117, -0.02660628391859304, 0.02087668621635509, -0.02099119298085569, -0.0269538038307559, -0.002911128221984187, -0.0034961678382039755, -0.011806089314534387, 0.004849239185287359, 0.046131414922569995, 0.07416101531133866, 0.06090135053763198, -0.020703047979589155, -0.11782347854402515, -0.14341048551892205, -0.24671031729835619, -0.28541183857055474, -0.24690180295746375, -0.24085119777515143, -0.19952379006255494, -0.13053310865693588, -0.12775921630433687, -0.13605177546805958, -0.06610720057269813, -0.030194297248362128, -0.011313564121184103, -0.02567370408152732, 0.015410722571492773, -0.0014034245513253947, -0.004319153550703099, 0.026680318573740505, 0.01616307041701006, 0.025432852249442042, 0.032180942641276966, 0.018108001756362284, 0.011905029908508384, -0.008477100727244832, 0.01887431195576462, 0.0913365953424006, 0.01585843430239134, -0.04681644927573176, -0.06270323141120933, -0.09945822935438446, -0.11896902046214354, -0.1253896610431115, -0.14287719113479372, -0.11413226723921087, -0.09621891911691767, -0.11541373779339319, -0.03594923245250842, -0.025937114601582528, -0.03402372115817154, -0.02356233779565818, -0.034761484143920204, -0.03294295504742438, -0.005261193396099045, 0.03322752523509123, -0.031841138986884364, 0.008781472384070075, -0.020291446061125318, 0.03505098109809228, 0.003662543886740477, 0.031019904968997838, 0.02686177436737948, 0.03566196422517873, -0.006157770919166418, 0.02739660145212576, 0.060453713807413156, 0.04193416661714433, -0.013576620062325956, 0.020280612663681547, 0.02785387747300404, 0.005815102382356723, -0.022242242500014216, -0.02915512293571041, -0.013612553189029309, -0.05056561998154965, -0.025372176206787972, 0.014506146741741851, -0.049582746532214936, 0.011117751791452092, -0.021381880372718265, 0.03487739737278487, -0.0180681579470753, -0.0077149003660133796, 0.015786569752373185, 0.0248020372499845, 0.007684901777186504, -0.02929345807295772, 0.004028868945284356, -0.022360023155495838, -0.021661332603256422, -0.029396292264616854, 0.008623208294064672, 0.026874285984986354, 0.04094974869384764, -0.019518325266238135, -0.017957063370858433, 0.030594298112908303, 0.006121019659091894, 0.0039448652783035335, -0.023493847665321508, -0.02281852068238289, -0.012250121014948634, -0.03455781382482669, 0.0031041795052260666, 0.0295831741257237, -0.005585955185262755, 0.013037610835842588, 0.004748941285292662, 0.017994440766332116, -0.012755498561458304, -0.004509420809359853, -0.028406240716439428, 0.0034196171747063464, -0.02946567409398089, 0.028768260789734046, 0.01320441800522238, -0.027709034310808782, -0.0029008270166847455, 0.020100569519383753, 0.013975324958311039, 0.03163104759270474, -0.002640260229109964, 0.03064593216187903, 0.009808109707774591, -0.0077366101609854234, -0.012697070319088056, -0.026142726858738467, 0.012723730838452367, 0.033483672096662406, -0.0215959689049562, 0.021864240844213945, -0.01605453829568291, 0.01152830965792785, -0.014264040158244626, 0.01938120889991097, -0.022815975338962638, 0.0010111710224380583, -0.011852156832607949, -0.01962991729296962, 0.015582139404065463, 0.0017859133167512156, -0.026978905637609296], "bias": -0.14905224989500998}, {"weights": [0.004255148318270334, 0.008997985259034627, 0.008506422461142839, 0.007887986059926924, 0.023841764717979268, -0.0003902087482610256, -0.02105086390179966, -0.021788516833714404, 0.022522031755170042, 0.007566085116057032, -0.012156687832409956, -0.031881914518114784, -0.026569196597269827, -0.03421734832385849, 0.019386289125549315, -0.005905616296347582, -0.01472830599163627, 0.01891083745630464, -0.014884444269886648, -0.0034110029142525936, -0.0059216421143438, -0.006682775143529163, 0.007991203105653925, 0.023436418669400133, 0.01313522915088039, 0.03283073537536833, 0.008174501665797411, -0.019980851110332352, -0.020604357528129787, -0.03083142212717501, 0.011405811733435425, 0.004524415422301427, -0.0034041124962922126, 0.004153674850768944, 0.01279869105152758, -0.028750709781261163, -0.023906248852250515, 0.016177844756339273, 0.03578553404274039, 0.015244428948188725, 0.008480360376345314, -0.02817081788682221, 0.01264948754230716, -0.0008825596712876149, 0.028547538145263604, -0.02498907680926334, -0.014559069088814732, -0.01771018855927427, -0.02487132281621154, 0.04101174583882243, 0.030994917843696585, -0.009775414564615533, 0.02852805845291803, -0.017365025664080904, 0.006290053618129524, 0.0012519759731546704, 0.02331843392747262, -0.009836776260443072, 0.026900284093660607, -0.012773007535511385, 0.03441830543493102, 0.028145025839130262, 0.0003364042174813893, 0.030516724264624893, -0.005801204697908037, -0.005382258712442616, 0.041204918853091715, 0.042911791335280204, 0.04352212245741383, 0.050951905233553654, 0.0185109398825167, 0.04319972362198155, 0.005625709506869968, 0.0011780870487072582, 0.0476410522332283, 0.04472497566803403, -0.007165142724052041, 0.03610031098066215, -0.006412896926720844, 0.021172968313280756, 0.019653594737848973, 0.003066644291823376, -0.03547086821846673, -0.003861621184948101, -0.02940945676188354, -0.011051882329582041, -0.012739153840521933, -0.019175487427437323, 0.008253245959692743, 0.025116145161732648, -0.022011592345019954, -0.005441483947452147, 0.04697315759933253, 0.05443185045620728, 0.024416939947699293, 0.031441913385484806, 0.040436760057956204, 0.05992155553071402, 0.078033466162122, 0.015239546613629926, 0.033151441408877505, 0.04068978361420953, 0.012087461184521938, 0.04673597082440037, -0.010839980005751128, -0.009790740061144106, -0.015816286766725068, 0.018683145143748282, 0.017615103263952547, -0.010420932901117345, -0.01846032820885409, 0.019188892293339657, -0.02881190827377729, 0.004031508892655888, -0.026554057963021988, -0.010135067253818984, -0.015313387313698695, -0.020421709454211148, 0.014729004324607418, -0.021403238675161397, 0.027850148200610204, 0.015540554674178652, 0.028044559822631068, 0.054326613694965775, 0.04541542169120368, 0.05613289733962355, 0.08855598693985116, 0.06347336593945835, 0.061043421621633724, 0.04091956430913565, 0.07042584040304715, 0.024251054540659466, 0.07203646605751499, 0.0382965906340825, 0.028656313797500048, 0.012543773131185498, -0.021751022827130085, 0.009349950113159453, -0.02820443479083474, -0.013678512805212269, -0.022106093097030766, 0.0022114025302787596, 0.01897176261502979, -0.011739303994793539, -0.010619025931100265, 0.030956031711450168, -0.0040501351366596435, 0.009652579683833604, -0.0032200445152682443, 0.0045884593396101235, 0.03632741893421939, 0.04202090122959671, 0.03203470867821518, 0.016515364336017885, 0.046658829815237106, -0.002182652082849066, 0.02594196584220816, 0.022359788627180598, 0.021227061471453243, -0.00419893032690494, -0.016697911589782694, -0.0023193532433321206, 0.03163832619731545, -0.01653862941744929, -0.031394520270312476, -0.053112993565724353, 0.012543710692796984, -0.007993635286459097, 0.014342873967179932, 0.026294929219881115, 0.02635385012026117, 0.03406175772787234, 0.025881315876203778, -0.03197677904685753, -0.03529405438951183, -0.0361825845220816, -0.05761060174291426, 0.0018302561200592316, -0.04496410156926195, -0.0026572365217004484, -0.0026811237213259153, -0.08944515683144619, -0.0822620548073424, -0.16025691863946695, -0.09800066952994929, -0.1271375353898342, -0.03521763887923052, -0.07948741209161916, -0.050695826356922796, -0.11736550103844136, -0.06074203394713965, -0.04708185927393285, -0.013039532647967754, -0.009235983230595452, 0.00032635220564151084, -0.032664871948280445, -0.028651118687089302, -0.014731367044826112, -0.012572051941843663, -0.029001381675839395, -0.011983460232012653, -0.030169406931785235, 0.025193102477601183, -0.01923943101338198, -0.08052359325434713, -0.0938786096630796, -0.08903731455663833, -0.03233616800344648, -0.08253023435187774, -0.1282652322847956, -0.20668859612968613, -0.27757159375820845, -0.22734901751482411, -0.21009667048147712, -0.18746337994704332, -0.209828554072298, -0.15818140589690535, -0.15668248185870262, -0.16275572210483102, -0.06953408457268152, -0.021708308745981883, -0.01020653901643636, -0.005312814511188743, -0.0012615487549069643, -0.005982715608267801, -0.0016974175339482635, 0.011020996298682447, -0.024408761900879872, 0.013897674332075059, -0.0009054354434247474, -0.010421871147832586, -0.03589929322490188, -0.055148397148744394, -0.05744300981013069, -0.11479076093865528, -0.10199474409029693, -0.1222175811515854, -0.20274305772050324, -0.23379992713097178, -0.22961645336659622, -0.3273170024169911, -0.2510625686079959, -0.21122498909377654, -0.20754202619947676, -0.17321891848290855, -0.12027771482205316, -0.11869298565486615, -0.07509555840383628, -0.02997339099920124, 0.04458467268816836, -0.014334488274007027, 0.03332173186473953, -0.033320481106323345, 0.02835709727023568, 0.015609174530176283, -0.02789481131463098, 0.008640719172852623, -0.022050765504621844, -0.017063124079946767, -0.03249252124081229, -0.03670070189960625, -0.10403798451216559, -0.09555711622751122, -0.1444258477063796, -0.10583075403863332, -0.19769523965176705, -0.09489387035426326, -0.1171488236241798, -0.11775626264296198, -0.1632612436771668, -0.1334941050569306, -0.15399359160136178, -0.09481293530716535, -0.04344840384682453, -0.07902258788409094, -0.043294324126083965, 0.03627982530168848, 0.02960764036038479, 0.001552505335692275, -0.011579091977806488, -0.025166070758948167, 0.02044340330484455, -0.02388355460454481, -0.007292172214258928, -0.01933521795926681, -0.05073537194766495, -0.0029661066901198203, -0.021849198404785143, -0.02518711230736516, -0.1259701278121362, -0.12155868435885032, -0.08498469389534773, -0.14480296322153222, -0.01905221256050113, 0.06366776491603741, 0.11607593269109849, 0.05371283072504322, 0.007460549330210686, -0.05134081778093454, -0.055567378379724156, 0.017241513251182474, 0.0037639621538731985, -0.028816713279745693, 0.004687753269019187, 0.025336921102037623, 0.07324086989343533, 0.025453790946730958, -0.0024546518511943533, 0.034878492506463125, -0.03497107852413661, 0.000586719608561222, 0.007259556672261522, -0.026070227975358563, -0.02517344649553112, -0.06409770463984214, -0.07108178857952768, -0.10142726222138798, -0.06645196650400417, -0.09259024627994492, -0.07217726793317882, -0.02879772279414223, 0.027281669367223878, 0.1801573441228723, 0.18640872243766007, 0.1306596162916782, 0.07950011689533884, 0.10523874955625415, -0.011380823027388801, -0.0007599987391780886, 0.04648039203579497, -0.030708889850161764, -0.017983973448801666, -0.00803820061363151, 0.025142957085712, -0.015497607035905667, 0.025486314377460968, 0.02925240028006839, 0.014506656978999583, 0.030234335349056424, -0.022490655797592195, 0.003265478888128133, -0.06136530951054346, -0.06933996339951048, -0.06483191137583215, -0.08314135861948314, -0.08918167025642193, -0.042441197656638056, -0.08088156758920373, -0.06946496513164932, 0.05545356336974414, 0.15683580829777993, 0.12175310191252196, 0.09489900169722755, 0.0842399307326691, 0.05970806326153384, 0.0695806666320586, 0.03379931757209912, -0.0025939447611251667, 0.00805928437936557, -0.03360296949956046, 0.0205610048210244, 0.028871757373774315, 0.036853630211549235, 0.012475493776203527, -0.017436215116688816, 0.032479443016750896, 0.03134545034525798, -0.010724779343079348, -0.01383984114634003, -0.03681774174163098, -0.09134147467100272, -0.03563681286503141, -0.052892332156573144, -0.06498142816926117, -0.08568637108204459, -0.12776583261390762, -0.045689974150270145, 0.0682183119133234, 0.12234330926155973, 0.029658088059799054, -0.02431581503013063, 0.008924683269440768, -0.014342892448420108, 0.11211118753413746, 0.04794250575387009, 0.027453091476449365, 0.02258253828406305, 0.005114862573848651, 0.028604621637687427, 0.03206135061382506, 0.021789323084467512, -0.010712473065363921, 0.015494895604623365, -0.008653482725849622, -0.01637368797194073, -0.022621102422346048, -0.0432835488476786, -0.06391518207234322, -0.09408155944859782, -0.06855399547884328, -0.061384145040165504, -0.09048122896483166, -0.14858749096507465, -0.14405361393877036, -0.10760341230692262, -0.013482839707335362, 0.03875794547001537, -0.04794668299579066, -0.03501951251083025, -0.07627445882423506, 0.020503432546795493, 0.04556018918158628, 0.04501313867517231, 0.09357660355245229, 0.0455894057065276, -0.018700023759970336, 0.054802608448363876, 0.04251645471253822, 0.025259495144950406, 0.021945474740375177, -0.03439472196462211, 0.011469731412007255, 0.025172171185087154, 0.0024588054679966693, -0.00981530301536489, -0.05462435962125667, -0.06659080871252585, -0.04635741550582887, -0.09750257330491577, -0.14404606172423987, -0.2024686821585569, -0.14197877668787645, -0.12158801898875975, -0.01956058915435915, 0.025524909323944144, -0.09445631233629263, -0.09122636599325601, -0.1351621860469932, -0.011647466843369678, 0.060722426704132026, 0.10365989633175043, 0.06952196740536325, 0.09174729095327674, 0.061069129321714745, 0.016814985282078514, -0.021604773648149427, 0.010629532538764296, 0.02007149480644339, 0.009695637498760621, 0.03226478446800445, 0.02498279535822371, -0.013596692223078096, -0.02721342644316099, -0.05349817032740177, 0.017883509858359355, -0.024530255181442844, -0.12272306628615627, -0.14242760411080554, -0.15828762005706604, -0.15134783780313193, -0.08597559367945677, -0.0030183180912778064, 0.022839748166530057, -0.10143649978209056, -0.14897423677585078, -0.10865638605618401, 0.007458862337392799, 0.08514335127092675, 0.09284388353720747, 0.02794705484197204, 0.05754131072494639, 0.0799900155298982, 0.02275634984053377, 0.019531281376654986, -0.02407774501326212, -0.016109213667744815, 0.013733417892695152, 0.011374451621318137, -0.006118226905942247, 0.03386511496186282, 0.007812481252464186, 0.009200890012577293, 0.09170012133919997, 0.04169631792699369, 0.07394452663785103, 0.013825876394300171, -0.05465455918425392, -0.06005058371542487, -0.05135925439463634, 0.06896981034699394, 0.04623318893273643, -0.06180159030456111, -0.0916819284991292, -0.01099652422861202, 0.0055568557499986355, 0.11366569967020769, 0.03323291035296515, 0.011349447805965689, 0.07068221017936868, 0.03199280620073373, -0.015125738290990511, 0.0276576648124312, -0.029654469215225663, 0.020760222372633006, -0.016088788126270653, -0.008433984060126635, 0.030355294900298986, 0.008027412811789206, 0.041160959401466524, -0.010757262512419236, 0.09011987683603227, 0.1505560273154744, 0.15778388238211524, 0.17218297759903614, 0.1570534240449407, 0.10179208451618002, 0.1073313992780754, 0.13133119590003853, 0.09636122210220766, -0.0030375198676592698, -0.03518823578664883, 0.04850485153069659, 0.015192427551878203, 0.014603402139234549, -0.03968270493719809, 0.012925910147671894, 0.006042994875888865, 0.07259096312327563, 0.020989318895487864, 0.024318221105910975, -0.001196075030231057, -0.005459598613007444, -0.02377097595394813, -0.023054078568396044, 0.02851484261664755, -0.005062268083905924, 0.016872091766703876, -0.007117580005589298, 0.021287258541324735, 0.10978874961965278, 0.1825768298318099, 0.22473367200212624, 0.22176214931930477, 0.26442586700214005, 0.19249870717445886, 0.18585090112941138, 0.10019920738494714, 0.06759937380107384, 0.05215669140075018, 0.04664982875933721, -0.0077343411161441755, 0.013749302863328582, -0.061767598112017645, -0.014010777097160525, -0.01367012675310996, 0.0284478505962914, -0.020321530275538405, 0.020548946672525707, -0.000129841873702261, 0.033483893760360914, -0.006225643998541346, -0.026192546977711798, 0.004064069597478518, 0.027956771270008236, 0.04041724802239223, 0.016942762654325656, 0.020402676974133675, 0.09718674938391396, 0.1140822613287746, 0.11634660586703796, 0.11046827772168727, 0.1735572399283983, 0.16985573398327755, 0.11277637407844904, 0.06486871519973997, 0.009743598331491866, 0.06798349916606776, 0.007237498201609449, 0.017931433565089066, -0.03174844554083819, -0.026810810027665236, -0.045652607783174405, 0.00827344376467994, -0.0393211789645229, -0.0007298601981071046, -0.004585549263381764, 0.0008283892680997882, 0.023936115257696417, -0.020517995741540673, -0.014650795038543942, 0.006308517805177369, 0.027421709344674687, 0.027710070984073135, 0.0018570065065931479, 0.07143697424034894, 0.039992510708724775, 0.0072382363773683895, -0.004284851738992916, -0.027098841839453262, -0.0045523354414173595, -0.00033806348626568174, -0.007003899638344791, 0.0248479974852948, -0.008073456052561743, 0.0361048008520191, 0.05675135586739104, -0.019030526944731393, -0.0686049234794054, -0.025944805409005955, -0.0753822484670224, -0.04169832699684211, 0.021416681429394246, 0.019626798450163473, -0.0045711966104022795, 0.006728631252488244, -0.007112844472242872, -0.007172984441120255, -0.005259357624224507, 0.017476735660428344, 0.0038099849707710614, -0.006340114726984333, -0.0020282171857633063, -0.01064464982220524, 0.0027021362731044474, -0.017424269793777383, -0.06209809526526632, -0.051891054358397956, -0.12697846951283692, -0.15374186084259067, -0.12313632245190616, -0.14238340936159888, -0.15129649850141502, -0.009224738481816229, -0.011031241802492759, -0.03994909817167022, -0.04454309404152853, -0.04748494238439695, -0.054039190721228286, -0.0010875029339469217, -0.010512793369839247, -0.0331932034418342, -0.006856834383112226, 0.012260209256938341, -0.014078113410072925, 0.027095029502292117, 0.017126613445640766, -0.0233804177324345, 0.01578799360144381, -0.006365093980334412, 0.02445156256984828, 0.04241674931480838, -0.029416396478965472, -0.06113080011456833, -0.07149455659503386, -0.09391842127680226, -0.20809209875301746, -0.1581976666198445, -0.22224156447368257, -0.23239689758409404, -0.13197659086977812, -0.08424529046849992, -0.055727156778070545, -0.033756372748204144, -0.04525083422632455, -0.001278035121612198, -0.028745236518417566, -0.038156429886957874, -0.0011688088106882192, 0.012690144997785893, -0.01327155313606267, 0.03277578134343227, 0.009086602098895016, -0.016316021490327664, -0.023188062479966652, -0.010025319892728068, 0.033162624791905904, -0.014609096576627963, 0.013202422347487877, 0.0006142001095738052, -0.03109963850185033, -0.051753371512165094, -0.06029613480104937, -0.11253411404990396, -0.17411702520935315, -0.12253361156010308, -0.13893074730263463, -0.1998205336855228, -0.09784530596800471, -0.08856242152399713, -0.01786334419220884, -0.07743698174828784, -0.03267918738124344, 0.007997152091339959, 0.01106729139435369, 0.02022302886562951, -0.024839073877880095, -0.02571096414810611, -0.015567948552324566, -0.01612508190751331, -0.025576475955903892, 0.02367294667368801, 0.029791411979797497, -0.03174848952582167, -0.03168574560496478, -0.037985943630792704, -0.029589526522639034, 0.00031519318042135317, -0.06285162386182423, -0.0549160683587933, -0.01989138879794957, -0.0394144954011373, -0.053643065082246436, -0.06790481532955596, -0.05395063856706658, -0.08241664619964771, -0.039547482681089985, -0.04855658184783204, -0.039532611687677376, -0.030993708632673343, 0.007097034708547726, -0.007994941584061574, -0.013804999120542607, -0.03439506794377448, 0.020872728307396875, 0.002923723641483169, -0.03098580591576017, -0.003350016234412954, 0.0040918711138935235, 0.014703856315860492, 0.010538381272631014, -0.01334869151576256, 0.01867268105232399, -0.0056767644546535725, 0.029488994674441854, 0.012125379284461384, 0.03131255083870904, 0.028442316540748518, -0.02963851189796298, 0.0009195931725670622, -0.017833248006756272, -0.03386645616926256, -0.006495444979753759, 0.011310340528585117, -0.012138444483148417, -0.02267308835987616, 0.02367161337980096, 0.02267820497749496, -0.02658730588254908, 0.023231955736883112, -0.00575147883036317, -0.016535414241552387, 0.033486310293001954, -0.010625455453400786, -0.027323915142269638, 0.03490465041377312, -0.03530173185898744, 0.02203840280900457, 0.027020778858874397, -0.0347932607849945, -0.003999671357510275, 0.004752366377511616, -0.03486097023992154, 0.006663696035123281, -0.00595589020419326, -0.009159254095571525, 0.02642729524541342, -0.005612040899259691, -0.005170568526053938, -0.010899722643839939, -0.03504889997344168, 0.02573122834156293, -0.004440737855153044, -0.005985638307905515, -0.02687605938436011, -0.016857779789484606, 0.02560726152916113, 0.03345981553507693, -0.024334658387828167, 0.012751536414521144, 0.016478134731488833, 0.011683720561848049, 0.0061751550442913986, -0.03497868371382862, -0.024455394426332416], "bias": -0.009749560292546802}, {"weights": [-0.024879672115354384, -0.006630650778828809, 0.01358968314454069, -0.0036780001467340423, 0.030143769279680196, -0.021224695168665035, 0.024227493298695002, -0.016965296783950968, -0.0027195531745545717, -0.01815543346097458, -0.03000326147316643, 0.012486278980402096, -0.032925492090710586, 0.008960554259454283, -0.0315238009622461, -0.005691040617553851, 0.01733995246645522, 0.010325790429659275, -0.0009690430660871593, -0.011472690282372182, 0.027879139146562287, 0.032002551904091195, -0.0024971020347968748, -0.029457897170656316, 0.03006657315327832, -0.035571468882622505, -0.0039058312805922493, 0.006894469338162915, -0.033862943677597346, 0.016256033824363365, 0.012326839087906147, -0.02551978978117935, 0.00833382390873011, 0.013378135569495209, 0.013594788245380946, -0.005098010852887781, -0.02987106753328236, 0.026939126137313252, -0.02806745791935334, 0.03414940441694664, -0.0142978019324198, -0.024507301356232483, -0.02889152064514443, -0.03430480771473318, -0.018945933186001622, -0.013146658936844906, -0.008349015132395304, 0.02086821544478478, -0.008380555404873466, 0.014592885764336056, -0.0011010594767983152, 0.033714258186405145, -0.018065704980699742, -0.024629767645814156, 0.01776020723831235, -0.032209934525467235, -0.03462180693762341, -0.030280141449006304, -0.008553441292961358, 0.0225876150806605, -0.00550856910957394, 0.02072544199853222, -0.017282586774487945, -0.019139407857279134, 0.02491541440287841, -0.0204121686816848, 0.00948315991233199, -0.010982474799060733, -0.012884610869167099, -0.009579654535022249, -0.053514848782490854, -0.044673010291114895, 0.0008700557849899285, -0.028613859578272925, -0.04056514710669563, -0.014542721475092828, 0.017490370749294906, -0.025538292203160354, -0.0245475427292983, 0.0002121137949362654, -5.798520852161766e-05, 0.03104969637973977, -0.01720701194117671, 0.02603374008644546, 0.011826243152989774, 0.027045795137184678, 0.020362423223958072, 0.02287788094398269, 0.00765068317052225, 0.007153177193026014, 0.007910789467098575, 0.027154530568506856, -0.009240900313710006, -0.03587536282004578, -0.001768915986609514, -0.0017068254265793833, -0.05760052943831064, -0.042358964902579364, -0.09038750252489264, -0.06387490403954874, -0.06570390635166579, -0.040498265949358556, -0.049851772729731715, -0.05339306613107324, -0.0329364465565112, -0.0025585506216769787, 0.00923799076156512, -0.0050797453435006855, 0.02559557687885734, -0.021964045227468705, 0.00024950340558426126, 0.01732336033314865, 0.014816596841865759, -0.02937537942613018, -0.0014307621964572935, 0.03168674225399843, 0.013900027454285178, -0.009969395620551344, 0.01563367061270947, -0.027330887029590703, -0.03664743987472989, -0.06340953596819801, -0.094367789244922, -0.10620351434357445, -0.13595250314504742, -0.156696599125139, -0.1361111020169552, -0.17055974399213147, -0.1552493046996676, -0.1646147850651443, -0.10090003278776988, -0.13166935020247575, -0.07437814447500789, -0.03773743891987128, -0.05945475032870577, -0.01785907518408128, -0.01849423033426739, 0.01922772474017685, 0.012048944822352036, 0.0067421992595188265, -0.022132753489010164, -0.024158040643855017, -0.028083600109762047, 0.01972609189631177, -0.033817695379839086, -0.062334303496077104, -0.027609303181651158, -0.06520660344667852, -0.12284867489059302, -0.1781166156237008, -0.2119440698555456, -0.21442668980133797, -0.25434715618370995, -0.2694587625081887, -0.36065673660579756, -0.4311726362503149, -0.4975258963493998, -0.39150422694101633, -0.2520071756692194, -0.17818859707617854, -0.13381983174335252, -0.08586942261707275, -0.0705974023857773, 6.073152211983457e-05, -4.550973399156964e-06, 0.04712529318482762, -0.019384365113485656, -7.06973895171605e-05, 0.0028817354244767696, 0.000599319167668923, -0.009277311606268773, -0.010469334467989568, -0.012808624856181852, -0.0747248614437669, -0.07481711075993909, -0.10193580254613673, -0.09911944541093239, -0.12300576283349791, -0.07415845862263547, -0.039397653455964986, -0.02814934396340941, -0.03085574114864149, -0.01656082500725171, -0.004241091593987301, -0.04035140093452421, -0.02286192468381528, -0.004459368809771165, -0.032118953644593724, -0.0010868809994699434, -0.02052213250920565, -0.054889883765201035, -0.043430947818332975, -0.011179282630901866, -0.014812074037246152, 0.025656334463735525, 0.03657861142499347, -0.0034176112862885567, -0.014301374285619681, 0.012483553396392162, 0.0194884270902941, -0.014406113969190315, -0.07021790267948849, -0.03998499395918266, -0.04384797516325854, -0.044128249795775676, 0.05887284886044102, 0.12736582832245466, 0.16239134046548204, 0.2411156598294096, 0.2002491304113308, 0.3336266464606341, 0.3868207058605801, 0.43484472651491834, 0.36606569326111627, 0.2186306199492763, 0.2181928177696563, 0.20555188055178375, 0.12687900024691592, -0.02561782612350389, -0.0759684686719165, -0.04839955192504497, 0.010148336048760115, 0.02754919229533427, -0.03319797311229773, -0.02644956428557941, -0.018461150022016506, -0.0073654568291260155, -0.027621738322149827, -0.05898049957347592, -0.06871447447946644, -0.02141864890554505, 0.019676379162763515, 0.11203531239069262, 0.021039813425471076, 0.05015946857224894, 0.12369507864956572, 0.17104457375730742, 0.2028565948261868, 0.42485394446975255, 0.5221738127653291, 0.5089573987482914, 0.3797737316891609, 0.3019898985987277, 0.2191904485527918, 0.14217405405314204, 0.130878782111787, 0.051539856838815915, 0.025783737001138674, -0.03388637984360452, -0.0206508769951726, -0.007396855677324163, -0.01264849747568199, -0.01048609828635923, -0.020636082693213764, -0.026748855235943586, 0.03567036855398535, -0.050229681616594156, -0.03725772528200039, 0.04844684982282857, 0.051760537283975554, 0.0773017302091233, 0.10864658184055258, 0.1704798196955101, 0.1878026807575337, 0.23207229112877764, 0.2773125739746299, 0.4796587014649492, 0.41376375846064556, 0.3709806682801906, 0.34230555370039584, 0.28907309912855556, 0.14347967288392857, 0.14303625707797332, 0.09525623428147786, 0.05463461792305369, -0.004402239678338512, 0.028948524115295134, 0.05077161790771688, 0.04500479462852084, -0.03366135205076386, -0.00024256738659211334, 0.029802830986853428, -0.02702451015236401, 0.01044259110547809, -0.029124595620143863, 0.020075971065629066, 0.08956688894727348, 0.12188534634530959, 0.17446218179686948, 0.15250159060617882, 0.15824312533220963, 0.2663669256409246, 0.24023261755244843, 0.33838357319581736, 0.40320721889373423, 0.2425862824795777, 0.29111251895654255, 0.28400036984110677, 0.18944273062118183, 0.09108546318979846, 0.1679579047441119, 0.1174105960244273, 0.057153733225587755, 0.07842611897030582, 0.04913926874059754, 0.024758398528422706, 0.01353122272995463, 0.03363538820053375, 0.025862518800512022, 0.009925152451038461, -0.0021008653820631753, 0.03733394582502465, 0.06363551581747186, 0.10878032602488517, 0.19259532594245865, 0.21871003547628726, 0.1964613908262743, 0.08866836907923749, 0.09346628108543607, 0.19279097473675505, 0.11130299028242949, 0.19480080651486076, 0.12236190570770582, 0.1223913597515323, 0.13900889985122697, 0.1732532838106483, 0.19753729969967102, 0.21363086597114206, 0.2412342270248042, 0.13328248667573955, 0.07978277261903685, 0.045136846784405854, -0.05287260565658972, 0.013235152701299234, 0.039998694007582915, 0.003255347924914022, -0.03270070377315802, -0.005889326671902418, -0.011220447682759893, 0.03145515153699662, 0.12193167747977077, 0.1274696389748684, 0.18060221160434764, 0.09692656479573124, 0.07289508515381693, 0.10172121582972259, 0.07052323238650543, -0.0947879318204761, -0.22664658918025796, -0.1258794522139718, -0.1350721565608956, -0.09795777621280224, -0.10870861938908047, 0.0962953649140878, 0.12427188623848304, 0.22637052206528988, 0.19234592825202726, 0.10505085479193943, 0.0742863150036633, 0.022625876923895904, -0.09218479541242182, -0.012356430032268119, 0.00145786077597153, -0.02925443989190112, -0.03121802832680113, -0.026896810316832668, 0.045388913956853405, 0.028691634847183393, 0.12435982197458023, 0.09397014438326182, 0.05166448942648894, -0.004211862807091465, 0.0014587494903244378, 0.037692566574698355, -0.039426730174722466, -0.227898191174763, -0.3578825310777342, -0.22926901654280635, -0.18662986266827372, -0.2746601805806497, -0.21020853609825382, -0.048129908540446596, 0.05075770673485101, 0.13444372757953488, 0.04813283909896705, 0.013656135977137314, 0.033452587903630836, -0.0673645477577393, -0.06543235331992346, 0.004695160943326403, 0.025502848463097597, -0.018614452730881494, -0.009339717501227593, -0.020283672403960427, 0.015098799221311212, 0.022427275568142533, 0.0022059584233024673, 0.017148787457995234, -0.010980102296273862, -0.03230295218671206, -0.027756919183678595, 0.022090457119552574, -0.06222027640726966, -0.2531117855702651, -0.3359297588372932, -0.3104762370851604, -0.34525869136674814, -0.2880457010826746, -0.13643134124125028, -0.08603683731404546, 0.0009146546857811491, -0.09962589649322222, -0.04202494996462696, -0.010816046358959028, -0.046344128176192836, -0.05409822777565918, 0.007110387880594142, 0.01599671502950685, -0.00478257841162284, -0.009794159780526085, -0.01376242051489495, -0.016733053022392353, 0.013304903057812536, -0.03796433665862362, -0.011051987961912793, -0.04735381619871838, -0.016809004695312484, -0.054252485518457606, -0.08190572753831152, -0.056700037089577986, -0.012574577893365446, -0.1870611953535749, -0.3066267152705043, -0.474533645869187, -0.48194639250982296, -0.2275281243319328, -0.10405999265326855, 0.052673483720400496, -0.02421979553024419, -0.15583228489794343, -0.08750763008060247, -0.018814348856969823, -0.06962628664201664, -0.029483776414559456, 0.016021914003460407, 0.0013060827135808197, -0.0031113775345556704, -0.027247757854619966, 0.01121262914116318, 0.016578362402097802, 0.010359315102362519, -0.025384304970261253, -0.04049407677954747, -0.010402022682885955, -0.08331218521685899, -0.0338831665119208, -0.03951111350764248, -0.0400078992441733, 0.044110527499276464, -0.1393445501057553, -0.27514824976474206, -0.4314336803346251, -0.5084443069554705, -0.20584514165333387, -0.10172176348197509, -0.015593168390923126, -0.08357370395672413, -0.09440151865179712, -0.06861279472915789, -0.11904029135908886, -0.10498023864684727, -0.08847729863921289, -0.005848695247250554, 0.005405867013399212, -0.007461126549296809, 0.005047915103732778, -0.021213996550737406, -0.006866470477253393, -0.006998865498537971, -0.050233780387421184, -0.08792216338054128, -0.030011904731371115, -0.0368776417374421, -0.10019119320199647, -0.004648524133197001, 0.029380821775545175, 0.02429813498412848, -0.04509063736888316, -0.19588944716320114, -0.3190699541815358, -0.40042967337159796, -0.15207097763837826, -0.16000742188616535, -0.13860981446828724, -0.06118266817749952, -0.06600743036610582, -0.16647597656022434, -0.18824309905506673, -0.11963539774735413, -0.10245273405937715, -0.012279115557107893, -0.009629453104535363, 0.03213030686564258, 0.0027038115178670856, -0.030745342199962916, -0.0033305126260991325, -0.031027994475179566, -0.058903763220855, -0.05251295959938333, -0.06655907430654098, -0.04739111670612915, -0.0938861765240821, -0.0669649819962522, -0.05531988344704665, -0.05140215302139313, -0.06344881266937331, -0.2885252113506784, -0.23431107572065762, -0.1341337237239705, -0.06440894595774115, -0.20803134112207564, -0.08296133476551489, -0.0718332264594921, -0.02748382352771405, -0.1237006010814048, -0.1723505572163684, -0.13854018438660767, -0.13699952861681358, -0.029935072157758084, -0.04566872085909776, -0.0039044299958628202, 0.03349952803216045, -0.017396000918647493, 0.015035235599618547, 0.018009630566968048, -0.07479539361453492, -0.014165307111736537, -0.0493106044653547, -0.07187557861268504, -0.1071443060834019, -0.13017358376597898, -0.15419040135516388, -0.12915048788751468, -0.17010601150430743, -0.19192320972439533, -0.08869561172031479, -0.02317241203985131, -0.07775292118970799, -0.11987912976523526, -0.10192943057838277, -0.11689586351780062, -0.0751317329055369, -0.07055041234596357, -0.15378820307599336, -0.0834879169084844, -0.12099260459941352, -0.011090025769898771, -0.03690123014447919, 0.018417918536108177, 0.02237869262333967, 0.03431502408814316, 0.004225156847171162, -0.0400580654088225, -0.015390618644355092, -0.03358643227912793, -0.029077067901540084, -0.08239710689352707, -0.08291831220311785, -0.0885820763768055, -0.11032162708677674, -0.12668268688900197, -0.1668130478417237, -0.15062428672283265, 0.009519241556766343, -0.048698472390376855, -0.10314098812863248, -0.08741158583527513, -0.14417120875725772, -0.18612366947981032, -0.10664479532438682, -0.12774926098335448, -0.09331227535888761, -0.09066635143817256, -0.05549520158443901, -0.045086979367957074, 0.009707787702615777, -0.013894462675921747, -0.011348684757081002, -0.024063701170727737, -0.009844764312809392, -0.008739677660485999, -0.009612127819542484, -0.06053476469646082, -0.011299176929071682, -0.08281136993293349, -0.07250934651144936, -0.00011813047815184124, -0.04352724912484126, -0.17342204695101496, -0.12032043668903009, -0.11812450955063308, -0.10627702272644134, -0.1417906868559416, -0.1498689584878581, -0.16651956292127004, -0.24957535105772802, -0.21457028386801583, -0.16776310904520933, -0.09791345296872542, -0.10019332700407604, -0.05061337703124146, -0.00037242033153817, 0.005977938340956035, 0.026773258494829207, -0.010358827469761571, 0.028685609085671075, 0.03215244559676362, -0.03196776468608757, -0.0376675571134601, -0.03224288044902557, -0.04014415391121535, 