{"meta": [784, 4, 128, 10], "activation_function": "relu", "input_layer": 784, "hidden_layers": [[{"weights": [-0.0015821566983611178, -0.03815264272361004, 0.12198851183529527, -0.012773526191938459, 0.0852661724162411, 0.05016314520619808, 0.02213147540472537, 0.02664942230312214, 0.01624143710030152, -0.008153090243894306, -0.002914841623181287, 0.061596739282523044, 0.02569159911754191, -0.02006749452627547, -0.07018909841934265, -0.01019596369835506, -0.07323043374331391, -0.011775329749139772, 0.10280134630734962, 0.04412239736799639, 0.05683611335508799, 0.01635165628334214, 0.023907979745081093, -0.00429471309009844, -0.025301767955139946, 0.05655757624935037, 0.019803484349739595, -0.005747789410033122, 0.040586349538416756, -0.008997167308987928, 0.03527375084352757, -0.009049307342773472, -0.04959182730069424, 0.014289510014258704, 0.07232109283695988, 0.0294699609075295, 0.003125994403198105, -0.09670445458302954, 0.04756496699998141, 0.010397684145528262, 0.10778267487864678, 0.01595869217186964, 0.048229543730360654, 0.04305755105471004, 0.04188302900191636, 0.013110737456463156, 0.05734569459777071, -0.037536678711710306, -0.028076902344983258, 0.04598045983492959, 0.06155392117741939, 0.00644587695919948, 0.04333780328702398, 0.07857335043592062, -0.018061911377647833, 0.09569701867828646, 0.13599952943640709, 0.03370390403722708, 0.021564096794002056, -0.013241690806711786, -0.05771981165172423, 0.12848902589662697, 0.040461947110188, 0.12795113129672173, 0.11989376392996647, 0.18371321668675425, 0.05796452254030956, 0.03824108014877407, 0.12477321990785634, 0.029985885407020428, 0.004244035903297499, 0.06929348982052226, 0.16869954477333438, 0.15500200109785894, 0.09174625196067886, 0.01762607731825713, 0.01518391886097576, -0.007064765370890415, 0.03908023730520956, 0.05811841813230203, 0.04428758965853579, 0.027301021307486757, 0.026291415905733754, 0.06576917447500114, 0.10842099359429028, 0.053039570048217896, 0.06676609806663074, -0.07236887858048396, -0.0043678476606315115, 0.007956404052431717, 0.0315070482113975, 0.023430884641600744, 0.07016280141278473, 0.25037183277754477, 0.07752818293308868, 0.10626779425507867, 0.14458165276479154, 0.23067543032647522, 0.1467840763505228, 0.318463146118389, 0.2334991023133048, -0.004517152955551236, 0.11960236551040929, 0.06705925155418833, -0.05102722219427445, 0.044838168331799294, 0.06619434528535455, 0.007374240686578731, -0.03966067099600879, 0.026170978412109063, -0.03034613988435305, 0.031035362319246074, -0.0023485465434956356, 0.012842154320617959, 0.012638692244539554, -0.012518217058254302, 0.08950037043629125, -0.014512472780188971, 0.0757667076421801, 0.05315144893371037, -0.05449272366267494, 0.06604802472762523, 0.020124814585132378, -0.06538723875137796, 0.06283436607246183, -0.012377149673077823, 0.2547986793747588, 0.39553815615748145, 0.3308273070276791, 0.28635174528944635, 0.12259371545272839, 0.12752273594284175, -0.015140061923877809, -0.05755445482298454, -0.1382790862775992, -0.08649577845212353, -0.05903055077842201, -0.023859896788263005, -0.04718124400496869, 0.09354507737218769, -0.021831759392764775, -0.02151606996212237, -0.03663879294270516, 0.017126176199269243, -0.06642892616957126, -0.040384907055691, -0.025328935573705226, -0.07515858199991318, -0.010749151109443923, 0.06130455781246896, -0.10221157603029565, 0.12850980791099262, 0.07063211204970522, 0.11019913910541923, 0.14765200353784674, 0.13808953778925578, 0.0816405037730485, 0.20212998758541842, 0.07560789544291673, -0.1639573852274397, -0.215152994454053, -0.1554121803767944, -0.07751768875125885, -0.10821974336206719, -0.027146014334886344, 0.004680108428023915, 0.010933893139949113, 0.06603932439445932, 0.016266415627393054, 0.043085486549391296, 0.0037777614747800453, -0.10873130589562942, -0.05542808099832745, -0.14706124427577447, -0.10734072369794427, -0.04357309711570665, 0.08025380624837178, 0.03675105516032495, 0.20051666950623884, 0.2678839044524119, 0.21283433840957855, 0.2701640674583586, 0.2009338174431954, 0.02182949018666512, 0.02157304549579258, 0.04573445230158933, 0.0004874492509053576, -0.20176306837219002, -0.2400388677209001, -0.25231098424177967, -0.10291499461691601, -0.018062099626990156, -0.043503300189713504, -0.025001342975682267, -0.031062451747089614, 0.03665983789777071, -0.0007232264576563578, -0.0623246354806129, 0.04307907245563988, -0.002876735501399724, -0.08711296172835394, -0.0863408885687242, 0.05727489136199825, 0.03181414756841913, 0.31007636756949236, 0.11523902190175947, 0.09198705525641385, 0.2849156025109395, 0.14722283748139153, -0.0523865096739444, 0.021151289639245577, -0.18853134396240917, -0.1284549009193841, -0.42266052417982414, -0.2081436797927434, -0.26607186836135815, -0.21868778687891263, -0.16613623816578305, -0.3144515119527077, -0.09696765277478488, -0.009466223561208246, -0.0586263011670892, 0.009012628161368523, -0.04304398643510347, -0.12453433408962829, -0.005007027102068292, -0.07778765473295017, 0.023926791928386176, -0.08073003921449849, 0.033324118191735544, 0.13694092200163613, 0.016834677513844855, 0.08382411403290632, 0.08754742913959636, 0.12882121151290107, 0.158155736207509, 0.010870337098890537, -0.30950582678743094, -0.2781545347176355, -0.4006815130233688, -0.49269497648668464, -0.36158374867817494, -0.4523624724092569, -0.18892173193939518, -0.1437589998110839, -0.2723087283248864, -0.25502681701418894, -0.11533943484694914, -0.009009006437082842, -0.05519943290742911, -0.0067807457667347455, 0.01017569383929722, 0.06213985271500925, -0.02502581465430896, -0.06288946797123858, 0.031366852754598946, -0.06361490977049522, 0.04719090665187901, 0.14944005131569518, 0.08654253605338515, 0.23596489886647623, 0.19493877569967932, 0.1921135555995825, 0.011826511104459871, -0.18631415460305786, -0.5249499723255014, -0.46926046874507926, -0.4825782027839721, -0.43533710939024833, -0.22477708056473897, -0.22302792895754342, -0.11233308168005965, -0.05129333696736863, -0.09787802929539231, -0.15439779449178703, -0.1383426324853789, -0.13636162085761966, -0.09650513113562585, 0.029225567805888617, 0.009371540425372565, 0.03551371972586854, -0.03265556443215813, 0.04881597174457447, -0.1402449953748628, -0.032143921728686284, 0.06412031558372151, 0.21120581492618937, 0.1025548388543746, 0.12664460136786992, 0.09630935092305984, -0.0021658969914022234, -0.21561265676151772, -0.2986492450311165, -0.38980755238029885, -0.31549054863841763, -0.11192649587954158, -0.10152948647403452, -0.0343069492429154, -0.016460467055732786, 0.03743621620401125, -0.0142635406610461, -0.03527399460344758, -0.20550813088712003, 0.02060740100623471, -0.0003763305689625903, -0.06510251657529345, -0.12575544651074577, -0.015517617262827434, 0.05656680594147712, -0.03398863573429357, -0.014387962149884168, -0.04308773066642734, 0.042025590238396575, 0.18328919415432396, 0.15135487975930664, -0.0023568728082084176, 0.08323301167915716, 0.026664890618066095, -0.022275803415898274, -0.18692160376051642, -0.24857606475807528, -0.20125928533893944, -0.07139688222471689, -0.04721644535708538, 0.0709195368457171, 0.06818337804824408, -0.012209308107081226, -0.028681110807533414, -0.016840797153228684, -0.09972649685542674, -0.05204981389584415, 0.05230008202904811, 0.061580678089053785, 0.053584578687230044, -0.03378778474324289, 0.014275955696746749, 0.13413074491413648, 0.050320334001023384, -0.0267816300330851, -0.03850222085533834, -0.01242289879217475, 0.025240228791111874, 0.030362046913662358, 0.09878972816072872, 0.12794755748390416, 0.040347259961541974, -0.08654278791548152, -0.041750659565860604, -0.1321464756545975, -0.24964817014337112, -0.08211635479881368, -0.026642624841811003, -0.01666379790516957, -0.04806931645326015, 0.029546878009468695, 0.013953248365343307, -0.09174545600168806, -0.15365728940581702, -0.10415291269473685, 0.03732649461332911, 0.14944420352995694, 0.012686237816371264, -0.010143233913006346, 0.004934419800931307, -0.004324529046412946, 0.00715666605844385, 0.045280415904964906, 2.775672872760448e-05, 0.038368130638821704, 0.08832592494640337, 0.037862974807990384, 0.035140026381287985, 0.10168055279484607, -0.01592050048678527, -0.008200577680394514, -0.09388376653797087, -0.19141329943944452, -0.05531900824137646, -0.03399585724258569, 0.059113104954152486, -0.08324974538767248, -0.22722333341067386, 0.06874554229509106, -0.030902912562638156, -0.03793555329886468, -0.14991661586662214, -0.10361880627288474, 0.11112971672303391, 0.13795486133684493, -0.02061353383259649, 0.07748948307506416, 0.018501158656590567, -0.05425388564902882, 0.005405308981942518, -0.04342636610203333, 0.06592025128952426, 0.05408545393653778, -0.11549902660632787, -0.0441545424386496, -0.07291596429345681, -0.08262862845552443, -0.215601239567545, 0.01614246194492364, -0.09832468335174951, -0.19795782058583286, 0.008883781842046027, -0.06533550840464766, -0.007310933768248597, -0.09119015355520155, -0.16201233265862697, 0.09596633126703036, -0.0656774511713216, -0.05965804394309824, -0.13886353493153408, 0.11030482491627501, 0.011045599342541752, 0.03237334527236648, -0.019103076420946555, 0.06468242681035426, -0.001591324230343431, 0.07559280292153793, 0.002597234315614133, 0.006217189340567432, 0.026550367053518018, -0.06969958706952231, -0.11109958772669105, -0.17648855928658957, -0.111490132402555, 0.043194311878454156, -0.004690814851136711, -0.1231562623838438, 0.047257387351200685, -0.061649004877324665, 0.1604275620205539, 0.0002108147755328439, 0.036991621555069576, 0.013846078133974472, -0.15918378592239782, -0.00921664857891804, -0.09952510722328069, -0.003491474953871162, -0.0626310659400827, -0.20042809934867908, -0.054637644591805604, 0.01980174964444833, 0.1031296919116181, 0.0053616092395286615, 0.04840347024110307, -0.0255360316951066, -0.03488519191686793, 0.050529686511067415, -0.06476084444269198, -0.058398602817156794, -0.1391320405547812, -0.2560105340492438, -0.0860595830883519, -0.020454334895959523, -0.13596989694493616, -0.014926949684434062, -0.10785271944919984, -0.01438330254976006, 0.11224047865343253, 0.1558878663523043, 0.08817373848208883, 0.05286145059942308, -0.07843390239019964, 0.02581035799115636, -0.008229199888784443, -0.04514812528423687, -0.13970724183886854, -0.2233213550417032, -0.05182843230453696, -0.040007573982045866, 0.08184237069572475, -0.03169855550662854, 0.10809679034959341, -0.019277552249759293, 0.01730572899414386, -0.0523769627607532, -0.025628341847928962, -0.11805384462140671, -0.1973086821903387, -0.20288339384898083, 0.013221697454417938, -0.09564168976865173, -0.08862172918951272, -0.14016950643651205, 0.02583494904552072, 0.0701625075995842, 0.17128720615940668, 0.2148905005505871, 0.10057293485182474, -0.15370496009614068, -0.25994806231062323, -0.14417691773843866, -0.01899909199867418, 0.03514687419005416, -0.1595206748214063, -0.21069303233410713, -0.06294461755599556, 0.19828195822811434, 0.06156629009122815, 0.017084097622026246, 0.06562605992894928, 0.06695400353316547, -0.1053068323526206, -0.016584742241465594, -0.004904042745673327, -0.10691909899581417, -0.33057877822349385, -0.053804997524982065, -0.013715788528982071, 0.05438714405622878, -0.13572688012544606, -0.12740376988006466, -0.14232313352649037, 0.12743597121317507, 0.11413619278583391, -0.03443158039590559, -0.07049221880615383, -0.13075085273796275, 0.00035715402786555756, -0.14317577687152125, -0.09604777534916613, 0.13063516475501816, -0.22660672553249833, -0.05845505959746937, 0.15752822099929878, 0.13143531990084958, 0.08129558513750569, -0.05469099617983268, 0.053475925567422616, -0.00647835425523562, -0.0019783622418765327, 0.021730706494912464, -0.015134766782904152, -0.01858640863708819, -0.1847579377452665, -0.08691840600050361, -0.027454363319767167, 0.07466498013958654, -0.07183501197112248, -0.04784201887174224, 0.059432616719062414, 0.23235185651719192, 0.17772865695749723, 0.05752701251879868, -0.07518188160249845, -0.01822385421874003, 0.06258808094961836, 0.043268916231936974, 0.0055434085854936446, 0.19126020144165873, 0.008860394218568981, 0.05751998061127287, 0.0789963288756522, 0.12662458461964798, 0.013496971430404769, 0.010598088613563398, 0.05194610286730833, -0.02044555432046563, -0.01725973420455971, 0.047923665556301766, 0.041349046889668666, -0.003783216598134774, -0.07710943873176555, -0.033400956264539, 0.03396642391385802, 0.0055296408068811745, 0.1028806083594663, -0.03835140671543309, 0.10899345083759221, 0.26063952133418883, 0.3000485954843998, 0.19203989551841738, 0.2076645631508569, 0.0844657771809994, 0.2551061612435261, 0.19874729123083149, 0.14988484288332546, 0.09171567594144267, 0.10856482015129802, 0.03893431714177606, 0.16498819678150817, 0.117743482439403, 0.009819613557674516, 0.010584189562326853, 0.05431901940985329, 0.00362106241391172, -0.07760280496926418, 0.046763391194702825, 0.015356868054161477, -0.03430634679110433, 0.03961877573946521, -0.08526771694419429, -0.048847476153661064, 0.025145837999815623, 0.11093820042294746, 0.03981090306043688, 0.024792290234761587, 0.09566886355757957, 0.3113759753030943, 0.23441803217237664, 0.19581392949461343, 0.08854286323204615, 0.3627886266595962, 0.24430794871417966, 0.013340569633995228, 0.018222274683168702, 0.005889259877639025, -0.05092556340165407, 0.053869987745163744, 0.030282098294859776, 0.06877005469191337, -0.027232903085637757, 0.04610168734156492, -0.008466439004301198, 0.011733644515131382, -0.016947163585897485, -0.11086281861355349, 0.05569101843796074, -0.02926867056686574, -0.04749581027227087, 0.04826648479682624, 0.01934773692178511, -0.013248475044032978, -0.10797898975551007, -0.08849660997145602, -0.15882876935087736, -0.04625628227945768, -0.022161174373775214, -0.028126723986328674, 0.25850383666242444, 0.11382408627025974, 0.06328976930820915, -0.04235201477200506, 0.008453305363679262, -0.07093148592177691, 0.04992150828927788, 0.0737609779790217, 0.02532165273869018, -0.0026784665428507873, 0.01784324617673613, -0.08208676353131947, 0.0251491270757077, -0.02725464001996311, -0.05653230703418557, -0.06516148953069685, -0.07443023894255495, -0.043637785674557825, -0.019495492582283898, -0.14819696052298845, -0.0656224841531111, -0.03129780271959222, -0.07392136100195286, -0.25368670834221535, -0.17441260926145166, -0.11964971902051749, -0.1306987151726397, 0.031957825459739776, 0.13852313071859898, 0.03913995418796468, -0.11802794451019519, 0.05882961119651033, 0.038564447552995505, 0.04436528227184568, 0.049420617600807945, 0.08250690211521637, -0.05529140834737665, 0.016262572373861025, -0.021072967538331183, -0.007532356018915591, -0.026252198852619448, -0.05862259563758581, -0.05212638933836102, -0.024766704955737108, -0.027924371659896103, 0.025892271512148325, -0.11324964536042305, -0.027490697813395137, -0.057168106955832604, -0.0694660517236376, -0.17673432168947315, -0.11601884391481639, -0.08288320716889284, -0.1912505274642869, -0.16553381377138648, 0.033138301585875524, 0.08949146760011525, 0.04540839002165763, 0.14582666458609655, 0.2256602273767279, 0.1542671375613058, -0.004001875602969282, -0.033865350828741494, -0.030672774611302193, -0.026479725852985442, -0.002692536749011036, -0.05249872084275014, 0.07189664145460031, -0.02621130050079392, -0.09696018257749082, 0.03584059570161089, 0.03286086052330924, -0.06172665989623205, 0.03654434387546327, -0.06603825182723086, -0.08325483935117711, -0.05343026676143074, -0.011419479984826323, -0.16305016175318446, -0.10106062624736381, -0.08776486760856947, -0.05625997475476133, 0.15179698015868717, -0.01616199727450546, 0.1372333641908645, 0.08780112237654691, 0.13476402982945357, 0.04658208805099152, 0.09913879855826198, 0.004736895572223976, -0.13333740526746185, 0.09183283434597724, 0.009911743202406603, -0.038422075925601956, -0.04503560972039767, 0.012637531688444791, -0.012685956010826506, 0.019927573774743915, 0.09228239418699682, -0.017570264000787993, -0.02173175238516491, -0.02739700702321838, 0.036466246123079346, 0.0012033512698715906, 0.09118797248438665, 0.035031341689667615, -0.10631789344459913, -0.012626760149694103, -0.015011164947698956, 0.05700790206805191, -0.045950081205949816, -0.033804135467412906, 0.03963117731294934, -0.008679883306838304, -0.05286547496407986, 0.0009227990577495137, 0.04277741603318377, -0.09646218159831144, 0.0359010174536758, -0.0745948738148097, 0.014053073144921002, -0.020484374684679056, -0.0016688821094304328, 0.08689992452923928, -0.06740318727582584, 0.001525515614158571, -0.0891379822552437, -0.06243486544762901, -0.01538208499913619, -0.0548271776160012, -0.020442252487045138, -0.07653774437848908, -0.008969843826386338, -0.03964701050701516, 0.03406042512474082, 0.043751595066601714, 0.006756094261032206, -0.07817155803023677, -0.02769294169789195, -0.05138737420524125, 0.017625378502950585, 0.005262900143777123, 0.012592601182717877, -0.05117875546042714, 0.009934430452903029, 0.0710446789567852, 0.09176504951340728, -0.022861756683558707, 0.013884447375282891, -0.02012846530851734, -0.014030699678213066, 0.03824892050856566], "bias": -0.05402381523437322}, {"weights": [0.03421991910062563, 0.052716082286976954, -0.0005497227664536224, 0.12987012144072702, -0.08075091840499417, -0.011669551866168573, 0.12008341359576431, 0.043752954740742867, 0.030759490421100023, 0.019318475897885275, -0.022340486035626887, -0.07520208275198419, -0.05794816673650381, 0.06369539229162832, -0.0024384656057236777, 0.03258842872134967, -0.012092413849330073, 0.03242894681299115, 0.008169833826442471, -0.014453173194374962, 0.022517027539663798, 0.05021175689621551, -0.02340682614668017, -0.0032441617644332482, -0.042946095944034264, -0.015556143661175512, 0.005263085491578932, 0.04201373032169646, 0.057998018857679294, -0.028205239227351506, 0.013503278324133264, 0.03626424197077767, 0.010547846289820277, -0.014825891236760499, 0.033376560133783574, 0.04716377473673301, 0.03171115385277131, -0.024063184478441694, -0.06695512102445085, 0.003065981214890721, 0.037793685187402615, 0.032928500300468816, -0.03440883855771688, 0.021571605007282196, -0.08958182461414037, 0.021035551352059166, -0.03926346060862035, -0.0086987394193035, 0.028332803320426585, 0.12575943303382056, -0.0068997289836551234, 0.02192688125722097, -0.12637936763016414, 0.04360155359148313, -0.04901583147002852, -0.05592427602415005, -0.07681708049440815, -0.017162119625263386, -0.030626544073065767, -0.016546146344383904, 0.05258340753964467, -0.024742446591418915, 0.023936494178254265, 0.06667025237548349, -0.1303385014354048, 0.007044638000411023, 0.07190416197351022, 0.017236857716535676, 0.02151161521189178, 0.06778938515705991, -0.07146823452838029, -0.02797540720223341, -0.09360908252555089, -0.033139713588969597, 0.10031068670878375, 0.02603150302540034, 0.08529241291724707, -0.04679070048645947, 0.015986758722043855, -0.09427829484860556, 0.05479299458749031, -0.04686527945142463, -0.05595653444683906, -0.06562736048945662, 0.02285712801586599, -0.08248453582900665, 0.006380947050309079, 0.006088138632938137, -0.0308158338640782, -0.0600371868362318, -0.027131275530565845, -0.004409338254427115, -0.03101309010418408, -0.054907421554746115, 0.007354771389007013, -0.021512399457405, -0.09512130658068357, 0.032527627576816494, 0.032880410834727855, -0.0148377307755982, 0.056855922875974255, 0.09814546928661862, -0.05494937929758899, 0.04299283944921156, -0.024979964256544758, -0.060065028826745005, -0.07620832353175523, -0.08679699631140604, -0.02890997748014834, -0.009866394941905287, 0.013185914113157815, -0.07663012836039582, -0.0336536346093933, 0.015256654020116538, -0.0404249155861876, 0.04779822490502165, -0.04311120680543604, 0.03013616654388942, -0.02975466296994562, -0.07019391105473019, -0.01769801886847688, 0.010208268630285944, -0.057663506556528486, -0.022958918162537804, 0.03656924209494244, -0.0029929261155906615, 0.03130156643357993, 0.14186554149177852, 0.20504747253926262, 0.19701952204586207, 0.05813866964574758, -0.04693438334464283, -0.008950245015187557, -0.04190001288713174, 0.0027953595775617227, -0.11493225175137119, -0.015300863106214726, -0.02788559478600719, 0.030088410217087865, 0.10071983717003669, -0.023299894869684045, -0.0167833618447486, 0.04551446164627737, -0.0471976958795791, -0.0007668681852411363, 0.07717078683817004, -0.06014161540593709, -0.057885900329867915, -0.01247545015712071, -0.1559217611233823, -0.02162593503495454, -0.08351724023147035, -0.12583388885099306, 0.05790139860242501, 0.10248598853791044, 0.0024728441428275806, 0.16083344470017974, 0.10997108501068889, 0.040496872674729525, 0.06518308031589323, -0.08349214508750676, -0.012314843997185762, 0.015590967828735024, -0.06580456116297749, 0.03243513996215276, 0.036964420917421276, -0.0836863628600959, -0.027374704345277216, -0.05072211544566694, 0.06859630299397289, 0.010784124913999526, -0.07057030651112009, 0.0474273491493283, 0.04350407849500175, 0.010434169191827396, -0.10085345487757999, -0.11755712887522787, -0.17177105258635755, -0.10686855752586419, -0.22779082482497984, -0.11320321159777517, 0.012116350482544811, 0.09762872647149395, -0.01065805789480544, -0.01497232566072338, 0.048330262161724376, 0.06353141524693354, 0.08034277459078644, -0.02842159909189589, 0.22997420007589353, 0.09748601266291816, 0.05994815564576529, 0.06727345008601003, -0.02138252186240372, 0.04642238890048519, 0.021137774452814492, -0.11027556020469038, 0.008817649375294931, -0.08193262801861045, -0.005828662072412439, 0.006269240840866666, 0.026350609219975434, 0.020292970041709064, -0.056764817582914316, -0.10027458476183833, -0.06552691402811762, -0.08098411593662777, -0.08967734671427241, 0.040175897757152045, 0.07659369867439848, -0.10168270824380067, 0.047013714288452316, 0.16051561848667528, 0.16410331820110438, 0.13701304577539394, 0.10426444883285367, 0.07599847011204776, 0.22408002432573873, 0.24152692843136936, 0.12444419835481764, 0.057469109951106094, 0.09073493815567624, 0.0007921017479681331, -0.0011970436095114058, 0.03974175656702212, 0.08165936797415149, 0.043705225243740646, 0.03293010681625287, -0.04665341992381676, -0.015097117674507058, 0.03475036401476428, -0.0724050384097528, -0.11241534230245152, -0.19780793401598126, -0.2120928961902984, -0.1613093265134018, -0.04383672217399974, -0.08877602422841947, 0.016737669624565972, 0.04924243331230392, 0.08877040968731324, 0.04118741811543479, 0.09601533425896004, 0.08553002565329745, 0.15105776424726575, 0.08053056793167845, 0.15227409634447797, 0.12568429085391425, 0.12539378643473, -0.043426370061337725, -0.01181910802147756, 0.03480514733452809, -0.01916727704865802, 0.05822929155671813, 0.005237772386879598, -0.13793460377081826, 0.04053823858846474, -0.03548540969051585, -0.1330030382304105, -0.13588648424560174, -0.16181357394895055, -0.28589599783568526, -0.10622945575964429, -0.13839040269272707, -0.06424856268759381, -0.01210473335427533, -0.05198010042709182, -0.03841647076543353, 0.022813258847351147, 0.03740198952355566, 0.01522241376116292, 0.21366441765605818, 0.14077493313619588, 0.07497401104983015, 0.07054358318549973, 0.06299947326007872, 0.10326668744478007, -0.042026788271107784, -0.04183675236806017, 0.013236236870521978, -0.016567254035692723, 0.010904088703917611, 0.0222723550487393, 0.052832491723116375, 0.08572253925786799, -0.007493142618076575, -0.19933870388279543, 0.0326278171094282, -0.07788902540520065, -0.09162411116591355, -0.17572911946412592, -0.02469355625045334, 0.04364983724971147, -0.05942270568620026, -0.04839102477060548, -0.009085530825591277, -0.06954823190501544, -0.01952274645538405, -0.11723141478357298, 0.05473930661320193, 0.1656150023500311, 0.06074698062269242, 0.15359743778876483, 0.05002630809765103, -0.027694155316474706, 0.029454528545497818, -0.0039745605433205876, -0.0077371415480532385, -0.08253681009957878, -0.06788771305963079, 0.021467435157028092, 0.06317355109025259, -0.04283255979306603, -0.026503964613812405, -0.07948241914306313, 0.03717221021875677, 0.00268271438444949, 0.1024257407290377, -0.21431933103726708, -0.08390342434351235, 0.02343207983781528, 0.11940344367524018, 0.11051530519213519, -0.038270677258916114, -0.3486021380410002, -0.21497706030686284, -0.06895116273330484, -0.10047396073961551, 0.054454021034835494, -0.01372258761175282, 0.15247722950031234, 0.024343968145285076, 0.09036033774865304, -0.02055418667321311, 0.01028114331105383, -0.05199734521109174, 0.06679944124544207, -0.007009407903959755, 0.11329426428426378, 0.022129787987690157, 0.019033354884765985, -0.1377178458953344, 0.0072850934087171065, 0.06758747333610189, -0.07243477688269495, 0.05941417950716249, -0.017233599846083233, 0.14133890373907923, 0.14722182239196993, 0.07342892025170752, -0.014298298199909272, -0.06572412633302237, -0.3755393914188087, -0.20501093664509312, -0.03046723711708083, -0.055749244734014686, -0.01787819789716664, 0.04927104895139748, -0.011328233587166708, 0.14757756140418632, 0.10454652920921378, -0.06875858142758277, 0.08210633272288095, 0.044012225182359095, 0.05207333867525188, -0.006441749632505442, 0.04784733408078275, -0.0027449166298447107, 0.0019373221820413835, 0.0959003983460758, 0.029279305533772493, 0.09829386379527251, 0.018273967624795554, -0.0298411984741423, 0.15792309320822615, 0.1990614298923887, 0.1997883561205067, 0.012208611658226317, -0.19592358508950938, -0.324990447754911, -0.3040383159251936, -0.13300772613322762, 0.010713502668892741, 0.0016841773655729688, -0.0596112602455883, -0.011282637418116772, 0.10404907466026496, 0.16868812190614646, 0.06283878622198749, -0.04489040819085735, 0.005537602841742639, 0.003728586086102734, -0.04266105970242184, 0.025340871636939256, 0.041133058278211884, 0.040291691416047354, -0.025324385318195836, 0.09000445914799382, 0.1259123557473353, 0.1557328781401752, 0.05799123303394774, 0.05862710049562398, 0.03339518826366048, 0.1381387347217137, 0.09888513144434333, 0.03793878759207041, -0.09306310790632998, -0.31589768667284124, -0.3893264923957594, -0.06723374736969569, 0.10820851594774124, -0.07938264712000773, -0.1057386432489498, -0.02453451706989687, 0.005098947675575674, 0.17797965893852932, 0.05241491568412369, -0.02317903935414092, 0.042140076541503285, -0.03658508292198643, 0.03381206330494488, 0.009847474900083501, 0.032297197246396, 0.07926997794325621, 0.05441780796623551, 0.09943302510369488, 0.07916928243141977, -0.037934956532035796, -0.05125741387290388, -0.138521746394925, -0.15870437997782708, -0.0008104478735014388, -0.005229457438089131, -0.09512978609659838, -0.23030853026924122, -0.2625654948129315, -0.06778411809274323, 0.02005937363037789, 0.06263855449618, -0.1278691862296534, -0.03497767228911534, -0.02507222276449973, 0.1679204634854049, 0.034488569661972626, 0.04777562001081678, 0.069632564442473, 0.06229646618595534, 0.046032009899524426, 0.048010338460481895, -0.08297776039656084, -0.032733128806761824, -0.06126371446940064, 0.10974091251415244, 0.05074500575188878, 0.08342441493180978, -0.01933719874273968, -0.17119765898244577, -0.260247036490435, -0.04625003775169453, -0.1665454706456139, -0.17613112501027722, -0.1880593579682633, -0.24163367088637752, -0.03586994736240945, -0.0326483172912172, 0.15710977529381687, 0.08643453000223178, -0.18329962534742208, 0.00883915562685738, -0.06895323557895973, -0.024651757785762212, 0.05930920128565033, -0.05554614297300069, -0.018234710900685014, 0.08283050458810952, -0.053074406513125505, -0.04133330278668673, -0.026005443947822147, 0.054058972194478, -0.01522339430211362, 0.13644133001137201, 0.013419086823447529, 0.026395316586563328, -0.0382406141054603, -0.29534793395714015, -0.23864802792513531, -0.2094065059455867, -0.21395891803289957, -0.339490271146352, -0.2361065882221772, -0.2333736668012491, -0.13097352726082012, 0.056474227489904716, 0.09938154003522982, -0.11464969887026705, 0.0009058922056379269, -0.06177562618103397, -0.04129195356925063, -0.03379485389180903, -0.026120162482690185, -0.048722917518044084, 0.039542079690266144, 0.07021100200942057, 0.024770467861426646, 0.07051892886944944, -0.0049732416536034186, -0.03432667413231637, 0.0010908904145364336, 0.01767093398297149, 0.04267999104693028, -0.020591833350001462, -0.07587210594674208, 0.03327631994069593, 0.059729408081721926, -0.1268866338018587, -0.1517074449516941, -0.30926590127914805, -0.27507062907257207, -0.12421569597569616, 0.03669420322978137, 0.12795825215547604, -0.05269936880947656, 0.07196750086801657, -0.08411631745639951, -0.1490859972015709, -0.015190300991700557, -0.021065034049693548, -0.1275824798651144, 0.01721646352926848, -0.0013813740272973097, 0.0732758291823348, 0.10675582550648817, -0.018987279106141085, 0.08209608004696214, 0.01981509166590738, 0.06831032973330474, 0.029972031998164637, 0.09448791386790531, 0.0020822742495240853, -0.06360288259682849, 0.18790344420615665, 0.05711528276837712, -0.02208922649444175, -0.08524780142076278, -0.11972049781133427, -0.01496898306637915, -0.12148281398622938, 0.0694421697564761, -0.0656027988883846, 0.04214642156985339, 0.05769204019753569, -0.11219803588430696, -0.02586641944612755, 0.02227897982631944, 0.04530512548212214, -0.023146304393753148, 0.005042599813336333, -0.1508110754329954, -0.07689045627080707, -0.10636028325459766, -0.07245924303885436, -0.04352453648887275, 0.05209901955604553, 0.02929038749387617, 0.07552856829602184, 0.05577558328958546, 0.019586555838208262, 0.058762561955519925, 0.18150697884448733, 0.13812287113981342, 0.07948357979811026, 0.1743278324259919, 0.09155460201171182, 0.11260062336474351, -0.024782185931433283, -0.06606419952985147, -0.07169457398399251, -0.003917874228111907, -0.11121789485790685, -0.1614702841211737, -0.07221754662318189, -0.1851040357629286, 0.0024727697608411545, -0.1284875152256019, -0.07338332110208962, -0.06737776728743977, 0.08855687389513857, -0.012169914407447106, 0.021660179483436508, 0.06703100089360879, -0.06678307447240167, 0.06470671616550072, 0.07622163168617563, -0.012222344402453192, -0.09416435195922271, 0.03416707058830701, 0.2528720686555608, 0.18169033866257964, 0.22784135786722182, 0.07547214791215955, 0.06238424801673923, -0.061944561900741886, -0.05013426453010901, -0.02710333195882792, -0.05607557530248461, -0.23542638923992654, -0.14898883000450652, -0.12695096991291635, -0.04608361642477813, -0.06328111997074841, -0.06371538274863406, -0.04002025660935798, -0.059187690158938086, -0.04507206516811931, -0.014513388007881843, -0.04674543066462452, -0.0078117304168722704, -0.04060380666748361, -0.035569559483344594, 0.044389593970353344, -0.045040821419555205, 0.09070625885385003, 0.08428710088418273, 0.13890945689824455, 0.20312083850623805, 0.16878652447469422, 0.22671939436998811, 0.056949658519251704, 0.10523093683952882, -0.05071141133542863, 0.030580691327258224, 0.09656908882841674, 0.011471762373714993, -0.08780537663342691, -0.09855503333551885, -0.13004276265026488, -0.0930225664354493, -0.09865157220194828, -0.04455553614645285, -0.055552923375936945, -0.11797357910246052, -0.041141041807694526, 0.03883318414469719, -0.0277469849303471, -0.09451910364417884, 0.07485467539128299, 0.06864137911938227, -0.061066565311501, 0.014135092443576771, 0.06405090845440961, 0.10178022130341614, 0.10268085270886333, 0.130607858316304, 0.14082670475342848, 0.10016262895077419, 0.21782645804195627, 0.040989668181268764, 0.036386597090037096, -0.006004894196794682, -0.03457462735759379, -0.150977203959661, -0.0856676272411558, -0.13244897000291347, -0.1542334572058673, -0.11938788236431588, -0.009700194149716707, -0.0508850636353395, -0.014997744785244177, 0.0092277728760935, -0.0011589089246619476, -0.0004529453198318558, -0.14734477881118824, 0.007781810529442227, -0.010207369571156743, 0.013228461477803453, 0.06921371970997345, 0.05685674572702297, -0.07404037765329476, 0.05832968037186713, 0.061423886853274365, -0.021076578659516856, -0.0212754271136384, 0.0408833712400253, -0.03449270160089486, -0.01558033531604487, 0.006337976829533552, -0.014520855785423553, -0.016994254364442657, -0.07801189057931722, -0.17968943391424405, -0.0709830177468085, -0.07319906340715134, -0.03365079906088505, 0.010367269584963059, -0.03601933647202733, -0.0332184840957074, -0.09304841764379296, 0.049472285615469014, 0.003267726726814759, 0.044070416886106856, 0.0655393611985561, 0.03493944311052397, 0.07743224671761337, -0.04209012869180254, -0.0369359290301173, -0.015021321371484505, -0.04006047152625032, -0.03365459145941272, 0.028496616896606347, 0.02530871045469667, -0.10038172695064818, -0.00234243533882517, -0.14316194248125522, -0.07708995635111958, 0.0032384629065902236, 0.05371667023478831, 0.008077149515198582, -0.11422358990315162, -0.06535544715012367, -0.03791831728212485, -0.02389496370124273, 0.025545847937216544, 0.030585629645550547, 0.04746076028324801, -0.06978692368128649, 0.02662413337975128, -0.0006346308651801853, -0.004707114937006615, 0.028382692119838345, -0.0674057257614413, -0.02209331092114693, -0.0130810517002135, 0.0175607795166582, 0.028371688294656732, -0.11004024460260944, -0.04679889085878405, 0.028539846221356538, 0.019138327919701662, 0.06258069417788215, 0.06459823884746012, 0.010684482390276499, 0.03394291949225228, -0.02554043268508146, 0.0985055306891602, -0.03981522428309849, -0.05680892133526298, 0.02944469348798491, -0.007052946671498208, 0.0048845335650515445, 0.014094073958214727, -0.02018878833155542, 0.011380335992161893, -0.05708258906514005, 0.06284664818799983, 0.01813867559330153, -0.03198356281307885, 0.020565310874739385, 0.07350741869205359, -0.07464445423289456, -0.018429073877766985, -0.04059076686014268, 0.06292722979925035, -0.015101379202593534, 0.025918580652697292, -0.07620738301938741, -0.0022276896065331034, -0.06387288259004135, 0.04470296882127823, -0.03570977124400035, -0.09874068480634796, 0.013679613323080306, 0.0798829432855336, 0.08985007716863164, -0.02453580713291747, 0.0023092620256439556, 0.025523882543775637, 0.01026509083732879, -0.06949457379698071, -0.05309789169482279, 0.0918605908987324, -0.017032268894057304, -0.03591470507876093, -0.05921806717089263, -0.010021143075482719], "bias": -0.08107064118401472}, {"weights": [-0.07074365445522952, -0.07264115652756763, -0.06111328153827406, -0.014750045351020369, 0.013271007644188862, 0.021271399486122212, 0.030646382747745685, 0.0012837082851813496, -0.04735563099023988, 0.029357603199404086, 0.04984967006447896, -0.10587352953395597, -0.023761245903294544, 0.02376189815761225, 0.014389914279019325, -0.012951318168825797, 0.004872054794818188, -0.046608619988824165, -0.05216708645409707, 0.061488866033568165, 0.07230857033972102, -0.05064059544576832, -0.04996765232486368, -0.03533091013602276, 0.005006013284974111, -0.04262149652022783, 0.02674714262755592, -0.02178288903680961, -0.1523798696464535, 0.023163780494556457, 0.01644597213002238, 0.0037595459573065214, -0.024672976579323328, 0.09047369341355231, 0.08956346525445844, -0.029537676324498097, 0.03934616247312106, -0.004446090791710398, -0.010642189798250563, -0.053091228696487844, 0.030991624600958688, -0.005712004395285853, -0.012918309748288333, 0.07940974914804297, -0.04532462867732607, 0.011312075949196428, 0.02505311108632642, 0.004230567247411606, -0.010857268452720009, 0.013595902239056712, -0.04338596134950125, 0.02424211305526149, -0.020691469841879133, 0.024518956878264567, 0.041336703381633276, -0.06795406271216835, 0.098590701740751, 0.052624540109802304, 0.016096507502552114, -0.07848194620523882, -0.019733319759032593, 0.07747276633175579, -0.03291436071053821, -0.02143129972616779, -0.06189741233678006, 0.0788882360625851, -0.037738068612325947, 0.04211968921112021, -0.03260731594630175, -0.015989653595086438, 0.019231568786523563, 0.018794533372673405, -0.0003124675930563531, 0.013622917459371817, -0.005865039834889279, 0.06028716629490877, 0.03705884869914106, -0.005204074260892969, -0.12147149959509888, -0.034339557077657054, -0.027644803744505387, -0.053163062453569825, -0.010578163193128064, -0.0326431352433284, -0.03604590496304915, -0.04784622444216495, -0.038830540123961275, 0.03706218049004813, 0.07476247154467829, 0.0977279041821097, -0.0023570936058141994, -0.08193352819618642, -0.015682962412874812, 0.06838303923218444, -0.012519811167915642, -0.028288448249534866, -0.0004407530556810161, 0.07897433691957947, -0.016904686812296486, -0.03574247954737577, -0.002537853796236168, 0.010036698300390954, -0.008437343998744568, 0.06499374750369459, 0.04349644179447746, -0.00969597916543558, 0.00654448915572919, 0.07237125906550038, 0.019937678866105417, -0.01881511730161803, -0.048687202290392105, 0.04927985609511717, -0.024079701335041816, -0.12150509560347693, -0.041803244144612645, -0.05513801866101076, -0.006396602825410718, -0.08932048924034301, 0.06418266100996818, 0.04546299848434581, -0.01076712598146209, -0.007961658289427131, -0.07106763431187756, -0.035892363133648554, 0.016744688606795205, 0.0014318879349936979, -0.03036017446511927, -0.0275004726341481, 0.006304939859978234, 0.05320954213213843, 0.01413141734178372, 0.0587287063409389, -0.0022227755688235848, 0.012444421304896163, -0.07202457302899588, -0.0193460950515888, -0.06584455826822971, -0.002199896246077164, -0.08488915282363894, -0.057640775431952965, 0.03584955270516241, 0.048822834297241796, 0.0730796039328519, 0.014975630249050026, -0.03634421679292066, -0.0541760857689482, -0.03305720523901658, 0.01050601456202853, 0.0010638444156263163, -0.03413105118723667, -0.013011495886058738, 0.022840793071749695, -0.04072791187710172, -0.029991722926276443, -0.043465973591761096, 0.04058932983499306, -0.09367056537121027, 0.06932950732690074, -0.01448388869478705, 0.005433197455112938, 0.04648116133583513, 0.039095302435472906, 0.04304249854055157, -0.0011687436817650596, -0.020399975892030978, 0.021424511830522748, 0.01825845838642583, 0.01082342988834647, 0.08956848034785911, 0.009927814985920864, -0.04235256238315384, -0.020314400908133266, 0.11425596478188987, -0.056055146297712424, 0.14055204271119656, 0.0006361547854322118, -0.0027606563940016397, -0.044548760009972245, 0.042468095453309145, 0.0234482918423546, -0.10178314297106336, -0.11859793650747912, -0.012635319620104498, 0.06891010832875732, 0.03566600640978247, -0.04602455880131588, 0.01697128977898793, -0.01780275107154691, -0.017894740041380145, 0.02123320656791929, 0.0019614561416173458, -0.026876094047909062, -0.13462001066593984, 0.07275542351619864, -0.06437635512070933, 0.025337261022465297, -0.09756682117993118, -0.04527508182416185, -0.033637485774984925, 0.05692613367704452, 0.017638256658057405, 0.0533336641693917, 0.04528787019181984, 0.06258057787663245, 0.021683123587840438, 0.011996069643369953, -0.004088227951505279, -0.013327444971500898, -0.06862593412379658, -0.01619353372633536, -0.041485928040015656, -0.02660432858470639, 0.020899105403353206, -0.03271900845326983, -0.002687487230309914, 0.05353288613475284, -0.018024246224138583, -0.12290131093008044, 0.029178559131740014, -0.07977659839399702, -0.08994246311361892, 0.0210444260715801, -0.002874801945640358, -0.005514467921680128, 0.016717057222876905, -0.01948242037322689, 0.031144173974250698, 0.011515557420724928, -0.08396368980798384, 0.0879262470737033, -0.042613616734818206, 0.04607199286405385, -0.06835819894532369, 0.11442436594327911, -0.0607135845944146, 0.02768900422412261, -0.055032294453488825, 0.03527328601014823, 0.011865215158004067, 0.0319551862821203, -0.013284207976914604, 0.009749035552703365, 0.012082068055164461, -0.11471832424964332, -0.008479969157436993, -0.0031517113413945304, 0.026705666693342803, -0.07703315703256673, -0.07917555255598709, 0.005699878782071379, -0.006102498156407178, -0.0029716867736481827, -0.003039408880198983, -0.04780110970154836, -0.047717651419932464, -0.07173375520852325, 0.06576813257358534, 0.0963023722981017, 0.010004696216214108, -0.013546497516539975, -0.12045023764369985, 0.045839452898356434, -0.028903201448024538, 0.01961897635321482, -0.06876726767133173, -0.04112920788483589, 0.02273581457046096, -0.011255014188078146, 0.05974723869510206, -0.02055234632803287, -0.05864098687459587, 0.04041259039222514, 0.010971327101704913, -0.04640781626978477, -0.016873527008377402, -0.0033483215751763913, -0.05221780528680494, 0.07147391898543687, -0.015854401886652696, -0.0182916298452434, 0.07630845393626237, 0.047991492436387416, -0.05492521444863152, -0.055152110008601624, -0.010675345720147373, 0.06352988951348822, -0.09757094698647623, 0.0982949663012549, -0.008101040769168549, 0.010811423409325394, 0.026005173817860477, 0.0004129765189688265, -0.061311570577544945, 0.07006054004407737, -0.014074454960187522, -0.1016763173190523, 0.01846969095259092, 0.08875035571952966, 0.04530824779310021, -0.008995848797150463, 0.0055516548319911345, -0.0023226056913067485, 0.05435158423172566, 0.0016683150042574413, -0.050895943420219886, -0.009154279053042018, 0.04321546202029289, 0.02598026761064856, -0.025747852549962147, -0.033054041348569936, -0.01794554876276899, 0.04917898759961465, -0.0402597482923417, 0.02356832823699976, -0.026557043233642257, -0.0717992140867728, 0.04476624119193028, 0.025968856008733023, 0.00530926224812946, 0.008566535615260634, -0.04438843937235122, -0.002497992035006294, -0.10343642942257002, 0.028984522936332326, 0.056069932514228496, -0.00246485883110726, 0.03560158179981422, -0.05371772360614279, 0.0857864722485301, 0.0499206651104714, 0.03826486661733681, 0.02595531160792002, 0.013538388109707112, 0.012620728506898101, 0.07177737493256367, -0.0004972353723548569, -0.01522711157024512, 0.017107511381286643, 0.036712230253880304, 0.013609926792306338, -0.03900846704716954, -0.09667123185302512, 0.10261682764691166, -0.08428980387877154, 0.07946030330536615, 0.14872265277609448, -0.004459155558541278, -0.07181641383639341, 0.0018357187622823365, -0.00783007488788304, -0.014020855946995227, -0.01977467977136487, 0.006197454375678872, 0.0582817477477546, -0.02652066778910112, 0.010535649790216168, 0.04191735845227926, -0.0377504203329904, 0.045061198591623955, -0.00023996292875348816, 0.07719520685825561, 0.05214081527850946, -0.040196684215632425, -0.11171161579922192, -0.0014270903969422558, 0.05091413177129143, -0.04122483702123684, 0.05559393958856008, 0.054032321735933905, -0.0026231199783017657, -0.028392934686878004, -0.03436725781943697, 0.018830102883348358, -0.12337442508318584, -0.09952598752812465, -0.08140164717854756, 0.02746765670573397, 0.04472130889978942, -0.11556662580657838, -0.06449751803346325, 0.011030041836612296, -0.04895733794602924, -0.08652552021087984, -0.040839941630164585, 0.015278849857882967, 0.04975407168406479, 0.047287175602377135, -0.02557977204031337, 0.056851768979098306, 0.034939111321926376, 0.06360178994594631, 0.08413606316760024, -0.026260178769858443, 0.08142635676618545, 0.0053105233766367835, 0.03197513898758942, 0.08291309707213555, 0.03455314660767579, -0.049152386448947406, -0.027822807055652196, -0.06089534535727521, -0.014283698951915232, -0.04987729660375885, 0.02832159269725749, 0.05624491463024307, -0.12507709096777808, -0.06959457099501117, 0.02448829502218716, 0.019656866862797735, -0.042193631288289284, -0.03245428344002164, -0.029911920714228202, -0.001594987794593524, -0.05816053787697099, 0.07176689216386864, 0.015463381612957681, -0.025013179831597565, -0.07668646751123737, 0.11000370972035053, -0.03683293375413444, 0.009204466756228272, -0.024555474983224235, 0.027814264906390815, 0.021049303685630738, 0.08357720152333796, -0.008729669512947642, -0.0002978267915843863, -0.00970275453694096, -0.13441839474443867, -0.005085475466666862, 0.020610993742809555, -0.024027595216339206, -0.0288562683764589, 0.03126866914642095, 0.1540960590983881, -0.09383828976236301, -0.02599780054462158, -0.0183664640819319, 0.01781918616591996, -0.011054235499042915, -0.09533686025247336, -0.021077314183910244, -0.019841475424699953, 0.013517133392805065, 0.053264892790885414, 0.0524955323948435, 0.009233029391169578, -0.03813988554619941, 0.06386505073128895, -0.08680136252502045, 0.07298026342644755, 0.07634752452012217, 0.009220782948154893, -0.07954985360834493, 0.07581970013535615, 0.015811418307197855, 0.003158128387605201, 0.002078410069025703, -0.0128275708570765, 0.06746524737545301, -0.01548016702066501, -0.02846471028745113, -0.05732185541362645, -0.06490686500616391, -0.03610457916217468, -0.0027163597144474866, -0.04125036940835594, -0.008726733156350346, 0.008433392346815866, -0.054045149680801076, -0.08372055688597853, -0.018806183499285506, 0.06986033591308641, 0.01587050069974799, -0.061220244068854304, -0.04180018249062437, -0.03478954631723635, 0.04118389931391461, -0.04012230819392322, 0.03222344743084901, 0.06779590716185734, -0.02973817535081503, -0.046630545493065015, -0.05168058891074851, -0.04620546024188901, -0.06412280739606285, 0.04337021856985766, 0.011479337590773383, -0.05252119027231557, -0.07992746335757749, 0.0041112497163746445, 0.007541713340611706, 0.047717632166998855, -0.012211193827901543, -0.05007730641408659, -0.007688260614448833, -0.004011160450921748, 0.044867583418854204, 0.022856308946710643, -0.008902322562987279, 0.011586542189422585, 0.051413396323466656, -0.09081984580234122, -0.02778016417167624, -0.07103707865753324, 0.023925076369519818, -0.03922441080316886, -0.05062015297967724, -0.06456445651418252, 0.030827203971055973, 0.013657784971963998, 0.03408760532608223, -0.039546412161414884, 0.013054134048808997, 0.09534103136163496, -0.021191086100148894, -0.029745000079608952, 0.004773883597285859, 0.030068104183966136, 0.015008407722355904, -0.0591846942711107, -0.03595859857508801, -0.12266385247585856, -0.03253569221384702, -0.010540131666745887, 0.03354100432312782, 0.02070226925923412, 0.018889487962886784, -0.05287364382950234, -0.01707454531049802, 0.07011958308223856, 0.03774934365953571, -0.08041691654914691, -0.01753231393825344, -0.06648358408510575, 0.06589045815677048, 0.010467851812972438, -0.004841993593169548, -0.0471941303773135, -0.011602748248634474, -0.004006511805818886, 0.07471527294107416, -0.11402261643996302, -0.017891749042907707, -0.03820246684265777, -0.027315005248621363, -0.004204947062696188, 0.010505301279576995, -0.015878081573178486, 0.017004100054821687, -0.04499271599873332, 0.04997985418032685, -0.002488711496445183, -0.0013190829446810292, 0.019881653860533612, -0.08212451675176531, -0.031298420752668595, 0.08863404687352579, 0.022555376668088087, -0.012688789006003034, -0.04469301612911619, 0.052379812119175424, 0.07390332391055726, -0.005884459212328249, 0.03226654878350237, -0.006414717903548478, -0.04004860739552604, -0.0443043430337633, -0.11656506105412595, -0.06767740096965467, -0.013268186605207469, -0.06535459275294087, 0.06704196307493696, -0.09279827167615738, -0.0013842912771205216, 0.007878819037387939, -0.05511154283459919, -0.12132664078650081, 0.019091580685710017, 0.015525597432263945, 0.1027502532296403, -0.049822814201514076, 0.05223111891524274, -0.002845285765768261, 0.06702537827888846, -0.10889961237082317, -0.008169964182431608, -0.00772923585142798, 0.09063720182258085, -0.047013764862777134, 0.059491432746219756, 0.026584335312898725, -0.12494527440645332, 0.10689283028823232, -0.003390780938376206, -0.010761789234898468, -0.026778106170404416, 0.009233145566419005, -0.031080446727264278, -0.1331413428350175, 0.0021706891401705787, 0.05899613946312234, -0.033764802363841884, -0.1190633817663949, 0.007045403374848325, -0.006909086594397365, 0.04748371399069395, 0.052500955692141534, 0.02780144174018974, 0.0020079181046683777, -0.011729204397006138, 0.01969353914580735, -0.08041699290590487, -0.02091454618979841, -0.013433310709039534, -0.021625247757136215, -0.03740109780565851, 0.010325563136681013, 0.052297976092282115, -0.019700426440849874, -0.02031402797698447, 0.019735970942547566, 0.002232682681919646, 0.012181400578684278, -0.04346460602751843, 0.029332977727376777, 0.002941176052542662, 0.02385134929947893, -0.00332320842380498, -0.05856510430664716, 0.04155906372228313, -0.03926616638234184, -0.025083623741053687, -0.043505543984005926, 0.004992346539832653, -0.006869993628365028, 0.044946665607599946, 0.03556462850825024, -0.027503679620730883, 0.04220865657094388, 0.011035645444235787, -0.05667101180088996, 0.035954739547373354, -0.061855218790774706, 0.06479326118538452, 0.011032596202330706, 0.003166328653533233, 0.010804821544632888, -0.04501937733377294, 0.008453787121451957, 0.11574902421769274, -0.016025886512909412, 0.08697773004145884, 0.15941200040645442, -0.0251838354491153, 0.07675258459091301, -0.015711843657411996, -0.07319019319062597, -0.11038727354721022, 0.013537791401235575, -0.01461473967466138, 0.06391817423169023, -0.03718569517647685, -0.09407501877077137, 0.05042420311079071, 0.022156133488709425, -0.10657135386470834, -0.014838081446658977, 0.07252009970534633, -0.024203999575965713, -0.08217312374229704, -0.011653779902426655, -0.028260062205039457, 0.022468187350673647, 0.0632354920684869, -0.07166672423593828, -0.06210042514877433, -0.0672380547531063, -0.011786708698892107, -0.050321727386876056, 0.00813017940243664, -0.014951572712017249, 0.08156148047676752, 0.06103509316003683, -0.053001895858245655, 0.09075836123250562, -0.03725423721332621, 0.019171623584911788, -0.09731743374807239, -0.042396017428415714, -0.08830167888320543, -0.03367231702839314, -0.0666772753714393, -0.0509729337596938, 0.04836024075726131, 0.046096478189419886, 0.01384104708956197, 0.03655393129326959, 0.08165605897772533, -0.06274216026909685, -0.017287504532478244, 0.008010188309052478, -0.08832587314810691, 0.0951099682662918, -0.07057643044675341, -0.060168135939853366, -0.009997776869911065, 0.06073514620438415, 0.010437655058963954, -0.08570901628972787, 0.1078068351716036, -0.024715618808683636, 0.039932911352851305, 0.04414083567758874, -0.02665343927535031, -0.0110964361669603, -0.1156745305234647, 0.09145961385743988, 0.0024783604327215645, -0.054744674590189245, -0.05562273999762885, -0.016983328908873038, 0.031249802286198107, -0.014015831882939284, 0.028015289661151827, 0.08071508604046398, -0.0021237293956453324, -0.060350751487266, -0.033178772094530594, 0.04778883458532027, -0.0001493969351192085, 0.05390692159017945, 0.04941841591969266, -0.026645353424166043, -0.012261028307619949, -0.018052031879606984, -0.06647205737472513, 0.012993229648403689, 0.06362102118860524, -0.007454400728038956, -0.008168638126483599, 0.05736582166426825, 0.06387601096603424, -0.012859779006263564, -0.049322522558814044, -0.002984988146707145, 0.01306099184895417, -0.010393614482279037, 0.09034942788917222, -0.035071104642577865, -0.09265680282093304, -0.00838119496386929, -0.042455617124966274, 0.03435725050320527, -0.015265608289659189, 0.017273435457118368, 0.001162261812200205, 0.017314196718480213, -0.05348733946302887, 0.05261218167818896, 0.0352380461047986, -0.00028052143993164726, -0.05715736677486734, -0.044038285860283514, -0.042909654020555896, -0.01500116541047141, -0.027842588013984655, 0.006375565073271719, -0.058877634921919275, 0.024225420654371485, 0.020144173054680012, 0.006697435720769726, -0.053590733107796586, 0.04468098166645771, 0.05584061531754147, -0.0278149494202144, 0.061052980439229104, -0.000229049224118183, -0.00813167728584546, -0.0316472837404586, 0.03310181273917285, -0.03518419745850623, 0.002243886243310318, -0.05973104840225714], "bias": -0.01599658650083282}, {"weights": [-0.05884133349515863, 0.04932283785515316, 0.026321235678992395, -0.013038730974886687, -0.03497954864564973, -0.01815808894674505, 0.072836614801546, 0.09628686118223018, 0.009434239829800637, -0.005867547508048281, 0.09657216160447947, 0.06397477278997353, -0.06203680740604008, 0.09850931913325285, -0.002896778976047441, 0.030068401435399277, 0.023425344007463687, 0.1092252835665623, -0.01911347320617517, 0.027518803664678706, -0.058186324941869934, -0.04835706059269126, -0.08012257189103113, 0.01876167855022181, -0.05144322212160753, -0.011717071582187646, 0.05753270901216217, -0.06916126477786626, -0.021525640827595286, -0.047762394787096936, 0.019514266155388277, 0.06618527345903916, -0.0006342617779879614, 0.11563759573563812, 0.020240268664289192, -0.06225320601845227, 0.08486308425994549, -0.050145453312153594, 0.05255522860749325, 0.10179250241908903, -0.011057501747599867, -0.004501963136554079, 0.08704076078887361, 0.025994917823672237, -0.07141535561159315, 0.016916715658153402, -0.011856308952371147, 0.06955852246474879, -0.001997210481341714, -0.020879920823453163, 0.027827060484557534, 0.075022209422794, -0.03338774073266107, 0.09650338763233504, -0.012646667190648532, 0.05672432539897366, -0.06976456800413915, 0.07809127735013255, -0.02076304113475649, 0.008947867051290262, 0.07007015177858854, 0.0352789853427208, 0.017040744984326093, 0.02808922170609258, 0.09575583007605332, 0.03571100712191359, -0.045024968577017925, 0.009844745044339008, 0.040579685111863606, 0.1087970012959228, 0.09638179064443265, 0.044760235658689286, -0.026780263092311067, 0.027426864895175547, 0.007000210975858362, 0.028744658447719642, 0.007856120134871249, 0.10875324632210047, 0.005752344555595905, -0.038495305674791015, 0.010849235821747247, -0.06323010116821885, -0.019059868243890922, 0.0017447036904433206, 0.04353013117330028, -0.039412485796276195, -0.0669246798568471, -0.033335713578865646, -0.011931424639359813, 0.002868285885606801, -0.04076105995600622, -0.02680635393930158, -0.03208117941234448, 0.03534466585878286, 0.13176996094880525, 0.020597702916912236, 0.129462074544198, 0.1519790218895346, 0.1872351776903366, 0.14507649885038443, 0.1467506139973916, -0.006898815218749593, -0.026681028956387038, -0.11327842310979541, -0.09402671451813527, -0.12468886863406198, -0.04388108363709919, -0.0026220377141095573, 0.03800480788640717, -0.0049948837239584066, -0.009201969849013641, 0.021891034025263545, -0.018904608196470364, 0.030662867651238216, 0.008895328959481036, 0.017818452500142308, -0.01758755284733391, 0.009547286479797884, -0.019642659216994866, -0.022957440095073816, -0.02741810362615665, 0.03127733412316213, 0.01536398424228202, 0.15626240991775042, 0.15821770939431795, 0.19123855548635463, 0.15527619519411895, 0.05104912201055062, 0.0530388553146476, -0.03732105109779808, -0.09053875334799483, -0.07678179611662746, -0.08503103627730176, -0.09674283083126588, -0.02227526044961933, -0.05067982526051557, -0.021362190500905237, -0.012869861940697426, 0.09493402574283911, -0.015816125410192918, -0.11579168384323346, 0.13945176122568353, -0.045016272200820974, -0.04018788845800297, 0.020687235440380966, 0.041244124937737506, 0.054496931049027045, -0.023820963525221957, -0.05416473217929447, 0.05974642083930505, 0.048643649377707564, 0.031980248508658125, 0.01021302776139096, 0.11415713549668795, 0.0744586492693073, -0.011528482199123979, -0.16279080082798567, -0.07572211878137444, -0.1949377781969895, -0.10838000406944091, -0.056499495119385436, -0.11239563759682188, 0.014836842365116931, -0.054350580303863597, -0.03643195152254744, 0.12139204725672342, 0.028457360355325447, -0.004924654204154935, 0.018469002694584406, 0.05453915170812448, 0.009418502321419553, 0.059447747833707876, -0.01247773632475986, -0.01073211850124729, -0.09605705646931832, -0.10045534435312929, -0.06967794068186524, -0.025417024046306653, 0.0150910245725798, 0.08957463097769304, 0.0323632005359968, 0.06465262538144333, 0.0359654373720865, -0.17569849511691346, -0.22472629679636436, -0.41728099020905124, -0.33933874329594327, -0.2585637208495863, -0.09606419374166669, 0.012999962510741772, 0.14198053162846824, 0.14894992041911215, 0.16182654735100258, -0.04249700428390698, 0.04158609440871433, 0.02760903661093218, 0.04158915244407772, 0.01971828846756116, -0.03127481881413294, 0.0007449724450981971, -0.05198039746464806, 0.06000713566680748, -0.12852577509868315, -0.14002646486773165, -0.09386734072322411, -0.025654810805227735, 0.09756401785118364, 0.10612363949129378, 0.10953730101170246, 0.056739138027620054, -0.02976758949290334, -0.07714594930582255, -0.2757708982811762, -0.5478066062869648, -0.4339543741318169, -0.29050669983553296, -0.01569330728266735, 0.10564543607470445, 0.1238995147565392, 0.09756480326159964, 0.14453115727169055, 0.05328120561210801, 0.007571524336723128, 0.04268894068099099, 0.041305792618536674, -0.02160962486633146, -0.04257984620789514, 0.031022465165748216, 0.053376991331883804, -0.03603906695299683, -0.17318973940299473, -0.16036112549227405, 0.11939953885805583, -0.09741468642041173, -0.09602098080512388, 0.010414164185155063, 0.023749636909659515, -0.024440178950461466, -0.15146104094320278, -0.15382310758980725, -0.38478696811127183, -0.4689722504424459, -0.35321960206889397, -0.10663250528693084, 0.0731258061525286, -0.0009788103990909932, -0.0031762642818582362, -0.052221259751600545, 0.008396703875497711, 0.0540609618998547, -0.030552531147998416, 0.008633440403367252, 0.015236871958061813, 0.021510515016322923, -0.03689135273317199, 0.05485468571548666, 0.004877668045743109, -0.15021709800297406, -0.03028079084379643, -0.09431247894845052, 0.0058655565415782675, -0.08298916845273524, -0.05292476459534632, -0.07768408410894777, 0.07282542476821478, -0.040137962181018505, -0.09078749690903698, -0.3390134170313754, -0.41458176864022944, -0.3218981272605838, -0.1053537779699501, 0.09471261600494252, 0.015929813135961146, 0.07531260165325628, 0.0027458223721937985, -0.12067601293656662, -0.04167294255966398, 0.03665746524735791, 0.04844723732107557, -0.003810282792096713, -0.10156413541936657, -0.09372478560532368, -0.0679243436338269, -0.029876542075549784, -0.10504735383599471, 0.01958395745482526, -0.013643730600063362, -0.03413826368949049, 0.06505629654571174, -0.2101394564657309, -0.09916533301501948, 0.022293341771960126, -0.0526384311464109, -0.0035186986034621602, -0.20833499917942702, -0.22473653399466545, -0.408188892319864, -0.2033045863495763, -0.0640836484127386, 0.23684010397113048, -0.007397447751479452, 0.10178208445167215, 0.021988177695801917, -0.12887935065662573, -0.03510407273129481, 0.0038333718122777393, 0.01836397222106456, 0.01654301759172648, 0.04365204116645385, 0.01915945147581395, -0.006590149531056884, -0.04139220512590603, -0.02370924753533729, -0.030644130436358646, -0.15968748221732024, 0.00241479075256221, -0.01507407564835702, 0.0020739499004610615, -0.1400410176595847, -0.09632345972190356, -0.0923636291088296, -0.24081351402151044, -0.27604815183876436, -0.26783916686251563, -0.27213378528717014, -0.15619880504966763, -0.006860664450438313, 0.21474451403930994, 0.035551167256667036, 0.05954141295941385, 0.02002716002132637, 0.05410359069025565, -0.08967480977823251, -0.007194419772896123, -0.02180338556253688, -0.1074888672594434, -0.02153181085645584, 0.009731766849980315, 0.016216296697992356, -0.012050096451403385, -0.07799570144558315, -0.04941925022862034, 0.023090260956883088, -0.014240128696642547, 0.09322026125311056, -0.1084972358738975, 0.05375934149781759, 0.06392010491653219, -0.12606532006929175, -0.04907420484784298, -0.19843910603223364, 0.024120498203285018, -0.08496967416176629, -0.09502118568708984, 0.1442477766338324, 0.1409358178242277, 0.03178616285113661, 0.03702362921558799, 0.00735312106154109, -0.004099843680373194, -0.04683654433230545, 0.02566873183177979, 0.007979366983020644, -0.07658693770810177, 0.028668353712238838, 0.004198965632400258, -0.004047319681091122, 0.12414530444305012, 0.011150748120178727, -0.06465461557214744, 0.06746683955211084, 0.18048782448208214, 0.06884050465215973, -0.05899578786332113, 0.1423632370976314, 0.07210245480398621, -0.020827784829428257, 0.005704099275833097, 0.0749671770886721, 0.10743211003402829, -0.008125034989282225, -0.1156583935087242, 0.060532281217219125, 0.16486425262380888, 0.1250896023480217, -0.015140504285009054, -0.054493624141344496, 0.05992028801087099, 0.04938034968280336, -0.05564893783799826, 0.006950073227992094, 0.03083805554564157, -0.01977815899632246, 0.08833427262101126, 0.029849886989358577, 0.08366891182837624, -0.03975860789349689, 0.022761773548388955, 0.08295598927302657, 0.10225542448148445, 0.13191698898656498, 0.03705613564530062, -0.005439913974651634, 0.10333704759518206, 0.11682341120978626, 0.0889101221424887, 0.12654279019625325, 0.12565935458231106, 0.09527648980367681, 0.06027958387045681, 0.09199772312167606, 0.07848837216024923, 0.012964950378294779, 0.06977634911625161, 0.07909709618226318, 0.05281798684419679, 0.042855397116441304, 0.0020656732251325034, -0.07923817745989803, -0.026062257997168017, 0.004216210855264218, -0.05562520834033254, 0.006612625832080355, 0.04247480890331894, 0.11017093695647259, 0.06011282683469465, 0.032489729423931114, 0.03673116927072603, -0.016130041031130634, 0.018089697382449893, -0.015159015539484079, 0.06860771313231434, -0.034847503343487074, 0.0010636742533018954, 0.11528305925724092, 0.18581510530481338, 0.12142026497492449, -0.03988699371150484, 0.07583673688746086, 0.16148003455198462, 0.06266474501048762, 0.1210674344813474, 0.04496244894969159, -0.031079435813921762, -0.07494500422203995, -0.021288662694980087, -0.010714656405841442, -0.031621784204197964, -0.06700921701279004, 0.02475333953887589, -0.0004925737131261103, 0.007228686571070654, -0.11287424162385465, 0.019296214467922825, 0.07804586795071795, 0.06360554063499173, 0.0944751144489326, 0.11859561262417737, 0.12162616671219315, 0.18105637019562557, 0.07322368993765067, 0.03333600818840277, 0.01979417543479364, 0.07922528222412596, 0.2231164382970941, 0.12634377069150643, 0.009272847469616315, 0.1599413350026841, 0.03491963829162633, -0.035705609547685334, -0.14072873067864056, -0.08450886897748877, 0.03645529367907615, 0.12791064715470798, -0.06568085576432679, -0.0013074360875068355, -0.10333125077332857, -0.006806029558808014, -0.004566895164803639, 0.0656747187260733, 0.05659922347041393, 0.026607096656632447, 0.0874454691408245, -0.03975649507525097, 0.0545673475361283, 0.06007967290395896, 0.006753274311136448, 0.07691023854168748, -0.03012687314741303, -0.018260310555105373, 0.020948144054332513, -0.015177604453838422, 0.08341118782883002, 0.08088271618080747, 0.05621870024730744, 0.03199433707642688, -0.044106813647483034, 0.015904804965413938, 0.07415323541450428, 0.03175873509392367, 0.1355633135286217, 0.09637406205272754, 0.018114245447241297, -0.007101324829722108, 0.030486542659456377, -0.03660041395353855, 0.02990259012839811, 0.06431851548524997, 0.1279998112143788, -0.0067860098326957856, -0.008574464253444202, 0.03796338485868656, -0.0025955879485656695, -0.10650890895593783, -0.13310753026674008, -0.07278350236833886, 0.07249698457634896, 0.06928412142141192, 0.13158734426670696, 0.10845194256391143, 0.11226637288151597, 0.09874417380398733, 0.12841484207459725, 0.019689044897743087, -0.011674439985534121, 0.04901465150503831, 0.0859144162048141, 0.014136301341052426, 0.13118764145534204, 0.02201980141834982, 0.0521108724427361, -0.0042161297407305775, 0.02688073608992241, -0.020156098069643795, -0.03939048464909373, -0.08062309378557397, 0.03838281475944857, -0.04449393549328558, -0.1116911975177355, -0.0311284265484433, -0.0340369670074438, -0.02532362238890225, -0.11471286740344735, 0.024762506514230443, 0.06712463551520378, 0.09843358981293282, 0.14867186808328264, 0.0318238922129605, 0.043236320919874206, 0.030594367558297617, -0.11231433513056066, -0.18462732897670245, -0.10513869550924554, -0.0016849721767195512, 0.018251208053123292, -0.020577695980306773, 0.07345814466375572, -0.07184624487131243, -0.020014627553919678, 0.07665918272730543, 0.1584680290752093, -0.07877316319158699, -0.03798312634195796, -0.0017466194349241623, 0.03253575088216399, 0.0026756013895770504, -0.08277778927153157, -0.08822224660255973, -0.03573701471444574, -0.04127426365437789, -0.12511402862353546, -0.09120380278869228, -0.07116598876255552, 0.07250724052712704, 0.0733059457995536, 0.0372120100559034, -0.023939584757667727, -0.011829655120040874, -0.0054631009643663665, 0.06402477340286457, 0.058917396474577215, -0.04315956755758824, -0.06861619786271891, 0.009624368945924316, 0.06574861199802372, 0.011275079016750896, 0.040144149373671244, -0.010121935185488562, 0.04066029227028525, -0.02206219745347393, 0.04843493916009883, 0.025108846008844977, -0.06043239931941112, -0.024664326418848272, -0.09249856326967763, -0.0014895673643087657, 0.008425394600645626, -0.00107554272095068, -0.04178085515228717, -0.05611090638963025, -0.00253929466847619, -0.024839110849323207, -0.025013602759686795, -0.03284983675201527, -0.006226189632465144, 0.06929720714821731, -0.03840313047762564, -0.08733608911599686, 0.014905347052341757, 0.012038557180017551, 0.009756800003917434, -0.06024363082258168, -0.008955027461520574, -0.0891310542265942, 0.048469064648580966, -0.015107676027990973, 0.013414597873155144, 0.014851656438858878, -0.01043143973340266, -0.07102249986664765, 0.03209721095694993, 0.014038054600879805, -0.052412770409890994, -0.08429120399936789, -0.006233472493366481, 0.06371168206493472, 0.022358411122348404, -0.04782309155594625, -0.05325403468851399, -0.038756243941055174, -0.06391599678661024, -0.10594471536694816, -0.0671708457849251, -0.16484997232740492, -0.17623878860336722, -0.15075922838916506, -0.11406916274144073, -0.08299363535891682, -0.08868336361502849, -0.10993331530563227, -0.02739984642508603, 0.00908096569486001, -0.043678804117244396, 0.05119039007276809, -0.05090533324589039, 0.015510676920373874, -0.0034147409837377344, 0.02661570649256978, -0.09918948138113094, 0.0028805500970491144, 0.043478087196907766, 0.005633551000849862, 0.04613420897003978, 0.04099768859195478, 0.08114997344205156, 0.005742954564481866, -0.08533380656536033, -0.013184777341087498, 0.05685813918833761, -0.03641200288135284, -0.09351654528262403, -0.24523220549582356, -0.018434937893382044, -0.13773640466221054, -0.047481303061330464, -0.01088097398025653, 0.05629890731321106, -0.03696859570675477, -0.0802307058987768, 0.03695320644129524, 0.007262424712102542, 0.013164984104890429, 0.06329515634574327, 0.0723226927500004, 0.02317508609871495, -0.01259621723791097, 0.07770105929091507, 0.0019911677414690358, -0.08861575630339877, -0.08999629806289038, -0.014026328048553766, 0.03235047995036151, -0.09221000954031666, 0.07872432026108964, -0.006300734331970422, -0.0554236995552319, 0.13665885930970859, 0.13086608444174305, -0.02888512809676765, 0.029931747713304008, -0.10463946737018437, -0.02900528164784441, -0.05264533823182015, -0.10738779476861891, 0.042445474759372534, -0.01174883907700336, -0.04593365283289748, 0.05923757093702599, -0.0013686179084177366, -0.06887032068152736, -0.02562149955331453, -0.023895613344147842, -0.1074260681300298, 0.04320615068884639, 0.000842006659098669, -0.08168232837926348, 0.04701395816644228, -0.05533997937343492, 0.038485150393521225, -0.02884251094501906, -0.11570642362385453, 0.02079386636997061, 0.05743602321180427, -0.09699725599594244, 0.03913830307000509, 0.021857390963903038, -0.05303344569508088, 0.02985735833119655, -0.022014443860166325, -0.03755443867577563, -0.01989065039276492, 0.023591980716812067, -0.10155134444428011, -0.009972706785580827, -0.03254328900909649, -0.05067586552762933, -0.09368594837852898, 0.065332768441669, -0.011816934702888134, -0.06624737224472974, -0.058760284858689386, 0.03124737767888918, 0.0603742875017134, -0.03140860652970083, -0.03112702305354983, -0.0815689392272891, -0.020516502306065165, -0.07052248326549512, 0.03905684567183676, -0.03018898131587419, 0.07192336141494886, -0.15387321038032498, -0.0892928685692973, -0.12145187802299334, -0.07111230454421184, -0.07974761511184794, 0.025569469084520735, -0.005108825456403841, -0.07165491569678481, 0.025514628177526283, 0.009870949070931417, -0.045007159094975276, 0.0910658913707607, 0.00019766199162004944, 0.0009856886328113907, 0.04952248744230714, 0.028905084242106627, -0.03034666715916527, 0.00415441365779109, 0.008499871637725481, 0.011872224081348361, 0.09088092935000071, -0.1394727343437618, 0.0035027989561793272, -0.022692446063909327, -0.058052162030028547, 0.034706807155519215, -0.04911757356451881, 0.0010777785099340233, 0.005891035758194924, -0.056954882121727786, -0.030195352311329502, 0.045795114702808344, -0.01862673744921619, 0.04066091033097473, 0.025538707821237776, 0.05594662502882248, 0.00020266736219720977, -0.08305223707079688, -0.024959836077845743, -0.1051672780498182, 0.01735780141498035, -0.016144465593524275, 0.0013197539735881091], "bias": 0.1750304332627995}, {"weights": [-0.03557488126193058, -0.018033167961665805, -0.005992148154662023, 0.007291075829690485, 0.02580823792604715, 6.092507446784505e-05, 0.0011451984681596157, 0.10745454777720907, 0.07504537327428994, -0.043842375296128944, -0.020729074689004603, -0.12497031556306981, 0.03659916243077866, -0.08094399927516568, -0.07020407652068769, 0.028609679439910256, -0.02164659857816197, -0.009779860264648119, -0.030895717454152503, 0.0685304105429404, -0.021301788436204606, 0.009138534458226995, 0.017564624804568427, 0.038372379669072, -0.01891329629068703, 0.06565167564579319, -0.013647642799735658, 0.022492629512320225, -0.023656279165192556, 0.03111390135269455, 0.05612506671821267, -0.013141556771416459, 0.09523767286207052, 0.05067014299006468, 0.052171909920814614, -0.04389961636691267, 0.0045241640168846055, -0.022701845174752676, -0.047559871125390875, 0.06915671076443825, 0.04169064203082849, -0.025558326996832924, -0.013402168770084823, 0.06542371469770218, -0.0003657854070770063, 0.033460080868965396, 0.0005703063377264045, 0.044282651703519686, 0.009539793650859768, 0.08351870921329987, 0.06324908845390405, -0.0564146907930504, 0.06722822281617763, -0.028665119440332357, 0.03259434548596501, 0.01450247705748601, 0.030079270740798098, 0.040026728480154025, -0.03288767192274271, 0.05323313158987929, -0.027333661395714817, -0.003147462355221325, -0.0001576762471004312, 0.02012741208849373, 0.0026505711824352913, 0.012516713762291479, 0.09269138673197205, -0.0707381270874026, -0.07839321933036704, 0.10867779973172353, -0.005055991017467248, 0.032331039856514865, 0.01294108954993662, 0.10263280540263903, 0.05976382818104622, -0.027775008555666628, 0.041726246055188584, 0.08509366609485573, 0.011312560970501043, -0.049747465792299175, -0.04835990606604733, 0.0284871962975759, 0.010615452591551514, -0.03257152278546643, 0.06592598607007931, 0.010160945361989778, 0.07774250195381764, 0.020659784012667142, 0.03919284401610483, -0.04203443546539845, -0.014499382131002396, -0.04226741952875969, -0.019472713121234376, -0.016153793553322863, -0.04771438728750856, -0.06807094184272647, 0.001090709068435874, 0.21974886851126868, 0.10709088965947502, 0.12110819665571468, 0.04783220069048314, -0.019956789802459553, 0.00760738987426568, 0.10131558138819508, 0.07645813308738035, 6.174617768538575e-05, 0.06038218297497857, -0.052241702377838414, 0.05503699295652062, 0.05536106107746107, 0.013096561254400228, 0.010787440475115935, -0.0065161205418010435, 0.016109355126501343, 0.028889492734592754, -0.07548042748821979, 0.03020791538454203, -0.09101980658612571, 0.007763068212757421, -0.09396096167813604, -0.08006648245270827, -0.11321945583455716, -0.0938883981244953, -0.08393396475441317, -0.0025411816275826057, -0.05754641624651045, -0.04053815541729935, -0.07317258927243972, 0.001852471555738649, 0.11148157070937481, 0.03175803450193461, 0.03786234989545211, 0.15187717589697822, 0.0936585747195227, 0.11107505371118333, -0.030625208104918405, 0.03799944743395121, 0.02134843748227008, -0.010270990547735736, -0.022596296711776726, 0.12151576861482188, -0.003305718590621741, 0.04909100115950521, -0.0987188491458515, -0.07888024501481172, -0.139726501218306, -0.09676011223429429, -0.3075727340287928, -0.17624687151882254, -0.07865124174811015, -0.02964142708749321, 0.13670316126280832, 0.11972349178761167, 0.10050808747632922, 0.08847498311834735, -0.09747993225793573, -0.028267247847761363, 0.05855585786949418, 0.2358087080362611, 0.029491254047798027, 0.013372377015652949, 0.2183946058085801, 0.25077628957990256, 0.08886686524643313, 0.08338648084521352, 0.13224554481537434, -0.04734634749701267, 0.0015066833838440173, -0.044588012932011326, -0.08426430319155882, -0.0470569231735587, 0.02805101467472347, -0.04605895728923825, -0.041812716696324345, -0.12651601671542131, -0.12544329837011442, -0.17657306974022904, -0.11641163994414155, -0.007806532226331178, 0.1863245415398339, 0.11331844770072617, 0.053766258051920444, 0.07312339444978314, -0.09142888529405886, -0.05380678155555164, 0.019948091511897425, 0.22617476105389997, 0.34828110219880587, 0.0676594823491329, 0.2735873308327264, 0.16060538866639204, 0.13051155818966043, 0.13154871266760643, 0.03850897706935199, 0.020586819636868564, 0.03699048042668472, -0.019130475951838265, 0.005278613328347637, 0.0462211060685466, 0.005831226050154186, -0.12293002889469794, -0.14503523478688934, -0.18143443460207706, -0.1585824820123796, 0.01625959596722994, -0.01971575572945081, 0.11805839339065868, 0.19295955412432503, 0.1555376916667475, 0.04524833594644338, 0.1592981422265728, 0.23858898910116358, 0.3356765933720912, 0.3937497546829734, 0.43414916829792505, 0.2900257654644383, 0.22170842954226946, 0.11313085016806287, 0.13580373023666711, 0.0769594095732558, -0.02050661543179231, 0.009536774156889121, 0.04390849647439892, 0.00023951719605163073, -0.009598117614411563, 0.05606312063714427, -0.03493207850044294, 0.08389345698082852, -0.06639575727218729, -0.14134796544306497, -0.17255384436116133, -0.20639408137714252, -0.09823185504680364, 0.06838705559634334, 0.11342184587688543, 0.21569581247651298, 0.11768695924308747, -0.062421151377116575, -0.0630982890901661, 0.015040850743005197, 0.08096867655796189, 0.2489819407867185, 0.21000743412139175, 0.05287176294155432, -0.00027139845771009016, -0.14397974743389438, -0.044179426824814516, -0.009328306784375505, -0.06461680473867973, -0.04452823153731515, 0.02439310976340489, 0.04599789769118374, -0.00410275058771135, 0.09844220586788242, 0.12960535461793388, 0.02407253862421328, -0.010230189941110015, -0.07689969745396487, -0.06473697160719623, -0.1542321134687326, -0.11341263224776825, -0.034792588037259285, 0.07150699782827692, 0.15482350679552193, 0.13359128440631376, -0.08145543627614335, -0.4710808874757427, -0.5437275475552121, -0.5692394121055017, -0.5098854258105235, -0.34194935488046163, -0.38573634990156636, -0.35247911027142836, -0.3724717099586167, -0.278635573570153, -0.16458225075897942, 0.010983827855514803, 0.012106398692309514, 0.05719450578364885, -0.006471910698607977, 0.007175882865499071, 0.008049643182138888, -0.06943716929913527, 0.006238866068542636, -0.1380063267561148, -0.11874550974719539, -0.04889308128610053, -0.004552975810160551, -0.05995790924990942, 0.036475120765152, 0.0642557016311274, 0.09957688981606744, 0.08727225394705379, -0.31782292128373624, -0.48878593655684643, -0.5376487825679074, -0.5294160681308182, -0.6393766368812391, -0.4403848701189526, -0.3997690275575462, -0.4113440353756185, -0.28948181958043634, -0.3310415237194573, -0.11815550428342746, -0.04363705119166603, -0.01994665532027379, 0.026576973751830418, -0.039699540451698406, 0.05116554528993059, 0.09402933011185424, -0.06889478570624898, 0.007674816630605198, -0.05503857979707828, -0.016553649164781973, -0.03790747347558811, 0.012972990193224542, -0.10475657062726543, -0.03359467037334859, 0.140673722845881, 0.12559851702501057, -0.04285822503631044, -0.29151399220311947, -0.29431658488691376, -0.2058037927315815, -0.22275244985304396, -0.23446861212136644, -0.2476048500722928, -0.3695805031805254, -0.37033923688047937, -0.3215312890091436, -0.2663462410210551, -0.11862843375238141, -0.016143566195304535, -0.06317031285798519, -0.08369979717715066, -0.04904314759789863, 0.005657599837360507, 0.054142224643378596, -0.050731777689715485, 0.005612698863267267, 0.011919826278290916, 0.03974191113229288, -0.053312094466885965, -0.0662785214151094, -0.1461085805725036, 0.004706013479598881, 0.21680474633721408, 0.16354953465336167, -0.017742942892549025, -0.10406691435639023, -0.3138986550458667, -0.27108141837625577, -0.2524746598654821, -0.2610294220830414, -0.1143785639578132, -0.22676167052881632, -0.3335321238493806, -0.3747011981360944, -0.2387962639428522, -0.05143660705334165, -0.02637191112482149, -0.05573537096266253, -0.11079203942328728, 0.009904510590710717, 0.012740467827211381, -0.04277795372995828, 0.08502356679085664, 0.023339794925642504, 0.02736570130694109, 0.1446310831731244, 0.1234847185988823, -0.010468511303838574, -0.021723804285171077, 0.14202545987028273, 0.20860560985975787, 0.054133232441564684, -0.044230593926826205, -0.15194276795093506, -0.2534255577207114, -0.16750463000636776, -0.27807773772561983, -0.3102980127349466, -0.02615547747424117, -0.041676536233971745, -0.15227091565290435, -0.40397667037282126, -0.18912432939242627, -0.05874777191054896, 0.002830743743045633, 0.009303504759965726, -0.021935579874934087, -0.02924206200752755, -0.09328632868631681, -0.07463702561091404, 0.03227994654051054, -0.009293792076596589, 0.11728903653596932, 0.06988773221224616, 0.04073429209514873, 0.017438657807144844, 0.17240231761207675, 0.2558099950834672, 0.10230896197224573, 0.0022458166834253054, -0.07968032925449084, -0.1943489411932804, -0.3377822124324386, -0.27471892803775044, -0.1191927052096233, -0.11172874502628771, 0.07102629356903639, 0.03456378666640911, -0.15396721059031354, -0.09154563433592923, -0.04810497713825119, -0.05672465798903445, -0.049889322626926136, 0.09271811709112437, 0.007526559524164392, 0.02618356803625213, -0.03128046392561871, 0.029227570213356327, 0.05250381554265017, 0.0038547332686680344, 0.027840097764712395, 0.14213721385011516, -0.012154201125937441, 0.07174247549370748, 0.20530147609050942, 0.21709235010403824, 0.1044470981888242, -0.009532013173589492, -0.0730422298905576, -0.2249579623281093, -0.3575912941947203, -0.19574571621309833, -0.07646196028611392, 0.12267732064573943, 0.07283989192488818, 0.021343873234780302, -0.01427601738211014, 0.040393166322677775, -0.09231626583543755, -0.0740393884339795, -0.08652785946243223, -0.04894252405887706, -0.00211283070784576, 0.021963360807212735, -0.03942861907604071, -0.0007063021080525013, -0.04262554229981601, -0.026871331688049678, -0.007272874789878291, -0.05793250961938835, -0.1403631128303311, -0.042922105490784415, 0.009106155290754564, 0.2133312373973993, 0.06504993958669676, -0.0436775547594323, -0.10260022789044133, -0.2460648904260591, -0.23652367665874705, -0.17290638919605913, 0.010723228698167551, 0.13715778511002946, -0.03816420171464725, -0.03765702631028709, -0.06828708346919292, 0.13763774203995857, 0.037557451027071566, 0.03436951606234685, 0.1065921831415509, -0.020868638468360064, -0.03364864373183742, -0.05925066263929192, 0.034728877689863796, 0.07963041763659472, -0.022349515002817604, 0.0955086986174047, 0.06914408697223047, -0.08037700484073607, 0.0037413462640970567, 0.118330879651002, 0.03179489049457111, 0.0055091594342162814, 0.04603297027855801, -0.0793501508090342, 0.048373027176112436, -0.20360099524536301, -0.16198746257501986, -0.34310021137735813, -0.2640037857199807, -0.0018444073219956475, 0.04059530916313575, 0.15494048192202695, 0.18992949384241578, 0.0894001840686031, 0.08552225977801299, 0.029168348593929784, 0.08434277311642377, -0.044581570752946865, 0.02063339912146648, 0.0701643901609672, -0.09889909696614077, -0.06965763739405118, -0.0021704492654806597, -0.045597182324195136, -0.022182713287501703, 0.0876954382435182, -0.015832937327847733, 0.048125101603419346, -0.08689589348861723, -0.13297947833413948, -0.11919222937287041, 0.009530337119852192, -0.11031609150165847, -0.13017180575198534, -0.24007259182119114, -0.19823789737450953, -0.06566527587919663, -0.05922312228031124, 0.059542444749357, 0.08955710543545066, 0.18993683523124005, 0.2257493994274565, 0.06442881862461917, -0.04079859363748109, -0.07961838788265789, 0.013087309462771361, 0.0997145916897533, -0.010559455871963006, 0.04206445893294826, -0.004795583658278473, -0.040769768325308105, 0.044811355579624526, 0.03850717368784818, -0.0853349780362936, -0.0390456632042141, -0.04954054251060554, -0.17898369904639921, -0.23879299346586663, -0.03262397741755592, -0.041210172936587304, -0.008249612315924679, -0.23724167804927607, -0.28878275304014955, -0.057277607323066464, 0.0513144164225524, 0.07446713613874484, -0.11525054369147131, -0.03628744224270087, 0.10734395718076485, 0.08986197353683645, 0.12337262860188075, 0.039925775851571754, -0.030410517243783675, 0.0032968667150314285, -0.022825699430693097, 0.07241262534723959, -0.07317455132339602, 0.033817315139985635, -0.052331974845718755, 0.09485084785287469, 0.06442062418073417, -0.05725504707350642, -0.15726025371822475, -0.09817618383868679, -0.10104427524345491, 0.01109406952134336, 0.010587343902796377, -0.02302421778133059, 0.025176527681821163, -0.041812131289615584, -0.09038098080804902, 0.002575128360020585, 0.07735277897590748, 0.07343664516632563, -0.08642111149964916, 0.033851890738078136, 0.15133408464305148, 0.10543617588942984, 0.04610815332980654, -0.03905624382982333, -0.0511976967255475, -0.07499976224126531, 0.005885366148629244, -0.015532013618604122, -0.026000781779413177, 0.0209771058576004, -0.00227453972566156, -0.030589187839679656, -0.005943394105691481, -0.08855994429173274, -0.1238540711590368, -0.0661935278200275, 0.010058078585377075, -0.1213735429071018, 0.07328301557937206, 0.22732386419874942, 0.13453890573253005, 0.14803565833069657, 0.07601978977246529, 0.26924966427172514, 0.13766929170666023, 0.20225872887354987, 0.0825646902259792, 0.07092700661119465, 0.14005352485120562, 0.14752048151622393, 0.04395568318238213, -0.026751867393016982, -0.002587179757005536, -0.06448822417355818, 0.08454512453497197, -0.0551418984047622, 0.05599594642110134, -0.0022521395002538793, 0.02246882956567933, -0.06062598815884527, 0.057492942987710335, -0.025303285283199445, -0.16147564780520984, -0.2998975279031247, -0.1637898825642529, -0.10506027830069044, 0.06571692129437398, 0.1835152772133294, 0.035362999655747226, 0.06235970323816722, 0.22489503943421527, 0.33152960610904214, 0.22832401720504683, 0.19878703145578458, -0.059970498947924084, 0.060873515139138044, 0.029390778008371084, -0.007800995877160022, -0.08370936495081462, 0.13037864931806942, -0.006909508555949175, 0.005630952155570031, 0.000413661348702675, -0.05776139620397787, 0.01781106778047955, -0.010791539470895237, -0.022280913726230506, -0.027589903370637648, 0.008333322724713104, -0.013908806312127889, -0.12729475017640215, -0.12174915933609576, -0.1642362410321366, -0.10086328796205588, -0.06364933975645468, -0.04973951772154281, -0.019072450129788435, -0.024647341944446132, 0.17739546595055714, 0.15252278526151375, 0.08985706528038334, 0.043225739725679634, -0.02537728564019996, -0.009382348922374101, 0.06406985397562925, 0.04859544404319495, -0.004922743175425185, -0.03935079384500302, -0.0017770201094438895, 0.06360802073507078, -0.010412488245296666, 0.06531162416126784, -0.05364330177860753, 0.04202921421686842, -0.019673492767031925, 0.011538124728679983, -0.051177557304832116, -0.0313355730969175, -0.10104285942421672, -0.0989204406293327, -0.12943619469573117, -0.2067523305236091, -0.16733122360329503, -0.09941561591699744, 0.1296410147197135, 0.07976052599090784, 0.17122219341927855, 0.18047441406479584, 0.0764199308418438, 0.03498922565438338, 0.04022493999504512, 0.0014867921406874463, 0.02809669104452174, 0.04727928073709969, 0.031769746028015765, 0.06470824146834571, -0.08159104991792093, 0.011842259715762386, 0.06697716596296531, 0.008039788260090172, 0.06073529731106794, -0.008353412881555484, 0.028408939300206378, -0.04475677123025892, 0.03898224487699423, -0.1468995264434071, 0.058718257065362336, -0.10765364505129972, -0.018513810000094284, -0.049199248457287084, -0.11722414451791713, -0.09426502774590084, 0.026570146869378128, 0.0016918826530714069, 0.18080853835233446, 0.20574917240143517, 0.08344666364560613, -0.016809616216624426, 0.11676822129466267, 0.09251828838929607, -0.02477411303586457, -0.017138808031658626, -0.0964005148389935, -0.015018115326138795, 0.03033091695495914, -0.029377714254253864, 0.08752697050530102, 0.024965161005832785, 0.05013492538207177, -0.017921639599088227, 0.05517454001324728, -0.05550924438388882, 0.019112996069385556, 0.022269317838971507, -0.04364760799358531, 0.07412701763590052, 0.005273782653350269, -0.10271685278757674, 0.07387041926260826, -0.025700482621785932, 0.014594588373286106, 0.0326403851811561, 0.03631434544546385, 0.0421801541687756, 0.08707340875873448, 0.060206971016534716, -0.0022003923827214585, 0.11343259677447712, 0.13321925112419114, -0.01677145607107929, -0.05911499074495396, 0.016814586811980267, 0.01658677875443418, -0.01223339466096911, 0.017631576576048386, 0.016491541689458912, -0.0840151159974469, -0.028059713537017878, -0.05865315631739511, -0.007898405211508629, 0.00948774073807609, -0.06402064947983481, 0.015288264117478604, 0.0008039839786785362, 0.06647612291155004, 0.0375840727066878, -0.0022513841007968946, -0.04118154652233848, -0.037737819027719804, 0.027257052969278335, 0.07288128008883593, -0.04198407669660218, -0.09685626051302923, -0.025451460001510287, -0.08332625733298217, -0.0157656353268369, 0.009037009100943703, 0.04521075955776724, -0.003728520231566455, 0.02567820044395527, -0.10711273452369363, -0.13981781829467796, -0.0014975970759219936, -0.08167385743989622], "bias": 0.3324895586990271}, {"weights": [0.046919442991537615, -0.019828616515929525, 0.05893175068740985, -0.010159301396221638, 0.007030475565646493, -0.057115497011568116, -0.05418353254236841, 0.027107098033331087, -0.05578101449954425, -0.06765837772059252, 0.024746801841837064, 0.03474903304716887, -0.035993419348386735, -0.07817099845625981, 0.058282328298082886, -0.04100260628724286, 0.0006825919954633688, -0.05734702476396385, -0.059549237949444854, -0.013452101436332211, -0.09702330301743588, -0.01830279740749887, 0.023207699731475545, 0.01737012006326233, 0.07594257611013468, 0.044108777033455546, -0.019177779930625, 0.10736805756964994, -0.0057735693768774495, 0.08190903952931741, -0.11477247635976688, -0.06743798483020126, -0.03590284216917716, -0.07145590729892748, 0.09078069504417252, 0.0031626051737405772, -0.01076351501349281, 0.07074883202122595, -0.005983444618246954, -0.015984294878035005, 0.037279169774807566, -0.030920840326534492, -0.07864529120050842, -0.006237994400367239, 0.025277780087440072, -0.043705688752823185, -0.03436976666614675, -0.11774368806252183, -0.03696387621403616, 0.08069459194795367, 0.0068542543610972465, -0.12361817164699852, 0.046346249252262516, -0.031978478414434915, 0.10308045000681007, 0.05702718597350617, -0.010215664164909878, 0.09628371261333041, -0.01917246641905295, 0.009333488601054476, -0.06478129508382828, -0.05959847422431103, -0.04906538401139825, -0.03515691461226065, -0.05874146352109662, 0.006802029129238956, 0.08076000092139726, -0.039816398127529885, 0.050629759136822584, 0.00418611254176925, -0.036763902734565215, 0.07163416575678595, 0.09777847780956739, 0.0019144163052264838, 0.12208878138541082, -0.049312928898762536, 0.03432460047906591, 0.026314574084517164, -0.057188418644118416, 0.014444218872584656, -0.06784301227799878, -0.05073106087840869, -0.029915752395518955, -0.016875704706358602, 0.00757085910983297, 0.061966312060215946, -0.09895158381049936, 0.005803282545100288, 0.04397820292384374, -0.008217808290902242, -0.06221975878330453, 0.0056912014019210875, 0.06427444219085895, -0.025523129844107793, -0.05944651019205214, 0.03365133779325586, -0.03420652484916131, 0.122332525057712, 0.0269321638290308, 0.1560060358392409, 0.11314794354603541, 0.06224066103347436, 0.08876871510870364, 0.17737148011458245, 0.03711876739561371, -0.06960842835998984, -0.08866776957760776, -0.089135688543667, 0.05575534483006147, -0.030595073974203288, -0.1010547531446229, -0.01693359789916706, -0.07091590012307471, 0.04514165606998839, 0.026430695945543658, 0.033989252830291264, -0.008226752328124701, 0.028200257217860646, 0.05338815581286414, 0.06372842000197414, 0.12454435140844415, 0.05046762359758081, 0.10159388212206986, 0.2848985835976835, 0.2116652899017932, 0.19528741691945944, 0.2577626151143318, 0.25213982915392574, 0.17138059390019023, 0.01049184561373484, 0.11461842074714051, 0.12315186456282325, 0.0848447490665398, 0.13079503468114073, 0.08511269249605385, 0.07886247634182351, 0.05550186238136525, 0.08295084294976575, -0.017823453479815066, -0.016489105939310588, 0.027839315239799836, 0.034229943353994256, 0.0175066411492591, 0.03114824924154828, 0.021723414081565966, 0.11958768709737612, -0.0512650594453612, 0.07792464809649749, -0.03698686208589232, -0.06602065605593321, 0.15919066871226012, 0.14413128277891002, 0.08063689511895346, 0.029517481761212185, -0.048155152633837545, 0.15416400126505303, 0.057856251399351376, 0.1818524189928127, 0.15757062684267092, 0.23670614802673143, 0.2767112969451711, 0.11901416602810877, 0.040470509924061475, 0.04153378517631432, 0.10545070604381387, 0.04232743249547985, -0.018116334097428743, 0.08188452707294189, -0.012669334600346877, -0.028834894190143994, -0.03968545342674031, 0.04454892278020216, 0.06394943524783589, 0.012065374728301869, 0.09840510930516169, 0.0053828442320757695, 0.10940259758630334, 0.012232589277172459, 0.17876413880065828, 0.11715371698730855, 0.1435500477594349, 0.04857647533266913, 0.04815517203015769, 0.12040577708098675, 0.05667862251586092, 0.02377562396698291, 0.0852481134790756, 0.06220223055665823, 0.1947819298837479, -0.06696695314795781, -0.023028933965668755, 0.016065398786866646, 0.10738177047572388, 0.0479716342578571, -0.0019332733246343033, 0.031771113832443104, 0.05590506072005867, -0.02402283014314084, -0.021236012575097662, -0.03950976759841765, 0.007604165557369172, 0.03138938804323839, -0.0006566172029828078, 0.022832476450159473, 0.09805981232108825, 0.08602925713229433, 0.05212099426131556, -0.05583039215580022, 0.04723674175879572, 0.03916363893496814, 0.05726702176366698, 0.09125848546150653, 0.021465735467228943, 0.0679529609501158, -0.041467370978565586, -0.0775665903680418, 0.17104504394603917, -0.057318596172335805, -0.10221945268900724, 0.014140092030550224, 0.042202948035729174, -0.0557627518663331, -0.08923822661469641, -0.04682986266327319, 0.038471114004834044, 0.05111024930440572, 0.08214444833684846, 0.009899150137207985, -0.02774864972759716, -0.010214467733178056, 0.06798205603479068, -0.06616669350085405, -0.04049105108411644, -0.014970217753928991, 0.12320568400293484, -0.020885350715247265, 0.14123461998938794, -0.022477464673052776, -0.18600977536932703, -0.10022256208489469, -0.15670252008115454, -0.041959305737772075, -0.03393409869854001, 0.11082735455907917, 0.022046550285254787, -0.03715289092227714, 0.08810285484501511, -0.029423544798151787, 0.03445653800427372, 0.07527100336706176, 0.049366826079228154, -0.04353000221095673, -0.02201728298368268, 0.018001146686007375, 0.021200661426752095, -0.03150648070415661, 0.03640218368830332, -0.00917331648753702, -0.00573804996242367, -0.02696872317426012, 0.002009918777853453, -0.018100714637264915, -0.004969471841253041, 0.04585359843936024, -0.03815590496755534, -0.024032123443989414, -0.02757050755924235, -0.00876022692853752, -0.0644175436902868, -0.0038718816453297837, -0.048004130335531595, -0.04220661905257091, -0.19485834304275929, -0.11880196471089427, -0.07614559812580098, -0.06744738036042175, -0.008619132856522773, -0.012200296896190677, 0.004491373378692527, -0.059918264037142635, -0.05455548697968934, -0.024973453058349675, 0.005545872509031933, 0.03900769147502866, -0.04548766165852806, -0.15423549040041565, -0.21081806646851606, -0.07798083989005994, -0.11013365350786439, -0.08377282361114494, 0.05922133866395447, 0.1326765453390604, 0.14223912500072197, 0.2376237533111209, 0.36603483709445617, 0.1572943638538498, 0.30148080225317037, 0.0239598738906399, -0.04604736417552828, 0.008141205491507698, -0.020477558273450568, -0.07435997806589854, -0.028055292221849833, -0.12651648753843564, -0.0014844657343730248, -0.05571901711013885, -0.10871894799585204, 0.09900811346847596, -0.06062314842394285, -0.009192967683265085, 0.02055262751336842, 0.027774198851166977, 0.0003236502930743333, -0.0789299347591702, -0.18746742441183528, -0.1364211228897268, -0.15296571728247382, -0.11724696285065853, -0.003736489315976802, 0.24635816345885597, 0.3495293150528755, 0.14653799555751598, 0.39951744650252097, 0.2667038743462324, 0.24582602130069178, 0.26950155958626026, 0.21596836024796828, -0.09354135525458468, -0.10472799807091282, -0.09736923092813551, -0.1310000467941643, -0.0967688847076917, -0.017619774253643628, 0.024747848177017515, -0.023689147729999784, 0.0170306060898109, -0.007555006374443388, -0.05427168056742509, -0.016669617809852422, 0.015131299982968699, -0.030713973554431367, -0.17218486016574483, -0.18370841000687008, -0.14318078823378566, -0.1983103691480014, -0.20242004362435795, -0.09240137878864177, 0.16279483212867388, 0.2862084979937935, 0.3154968761307246, 0.3379144757464867, 0.23560244504619013, 0.025628159349082358, -0.010212687697442834, -0.1363764042038229, -0.061489011229930564, -0.08086653201641825, -0.1487327533911199, -0.09751544011932915, -0.13429658046162488, -0.14024655355890184, 0.0013090703474933128, 0.026218166128093832, -0.008589927866502386, 0.002866863353673491, 0.010204148856288555, 0.04066982688985838, 0.05533655814493511, -0.01653097813985147, -0.08297514162972174, -0.21984280066661116, -0.22136335640214455, -0.2694431550588913, -0.17178240874190862, -0.3968789199399574, -0.23986873953936994, -0.12620010124053685, 0.14661293763694974, 0.24849957241920043, 0.12231399466593879, 0.062017181533892844, -0.12376574542029997, -0.2481756714277097, -0.052474112585871036, -0.027479898608496044, -0.10525465412356327, -0.14245318958004008, 0.012349158965323412, -0.014354388855885414, 0.06535897864383279, -0.07883294413490187, 0.006772757220915299, -0.0866118674292765, 0.01052270745516431, -0.018958276181027203, 0.025925234941804744, -0.14408621821403148, -0.2525862084938868, -0.31253611295825734, -0.2954632921062982, -0.3563660079069415, -0.42164944923782743, -0.5433690023164954, -0.2943292393348371, -0.27027943339736865, -0.006288988058523736, 0.23757694911840976, 0.06788461344076975, 0.002008067903039347, -0.0611659264179485, -0.18463328033010593, -0.015112158185402472, -0.04988700978299742, -0.03620298805875597, -0.17977930101758957, -0.04188409576118419, -0.016090160435039583, 0.005816691252252362, -0.01792183512018086, 0.004959166807048789, 0.047005177844675027, 0.05129551321986233, -0.0125332957520457, 0.03774014211839056, -0.03322254369843599, -0.3338257502552496, -0.23605680765950798, -0.27801313816012535, -0.3313760846778158, -0.30468565167248757, -0.3564155801594174, -0.397510479185651, -0.39791348721119757, -0.06745232160525101, 0.18540690752693217, -0.009601390874578938, -0.1506368913059915, -0.11958475601624113, -0.08740046020003608, -0.09785907433192109, -0.0437779179679053, -0.005183035483632238, -0.03452100861164338, -0.01970339743364867, -0.017954568838957692, -0.06820168990016866, 0.029975062031046554, -0.0803547574109263, 0.10267437925231888, -0.051092879774177244, 0.00605120052182254, 0.07169815188881769, -0.1842479479916507, -0.17762613433956007, -0.1470096991241179, -0.09819750172223089, -0.20637776976998556, -0.31381680925801075, -0.29610649779229653, -0.24126369538048975, -0.33540166181526854, -0.17684905863577194, -0.049254235567344484, -0.10874890017159682, -0.15744777592651035, -0.11855878856157294, -0.08305268189946181, -0.009353199710082796, -0.08065221805400336, -0.04854861395296576, -0.059048136752645676, 0.050799789779876134, 0.008846759041116403, 0.0345649446522466, -0.01261856872589156, 0.009932365047377795, 0.07284515505009004, -0.00017926704667898136, 0.01861928267791825, 0.00040133975411279306, 0.014420243596187762, 0.020219496070910725, -0.007354721988041259, -0.08101104610857243, 0.0489236322122717, -0.15846394789550364, -0.20053848663750415, -0.16497731065900878, -0.25205233507450114, -0.273554922560519, -0.11549046202450737, -0.08501603669913356, -0.034644818493535075, 0.03145818706566066, -0.11286335692916288, 0.015524732706402438, -0.011976256717922039, -0.013097394734024922, -0.02901040141511669, -0.034354570782324394, -0.08962557502591251, -0.0600776290770476, -0.012369894878042699, -0.025165919913417552, -0.0010041158738741977, 0.013834216585602506, 0.012620523785443342, -0.026434794599159643, 0.07470887411925424, 0.11125361756970722, 0.08042954907041316, -0.00128101022238416, 0.08068137802746622, 0.0028795112305962057, 0.03728491238265322, -0.0607395310578628, -0.14993934233751705, -0.20057111790314588, 0.09521759078767293, 0.018920076123258796, 0.0505985488291565, -0.054301098956306235, -0.14749116449314878, 0.06373079209707902, 0.017298889299775015, 0.06590603436692447, 0.002877247457502083, -0.0540348912426036, 0.0742991641391131, 0.04125039329465754, 0.03069250619053434, -0.016518849698944408, -0.02468211951385206, 0.06821883740328209, 0.03398190368212016, 0.09191901185541866, 0.1476377740584156, 0.16950027167831946, 0.024298101604563103, 0.19653096027448771, 0.14832814205381606, 0.15558479415841373, 0.19723538656277695, -0.04893097972285955, -0.06739353677264849, -0.18513153664698204, -0.08006786445617467, 0.04128931293534859, -0.024733138051153215, -0.1032305116403475, -0.16971010718500334, 0.08639962590772791, 0.07558175177258147, 0.04380364073018769, -0.025097883165319555, 0.03768746866875916, 0.02842106826034727, 0.07123586718750992, 0.031480673131206165, 0.05753975040915254, -0.0010657039587310057, 0.0368998078106203, -0.10739993441069967, 0.00502181045546571, 0.06317678780278572, 0.08294098744518547, 0.17234061234699197, 0.29560754857067656, 0.10106293467057323, 0.006263607909250617, 0.13166697732906446, 0.04284667044327424, -0.1478313042968468, -0.15496153177036603, -0.08568532478487606, -0.03156239308944595, 0.12023104795806178, -0.05443829996564539, 0.07512906086346392, 0.0708814558212412, 0.11578785106163855, -0.09456819542524535, -0.025072584903881697, 0.03174490753020309, -0.02819704349136622, 0.012647550574632682, 0.09606763061647669, 0.012855638843728113, 0.008443098727136911, 0.05529741583797692, -0.06151055978305771, -0.05629767591767087, 0.02802199444336562, 0.09370308469106647, 0.20877439551159854, 0.13371033884703581, 0.1755537147753087, 0.0929661818173299, 0.043749751011181046, 0.1470056858520817, 0.04232567456347202, 0.006173636982143688, -0.09574530019651549, 0.05718826046723674, 0.08910222083959612, 0.17608718454435154, 0.15545519538229843, 0.07902376836633981, 0.08073361870306016, -0.14604876967389113, -0.024940642220587967, -0.07112863609900331, -0.08590222327159427, 0.08805978720984588, 0.029587719132004878, -0.08796078019509185, -0.046521015242561775, 0.04133236934425802, -0.08920641679367122, 0.07782817493418728, 0.03858136754633325, -0.03483498739263973, 0.04292315931499795, 0.02591950229261156, -0.052696751736627724, -0.120813984308712, -0.0862164358565126, 0.039337840948912545, -0.03420768804582216, -0.10734023921406895, -0.14444955221434377, 0.029556508478858972, -0.0234705544789923, 0.1348453960457005, 0.03341120689405815, 0.11131964811641373, -0.0032530814477808134, -0.08650807389702089, -0.10431356236671988, -0.11582959131080754, -0.0932907259315781, -0.025084347024817072, -0.013229665438275508, -0.07366599168243576, 0.003712960943062194, 0.012730749127844219, -0.0014692077984162788, 0.044023935673055965, 0.12840052462224805, 0.024026621440090743, -0.09605439472121347, -0.12150648390726733, -0.11037038221196646, -0.1142506964792443, 0.0725179563916904, -0.00992791297737154, 0.033861031637612976, 