{"meta": [784, 1, 64, 10], "activation_function": "sigmoid", "input_layer": 784, "hidden_layers": [[{"weights": [-0.005092870447206743, -0.012529695362848696, 0.021612145980425372, -0.002222418884718691, 0.0162989954806812, 0.0016971272021676295, 0.007652948006389951, -0.03472304588334993, 0.030471404555833956, 0.022590991785285362, 0.011926128207015406, 0.0116753607072198, -0.021995916460875405, -0.0278066410104439, -0.0191541007570156, 0.008361743389462118, -0.0068628577150395415, 0.009391752458305272, 0.01217513559464705, 0.009637715764016425, 0.020212167626025408, -0.007071342125618756, -0.013517357918130381, -0.012201715772822815, -0.030948540319251212, -0.027659870862341396, -0.015082560496106859, -0.003554177479672911, 0.0005944735776567817, 0.029714940648106133, -0.011552364429811193, -0.007956331465392121, -0.011729020936411174, 0.023858283451034048, -0.005900192205267876, 0.0023707334804469885, 0.010680707408771957, 0.028364663100320493, 0.016895439392826513, -0.02147573182604551, 0.029966228240802265, -0.012783771006869966, -0.02846327394591976, -0.0015200175217058415, 0.033585259881519086, 0.028770663239815007, 0.01466446267824187, -0.027215099501151252, 0.01763307841381991, 0.009731617408909496, 0.015388878746999075, -0.017767908083130793, -0.02949675827483568, -0.00348807500367114, 0.026689829804694747, 0.03265948528988229, -0.003682637257149339, -0.014508815071234107, -0.02001313668285165, -0.017492375967930667, -0.014634741023058782, -0.016056020883442993, -0.026650015469574205, -0.019125477435268535, 0.021373400617273542, 0.03129233175530594, 0.0004917244160989454, 0.021017892878814292, -0.0009370433442956605, 0.0604999077099139, -0.01048790821287157, -0.02396721523713544, 0.059176413167610305, 0.04420965462858288, 0.012255141466634615, 0.048449515324607555, 0.02943095643740311, 0.03007773933795354, -0.018197665183416437, -0.010493326494458428, -0.032181837636425806, 0.014051844858174432, 0.01743524707345441, -0.002326935492464134, -0.02619596491589831, 0.02443274270757939, -0.013040554407186418, -0.012298476979964314, 0.01447267235959449, 0.02021240238864968, 0.023636183620060928, -0.02774890063939942, 0.04539916582948247, 0.03308448010331557, 0.07660903175550735, 0.07595736967428734, 0.08167918804633126, 0.05232007058370758, 0.0740595203298914, 0.03001777878042511, 0.03644064435453271, 0.07227698925294954, 0.06060294407967518, 0.051310997146007176, 0.05042007421587896, 0.004315580314507657, -0.017357237829753236, 0.02112940528335797, -0.008584770618184068, 0.0064911834412478804, -0.03037247580183438, -0.02450247992964148, 0.0023116791611619697, -0.009133101510629456, -0.02065521745758158, 0.024367523905976643, -0.02889413612310049, 0.015776424363336313, 0.001823761420720421, 0.029507048574190783, 0.016320920268149543, 0.07101643967032317, -0.0019317927940246, -0.02392455392863853, 0.019088682538035747, -0.06482823193289136, -0.06659201282273444, 0.0014779645244195447, 0.05947360967741351, 0.06311906354420799, 0.02056487265583931, 0.015752658711441943, 0.013926680220441082, -0.06382647868761056, -0.03920267711824204, 0.005092688501361519, 0.006587143041487569, 0.03642988921474323, -0.009585959579232263, 0.035562149970489496, -0.00965764289605775, 0.008165253332560962, -0.02122361154275018, 0.0003790775902200881, 0.023266358183744777, -0.02290992726196412, -0.010120898055112633, -0.026397241968866347, 0.04922768015537983, 0.06985915723128816, 0.06319983854356859, 0.04942317513225831, 0.06648534375653242, 0.1564140574570335, 0.15544567030596412, 0.08631519667297159, 0.1903053182745728, 0.2728171505492395, 0.2128209659865544, 0.15876081285993818, 0.12443168129545774, 0.026420747966924365, -0.006484425930393384, 0.016317257087297858, 0.014336191817339366, 0.05808562222884754, 0.03244423778280355, -0.015001448149175449, -0.02633494633025088, -0.006621097373530338, -0.005675471735837142, 0.0038331395598338574, -0.06346555756231488, -0.02321444791996811, 0.014950677996466166, 0.040076278663942984, 0.015177664109709854, 0.03136369215712048, -0.015038192333365777, -0.17073572104010373, -0.0976021171569493, -0.09340472017575284, -0.010119933718990557, 0.06230587972487154, -0.03726077287354008, 0.012369970733436552, 0.01846470834400834, 0.1338098917602973, 0.11827804942701191, 0.056528990991051235, 0.005006072805930852, 0.029519062005394916, 0.07995040195480625, 0.012264514120325205, 0.013649478684824386, 0.02865689289216436, -0.020921883984605583, 0.012314944181808877, -0.01693975746517474, -0.04659386182539494, -0.04458438318650796, -0.025128297851998424, 0.06995794456999435, 0.03331064015457456, 0.016461598231386976, -0.028647198681501736, -0.14512362860263064, -0.2468806782364673, -0.2894009743206213, -0.10484761307224591, -0.026159941557258638, 0.12038328457941987, -0.0691460962144946, -0.06542965792467552, 0.02729699550651809, -0.07034320990091651, 0.003969246150012733, 0.03421244923126665, 0.026295029575298827, 0.13338677785101932, 0.1335678906320716, 0.074495542836322, -0.01878064606000157, 0.017092513807988468, -0.02952299899426085, -0.026663805999922477, -0.0021284313776959987, 3.3703896078265075e-05, -0.06211270568338175, 0.016351958222500195, 0.04972575271637332, -0.07250131530169159, -0.05849066845740763, 0.014689154304639063, -0.018051469426200895, -0.03457125271398175, 0.04139415484401012, 0.20292181395620418, 0.23468013102761806, 0.04346925762150638, 0.010968957377772265, -0.04245546065262012, -0.07756016456734255, -0.009084411258504076, -0.007273482978640441, 0.07764344026067904, 0.05714366429940018, 0.1265149963638024, 0.10986785156882678, 0.006430345990057366, -0.007649066926229609, 0.022716565787122188, -0.015709487700533147, 0.04115530626191563, 0.018474690429645724, -0.027487410185940548, -0.0009681419255944312, 0.0036603506807500663, 0.07383745660097243, -0.027053164983503027, 0.019953996085820103, 0.047211869913570896, 0.10501301805634097, 0.21402606625890608, 0.3002185744992607, 0.36734456339620253, 0.24996761587574562, -0.11492559665834123, -0.16338771669433239, -0.06217042906828177, -0.03834663851375989, -0.02717521304339838, -0.05309316208461462, -0.04839495334011685, 0.008841094957332273, 0.1380562024881702, 0.10466785290408694, 0.006688175478454419, 0.008219387938629492, 0.020396787459799337, 0.015136223375352904, 0.0017748418043203311, -0.020401430028779484, 0.0035336044115533084, -0.005347899940478411, 0.01232578161611537, 0.11563574504927412, 0.15041424137735043, 0.11506283391690142, 0.1650375575097153, 0.28666682222205564, 0.37549797188433914, 0.3670234557267598, 0.2745054406577206, 0.06542671138328003, -0.30628669707698813, -0.33896810394165816, -0.17204661327562423, -0.07124626188890501, -0.132350643748994, -0.13754059931803542, -0.04858213274219692, 0.023285874896292497, 0.11638278870106354, 0.042184564912962914, -0.03724317932026082, -0.01009217755449586, -0.01985729202953999, -0.020139851442191374, -0.011209627259909016, -0.011975112046291286, 0.03037864565907798, 0.02826237297909874, 0.05481280178708855, 0.17423405492874178, 0.2586746174476623, 0.205125278013529, 0.26916493450011014, 0.2953667980216763, 0.2274485886492266, 0.16652412034447234, 0.1156532902632542, -0.221799384295062, -0.5044463578030444, -0.3790355667954657, -0.11134477390732908, -0.10943588462597564, -0.0910219143754983, -0.03946462143554157, -0.0053036472898364585, 0.04292201070036477, 0.08536503565576284, 0.048505638594332934, -0.00634282152332855, 0.023815754748460233, -0.030810844053436343, 0.015563308109237626, -0.0015591153017264275, 0.0325903755845678, 0.011941446815702668, 0.04108590984793348, 0.09166763052721599, 0.146783340466184, 0.19118849513181896, 0.20178825291701916, 0.16950459935519957, 0.19188779520422586, 0.09771506644006225, -0.15961555085448628, -0.05291454593554518, -0.3698051007408277, -0.40267116628026883, -0.23007767018327685, -0.15368201251147265, -0.09262606970648064, -0.028126796841308643, -0.006712197253812501, 0.07608547964000166, 0.09460571049916375, 0.09199016830255669, 0.09547051824720867, 0.0064967792381619245, -0.02067331713601257, -0.023752945328395548, 0.023736256526842744, 0.007390142144760863, 0.029352216840268452, 0.028580228273978617, 0.05755726932684046, 0.09751963175417926, 0.11934497732707292, 0.1901992527161243, 0.12893384822079743, 0.03328082721551036, 0.04970997436138743, -0.01158565681684892, -0.21245748412689772, -0.1598565520623992, -0.40023823407418446, -0.26540393052465905, -0.18242632345823134, -0.2012041766796287, -0.08386112164787406, 0.014954915104026776, 0.06009158999095971, 0.08168368885641467, 0.1122955303289932, 0.1321075263760744, 0.057064127525839815, -0.000844940061152068, -0.015790454881309104, 0.032611338367997775, 0.015353827692146963, 0.031107492915757356, -0.02581127241366072, -0.0132912951570111, 0.012587822478752593, 0.08611710546819966, 0.1798473109271606, 0.21142997930647595, 0.13056763705288468, -0.045134996108719114, -0.19726546338052206, -0.22776199616548115, -0.4106778791000624, -0.2883076112089503, -0.3695466002726842, -0.22027098701393258, -0.2065036212850335, -0.24615475754117355, -0.0791806273990654, -0.030943665915724616, 0.0004960351847275449, 0.023965128714602456, 0.11062481941151925, 0.11743930612246085, 0.08005941877361064, 0.020881383280078027, 0.03595250888021608, 0.01606114374791925, -0.011602542269676679, -0.014850704485217687, -0.02135050703819071, 0.030870672259899284, -0.006236958214334068, 0.09677326386101208, 0.2591898247158867, 0.32248475751443567, 0.2969302653161219, 0.017522256201639372, -0.2671405580484955, -0.3666236514054252, -0.42278352921029766, -0.30335096452455074, -0.2836493100594052, -0.1700536821039962, -0.22872120291164763, -0.18480214817199608, -0.07590071670008511, 0.02003988461040465, -0.04029174827959452, 0.019717645789916437, 0.029344179568071376, 0.06934727997251926, 0.06599968350931934, 0.026457138149145576, -0.013604997350266709, 0.03165060939077746, 0.0046840364615487245, 0.002562765757214402, 0.010601565070146472, -0.0072122252613448495, 0.0011706527940626738, 0.14220389497777094, 0.31843403887556176, 0.38361863542984115, 0.4538615137543463, 0.30888762152963223, 0.058563296363793656, -0.0949492980397734, -0.07939990338196375, -0.16888834005550563, -0.22087729111124071, -0.11504749423644355, -0.14153921174506823, -0.05834810670224041, -0.05564171074131323, 0.05072894315388383, 0.05787491746164708, 0.052886566769889, 0.04332598677189478, 0.11040358104457915, 0.09636942028879737, 0.018319216865184743, 0.030549990514989505, -0.019233723216271637, 0.011733989771170898, 0.021261728549115958, 0.005270693382065878, -0.05566356218300502, 0.024227836069373582, 0.12704056903522154, 0.32062388864579233, 0.4374250133905621, 0.5699083188459225, 0.6708492956452338, 0.5253096979607353, 0.4358125641820278, 0.2505079770494304, -0.07110048349755857, -0.1343912332464302, -0.06707575194111975, 0.023090867354743975, 0.018548137293672398, 0.09639856172999738, 0.1458536696440437, 0.20588274065111797, 0.11004738556722463, 0.12000522400215284, 0.13246015433661665, 0.11725318073190572, 0.10089538239928728, -0.013716977707608413, 0.011531263035409012, -0.023886041513900537, -0.0053273600371637544, 0.005886366091904023, -0.04632210199943996, -0.059197597575438375, 0.09803729248650249, 0.3222128719323387, 0.48493260231362206, 0.664512118073633, 0.7007932478405519, 0.6121849464992279, 0.5439376115943946, 0.39203386816074437, 0.09100242933588025, -0.1225478333738977, 0.03020288665309075, 0.17465864266545478, 0.10749396444687223, 0.1478765552996901, 0.17312081533233714, 0.14734794046618874, 0.1576012312373974, 0.18576323931055708, 0.166751261419532, 0.16109929618395408, 0.024784002983961897, 0.023994306337117615, 0.025684568325997133, 0.008352983102871681, 0.022615823983103737, -0.03590806379900251, -0.07289376978956127, -0.06802937487155881, 0.05284285646109226, 0.1768878645363379, 0.24809587012418574, 0.39160349306052034, 0.42309078586458493, 0.41706459477555247, 0.37544850819357545, 0.3366491342757066, 0.03835345328625552, 0.006162648327797229, 0.23055271480664521, 0.17923308918279246, 0.07881080765618542, 0.1574789373327115, 0.15652124534525128, 0.09830993331724525, 0.1333265181679182, 0.1749527727949355, 0.10676719731556958, 0.11727353621275878, 0.006028340504190924, -0.020619096941831613, 0.009014821500618159, -0.026209444928963193, 0.024091774090439482, 0.01458846365620843, -0.07029842369454865, -0.11313603906695396, -0.017959528118221494, 0.004187500620249199, 0.08178182022601226, 0.017677658673492653, 0.06938053693032648, 0.1507733486280491, 0.20166577703990435, 0.1951876207280452, 0.14704795174471028, 0.1036395210568539, 0.19494790786703434, 0.1406063066842299, 0.05959258639458269, 0.1035937167799672, 0.18474770952281694, 0.16089504991260928, 0.19551122767526968, 0.1944435727653537, 0.1511725534635894, 0.07222480329520148, 0.027905068237898203, -0.03225665479945199, -0.006389951480246458, 0.029102177489515383, -0.01678244835574521, -0.04667271399150753, -0.06426663517515527, -0.09214022572765974, -0.14486464384599437, -0.09141395417666646, -0.04613738335155855, -0.07768177068716589, 0.011634793510018603, 0.03546108486254404, 0.15154019265337854, 0.2075955778432613, 0.23109474929805096, 0.19305938156084448, 0.13410986395464655, 0.08848374658716389, 0.04278368939125357, 0.1313649128540383, 0.15772131516450097, 0.21251499847295752, 0.197479474042918, 0.14543345250797393, 0.10634891647561974, 0.028956580914777166, 0.01473773202336912, -0.020273115512869946, -0.0021978893297972552, 0.009992655158883127, -0.010000587957111083, 0.0025571538918477393, -0.03169519068962798, -0.0598693214044381, -0.21103029923186442, -0.2186714021742997, -0.150374477273891, -0.14349096050222737, -0.029571904673441125, 0.02031237241926586, 0.1630845160307635, 0.27837836862695836, 0.35989212582644275, 0.2565595720520154, 0.09347475144871595, 0.03521059680367194, -0.008663689097321207, 0.07991864927277466, 0.17898312138713257, 0.24729315183911207, 0.22812645829620204, 0.1391936627528458, 0.028696684406791018, 0.031192599405586937, 0.01563654638099547, 0.011285101922029363, 0.02619063136374407, -0.031331108960249904, -0.03091317001545297, -0.033236387678354455, -0.020415155801066568, -0.08754917072647252, -0.27432366393133606, -0.28818872484634617, -0.27041930763596045, -0.1889010410010856, -0.12563921059983083, -0.10335942882931339, -0.013263985068942987, 0.12760505787463652, 0.19850167665738438, 0.1542330620216526, 0.1841145106877336, 0.14812975765269795, 0.03746557215792775, 0.06701047917454617, 0.20283154820720967, 0.2448843330911555, 0.18805674106449177, 0.08740389796840799, 0.0517760862939351, -0.02859046693901712, 0.006823359898244244, 0.027124874723691215, 0.005441795482066414, -0.004875966029901653, -0.014046652522822594, 0.027341843298863442, -0.03363555122733372, -0.07261130379914335, -0.17162344572956575, -0.20447559426996792, -0.2414293818290574, -0.17842668965083985, -0.06447660163627061, -0.07525391666645591, 0.05461108900120107, 0.13780907325080463, 0.12306908447648954, 0.15259913054977012, 0.32603192110603674, 0.2364965184806043, 0.11124982078819827, 0.09380448105873142, 0.11191685775473935, 0.10506930486586208, 0.059153310232856623, 0.03335285460929985, 0.019687345107911272, 0.02122723623649514, -0.020648833679413958, 0.03187063476053217, 0.022783148910654596, 0.01685607234273029, -0.017551352883655138, 0.01944393772506959, 0.008773247758183458, 0.004935884372973743, -0.09134688931744231, -0.1118911526821636, -0.06927310257288591, -0.1601500853100077, -0.12475314751289161, -0.03497853683382196, 0.0371478969673697, 0.020146843477653633, 0.056390479273787104, 0.05716880483275034, 0.07588144240140786, 0.10296084577653462, 0.06439491777554208, 0.00010535781234732912, -0.036982478849338404, -0.018360491685028915, -0.021494304445139206, -0.01833938368733508, -0.023466460618693973, 0.007179801804138779, 0.005917687990681843, 0.004897683910230813, 0.01287589592189975, -0.007372742598014466, 0.02889394326612879, -0.02168941043978284, 0.014917820603145145, -0.02949634266460802, -0.016565856379950044, -0.02175896438407791, -0.02363016415375788, 0.029746746343816983, 0.021311038172133864, 0.01303308082836021, 0.03981016813789097, -0.019681855846052563, 0.0055337306717509575, 0.0258837554580259, 0.03992819518388776, 0.013607642749785785, -0.02412224597343806, -0.01494569097611957, -0.05051332136552955, -0.0320914647254437, -0.002044283325705355, 0.04146713285519985, -0.02641666067994163, -0.015713193201394714, -0.0169942445930919, 0.023060708904592872, 0.009007835341057986, -0.006484224684587862, -0.0009651953089150345, 0.019113678328753242, -0.023407517442365904, 0.004029483222902285, -0.007253547232766713, -0.018418384865909198, -0.012063856907814259, -0.02903142885083516, 0.007074924080732177, 0.021544306844469095, 0.030413284490824765, 0.02522861011052207, 0.006469183856318761, -0.04283911076168854, -0.01576001664197788, -0.002397794973051669, 0.03340774697021629, -0.01699993917976527, 0.028935451306561354, 0.010468425709186954, 0.0002597099030238382, 0.034178163643477644, -0.011450241891955749, -0.008225803970293995, -0.023807205118222707, -0.0126574045903083, 0.02724348115166557], "bias": -0.2126056475889}, {"weights": [-0.02542111120991501, -0.03202256110139441, -0.03210560328201958, -0.003435705810534949, 0.031282563511123115, 0.02923186226297228, 0.016463086766415697, 0.01742924030700614, 0.0001444523426120184, -0.03240488641742759, 0.02835876036005787, -0.032013565258441186, 0.019610832975004548, 0.024104761846700642, 0.026269880600595232, 0.012470525916037296, -0.02036890650202847, -0.018725694128419797, -0.00884990028469762, 0.03538194004780139, 0.02477332184558583, 0.0101668172939035, -0.024608283592745722, -0.02976857983027741, -0.01185870024440137, -0.013603349553161049, -0.023543062410092637, 0.000918164824222141, 0.0316090326617357, -0.024640479611585442, 0.026032441806496852, 0.02264503082281221, -0.007887318924660283, -0.020837133686256608, -0.005107276662221173, 0.03900000490928571, 0.051984694716020775, 0.0046534713922736365, 0.030176003414091317, 0.02417784238079326, 0.030228999778083555, -0.0009448257255672553, 0.0014595580738659792, -0.0046857221696950105, -0.015129934523973283, 0.004832975617553571, 0.01322987797264176, 0.009338450283631226, -0.013798145937242264, 0.03906314630633642, -0.017513275446413654, -0.015353793600109484, -0.027782595883898014, -0.03159845202132994, 0.03359245359101634, -0.02825822996464066, -0.022491644509137543, 0.00924061554809192, -0.01573452697204317, -0.0022171372950558037, -0.023533120592493264, -0.013517021089446697, 0.032140234766527415, 0.0020440529849642983, 0.014958156285802054, 0.006612542349708966, 0.02925764284447467, 0.035757141850142955, 0.04939897871601815, 0.060272615998760375, 0.06997038698321989, 0.08762269768072639, 0.08082659324534557, 0.04317271652746676, 0.04988562923948028, 0.011033715130864753, 0.059275648111540895, 0.0454811739437016, 0.016768653479476845, 0.03509877396894782, 0.03157608669386925, 0.017073967832477572, -0.002312327259516078, -0.030530144808660578, -0.02660006489043663, 0.02940759422050479, -0.03411112676060668, -0.015828032537504984, -0.021502038659086595, -0.018766200938834236, 0.0008939013136185127, 0.05945034202603734, 0.1087572724042464, 0.10423238341049365, 0.09924825283394609, 0.17586298111723106, 0.16499285244539563, 0.1733645064433141, 0.19260549631849094, 0.16047246154906805, 0.16819396385914903, 0.17782880904028864, 0.09031721486697587, 0.08311199941052408, 0.08751719437485957, 0.06212153225780783, 0.017655017305343898, 0.05836241831534971, 0.04049756167202605, 0.030537009968678995, 0.004316642972966504, 0.031435388652845966, -0.030631077600530892, -0.008959757643045727, -0.030704025281556566, -0.010545260619054577, -0.00797536623606412, 0.014988252376981972, 0.0072676735007370635, 0.10748538317658202, 0.10949282108039356, 0.1445955029096027, 0.2351660058973758, 0.21936065387667159, 0.22734192741703868, 0.18521593829494776, 0.261026795142957, 0.21491103992970165, 0.16852914194264776, 0.17591435521729668, 0.1767552854772188, 0.06806750874303738, 0.03144052050618078, -0.0035883694939974186, -0.014244836051561958, -0.020065079880659992, 0.010629387532082204, 0.03534176165971092, -0.02382754917136595, -0.0072992121820991225, -0.03505472118408155, -0.03211958858946668, -0.029654041072537492, -0.016288307432731998, 0.00023519521032327797, 0.023487045104980245, 0.049738328352865985, 0.09041474272302082, 0.12774377880169877, 0.22646699790162172, 0.24613016565056728, 0.19906705337420338, 0.12275623730406167, 0.14800029650039218, 0.15552136932997712, 0.2421860117287497, 0.3169575125662348, 0.31571126626546125, 0.2325104832026005, 0.0985738190240892, 0.061698968560776835, -0.030578361667080885, -0.05675880799471242, -0.0801458843823179, -0.003216760835076537, 0.016311117049774927, -0.026791079460400824, -0.03329271947293769, -0.007888517188219035, 0.009217510922423856, -0.030293335800026716, 0.02512414880418495, -0.0019647244420051674, 0.05261343812023446, 0.048440965868178955, 0.1316081588176234, 0.09317475793460418, 0.14794889245424095, 0.0883224716197632, 0.07463920146031382, 0.05407813320883743, 0.06873241927211532, 0.07811667528236063, 0.05224679839787021, 0.08212261085386971, 0.07519459564515377, 0.06831590904142776, -0.03488528361938711, -0.012458229422457019, -0.1668965903446485, -0.15422141260120767, -0.14755957587957597, -0.046320146106061805, -0.016327314571808332, -0.022418439534513286, -0.01964075467865688, -0.03445258563445381, 0.012455457540349255, -0.018202719753816054, 0.026002813309437062, -0.005520722138857029, 0.038540651692604, 0.09757760822328829, 0.0752868241532839, 0.1389034876991441, 0.09443357589241352, 0.03846228731090234, 0.011466464318803882, -0.060265738105106846, -0.09398570043805721, -0.158056330246301, -0.22558053559694408, -0.24215383658014564, -0.22886775402926873, -0.19272916828436987, -0.1437310824806978, -0.09693367026074302, -0.16057496878405506, -0.15378641055692946, -0.097683995844404, 0.040808128155124926, 0.044811155399177814, -0.006612145869176228, 0.030426312691539864, -0.0009133407178066729, -0.014323056491148097, 0.02176118585626242, 0.030541691388644654, 0.043053824330589914, 0.08687676735449494, 0.08311214159619874, 0.09733466520681075, 0.09911324703929296, 0.07882119844529396, 0.004872008730233549, 0.07911898268596022, 0.022094533010506012, -0.1368276746325759, -0.2390155409730135, -0.3264916739034031, -0.4073955474045413, -0.35740224133822335, -0.30104458314789934, -0.22071393338477255, -0.09628939491957902, -0.09165430626206152, -0.1469420961005774, -0.054242273268831805, 0.04245914688129563, 0.024563671942333633, 0.044277463385527877, -0.007681593490019233, 0.01053664953317576, -0.01093607832915394, -0.031154303675032437, 0.04301290289615708, 0.03331153726095299, 0.059485869223437855, 0.10725995772385465, 0.07590126234898475, 0.0500982793417892, -0.016874577413326024, -0.10459104689580731, -0.029961328121050214, -0.15653785023574027, -0.22361237114223276, -0.16528696836725856, -0.2408826828198946, -0.34865891542190935, -0.3015948804047981, -0.2784761437796591, -0.1929633250009639, -0.08521459514013006, -0.08361907765396691, -0.08060717756673655, -0.04939683805381748, 0.03974982664091305, 0.04659894682001446, -0.026791620486747044, 0.03219191091392398, -0.020900014033217708, 0.0030075171760618217, 0.01988968632680962, 0.046959114140083, 0.005738786277233958, 0.02519200818836572, 0.037548905080696755, 0.00844166521315029, -0.08459507109096796, -0.14728954993791332, -0.10849731916737304, -0.1450247925770585, -0.20033682229339647, -0.16040358932916005, -0.055490048225522774, -0.243071813063951, -0.2775695825829675, -0.17465341586527885, -0.18541611456942303, -0.12449461863073263, -0.024048764502578257, -0.04082762849910189, -0.08257822816355714, -0.004340856457186964, -0.005403732625136014, -0.020389531043599175, 0.0018031358783580037, 0.024892092580163606, 0.03409956588188472, 0.0004138698986466393, 0.032932132792118894, 0.011698524365816075, -0.0060248901806880814, -0.06503842954764265, -0.10076636989595916, -0.20647476631694267, -0.217971749487209, -0.1952922200541285, -0.22190832372007954, -0.17040761543474506, -0.1196741812664982, -0.022466708665468797, 0.03352893311296245, -0.2476717104203341, -0.20583332909364124, -0.12980946444546385, -0.126764193703852, -0.1576332464517615, -0.0774469467038858, -0.11594998426197321, -0.059797447547455286, 0.03587310986379846, 0.037877687603975745, 0.053537564417207924, 0.020445613224552826, -0.0067706069161789315, 0.012809254172753914, 0.018327452097098233, 0.014358053915337916, -0.018950470921218748, -0.041348250069607434, -0.16232279974286504, -0.2540481716177131, -0.2765118823300657, -0.21046583680047293, -0.18366962569278794, -0.1714440532896936, -0.09842479781660796, -0.07958063729091377, 0.08278634312549128, 0.09457076207566861, -0.1027511764354164, -0.11586154149752396, -0.16063123706794308, -0.13357296358495135, -0.1719807546910632, -0.09450668056350779, -0.09382659809795225, -0.043727432061395455, 0.06462322131321602, 0.10549202733480362, 0.05017302490546141, 0.032773392973651554, -0.021696968786418767, 0.010766269564052555, -0.02461252151757459, 0.0012053138739076352, -0.026662457888879117, -0.08610260126864554, -0.23124113446310213, -0.33776923076712884, -0.27776888592546956, -0.17901660864782395, -0.11663929382050883, -0.14604889811979155, -0.06717118762146528, 0.11164943343028454, 0.2677868415160515, 0.1433727044767962, 0.03119104689251797, -0.06878215120569042, -0.1435867439758685, -0.08776921071304798, -0.04492111566585938, -0.08777503075648095, -0.1123856411664126, -0.05095690094243257, 0.06563250342168186, 0.05678232805457374, 0.054648272015979577, 0.04552023602978195, -0.008624397224983376, 0.022277205558130852, -0.012374309496885496, 0.001589507949636402, 0.019098720464057337, -0.13128172473116761, -0.26615002816480027, -0.1850393259145786, -0.1845407782937668, -0.06522528401920814, 0.02805242360084539, -0.004584500573121995, 0.03537302587332164, 0.1652174278535507, 0.23595958661092867, 0.19136850021717636, 0.10610368185313256, -0.05418270975533052, -0.23244446950317665, -0.12003076403535917, -0.08387718661081352, -0.08593408438708663, -0.028768559177140142, -0.04586122266057011, 0.05225710237619688, 0.0633172922790035, 0.030242893739125302, 0.008089233942682983, 0.017203906942043386, 0.0005746886981207499, -0.020274665539530924, 0.021781429660486448, 0.03226998101929077, -0.08143293139421254, -0.1406963690040037, -0.0841369516613983, -0.11907670678854215, 0.01015944743224906, -0.012590574914924749, -0.007150481459921399, 0.016753903742324452, 0.03493518460735372, 0.17709223889507272, 0.2198769992528003, 0.05784304832130424, -0.12318801852542141, -0.22986806018079434, -0.14873098451613412, -0.04431344185633987, -0.015097983262133251, 0.02763192658532071, 0.0009368476891813365, 0.02575303393997461, 0.052666939581021005, 0.019823233018718477, -0.003253270862444463, -0.0054990874882372715, 0.030547797091036298, 0.02180995579396403, -0.012901996012435428, 0.004379546426794754, 0.01759625102331937, -0.07943045486940342, -0.047504790159339394, -0.09121610258950757, -0.14740377491697737, -0.06813620051440146, -0.07617627414198973, -0.004986110869416905, -0.07773639063759427, 0.08632888480763214, 0.16725147180060582, -0.009855999334783623, -0.06500130726447913, -0.14455930878521148, -0.04782964542499623, 0.05684260432825563, 0.06836890511544412, 0.0373670942090077, 0.056597434505110095, 0.0853059872718696, 0.06585271521915859, 0.05015414790216395, 0.01533511455580949, -0.02816227683784334, -0.022404932352966492, 0.003830384692474186, 0.03213159110051191, 0.08479680906940083, 0.05976460599256591, 0.008358547737082547, 0.04567925673753478, -0.03439543161051824, -0.07768495115419306, -0.1378037950102339, -0.13529632128596705, -0.09918777174422048, -0.05924055486854852, -0.06424455975175311, -0.04428270134612351, -0.03818279512404949, -0.03385197569891673, -0.021923326015411856, 0.07839586764350856, 0.17429676496378638, 0.21218756584423537, 0.1801912821278556, 0.19564372624134857, 0.15746408776392273, 0.09127040148372029, 0.06639595126496158, -0.014763798034341942, 0.0013079865390808697, -0.01278026911645211, 0.016544104687554323, -0.003344838583036501, 0.07729958127286217, 0.0876518278063948, 0.058359677560554074, 0.07931303654565214, 0.03918676258541993, 0.019328385744981948, -0.07327290381370088, -0.03645564589442732, -0.023156823842471193, 0.0377838020793603, -0.019690146608038025, -0.07335755485739487, -0.05304432548961507, 0.0861356873620127, 0.21158847096099656, 0.22869785816321905, 0.2160128359032846, 0.20058632814080518, 0.2683706557187468, 0.25321338418630107, 0.20666875533675771, 0.16380087534127008, 0.0866966576326813, -0.002319955121152249, 0.03478963466641901, -0.006390179623953546, -0.008815620419305231, 0.007495409713641716, 0.04897779523406081, 0.10226211395828312, 0.08074257722862081, 0.12583803819781028, 0.13528028961280172, 0.1612191438384543, 0.14187164338942898, 0.20374396707573172, 0.267797921918231, 0.2490050113645765, 0.13135136597410893, 0.025080921096708227, 0.0541216771531034, 0.1119648648411949, 0.20402426676347796, 0.27587600391099815, 0.23872459350449785, 0.18162196875328615, 0.21682237130456106, 0.210681521001335, 0.20841186184701876, 0.1028652301569579, 0.061342113197016664, 0.018231159773021786, 0.02968039427996378, -0.0025798006429970863, -0.017581805268336446, -0.02335438882264191, 0.12383629569622845, 0.1486179339327331, 0.11836320492218377, 0.09822290957197706, 0.16786079889270525, 0.22138401042598063, 0.3258631909510888, 0.2730691689500866, 0.3013207489227806, 0.23802640991478524, 0.1689487289499186, 0.12528866021695861, 0.02173024260807946, 0.09959070523803158, 0.12670516879209126, 0.2625954571682247, 0.24444191937616774, 0.1780139880338596, 0.14270770273785732, 0.10269180552209745, 0.11192956887619311, 0.07068773950605593, 0.04327039795335613, -0.010346395957026144, -0.012661946774243161, 0.009728513550039078, -0.02115998844829467, 0.02422739630753079, 0.09505233689823665, 0.09268627874400592, 0.09790331823302188, 0.10113577472304905, 0.11047484238936087, 0.12737520148428083, 0.2348697105599238, 0.227076551374464, 0.24125490311201173, 0.21668375808513318, 0.18450605816199503, 0.17323675334365055, 0.057640381786637586, 0.1026283091409098, 0.14904238241608758, 0.20404856781811592, 0.18765671534777376, 0.11437568972506923, 0.04422557092777573, 0.03640863249075847, 0.03435033007623892, 0.05777350607569554, 0.013624465917615082, -0.015947338523956835, -0.0016058957819682091, -0.030085389306222492, 0.03233816248199885, -0.02170544552754398, 0.01141466468628184, 0.1162844925458275, 0.015584680713949662, 0.026738646230913966, -0.023835792539808325, -0.03946663288922835, 0.029998831748661414, 0.08560036239112348, 0.06875765696725368, 0.065345520643946, 0.1141397619171934, 0.08056983816928594, 0.02062610198835776, 0.07272923839788703, 0.051040316820783825, 0.1075886677471118, 0.05821211134081995, 0.032803463387755895, 0.022187135882161518, -0.0016070877566090648, -0.026754143794579775, 0.02388919498692625, 0.015389178677500974, 0.034170417284660026, -0.013811549779463377, -0.03411560004779348, 0.026803344208680246, 0.018982047894338612, 0.05007684012135923, 0.014721877011350219, 0.043168920115640004, -0.010879486125789225, -0.02854288379151164, -0.08317238915434882, -0.05338622016143755, -0.09879486907757562, -0.06851539798768502, -0.03974776625609375, -0.014756999098818974, -0.07709001129230131, -0.024328850796163218, -0.042454101019671495, -0.049556511233957684, 0.030248990107940882, 0.03642495302974134, 0.0005798262846362974, -0.0011649081899850332, -0.017297720926669837, -0.024201855565056843, 0.03267769304200524, 0.029832381525671522, 0.01672608286655874, 0.03412469315853019, -0.031090845127455285, -0.013532313187667334, 0.0027947173136357935, -0.02694871395830469, -0.0001107274990471698, -0.0030708272187670326, -0.03576574931685864, 0.009817540433765789, 0.035100060350566245, -0.0023914054773899376, 0.016365207123257893, -0.024538905705165207, 0.027790395460578373, -0.0473116956527706, -0.012765022961738603, -0.0298628532060448, 0.014159254209198025, -0.06361026021354703, -0.07774639204589126, -0.06286984939113617, -0.059284926736654815, -0.06005139096002727, -0.03794117081634181, -0.014398633349265463, -0.023614646902362674, 0.0265770680285542, -0.006024414535066172, 0.008768807977052505, 0.01396390735674314, 0.006267278676174874, 0.0015235374469070397, -0.03665688218394627, -0.04492784146275325, -0.034990814841940804, -0.03694828151473303, -0.07347049647568171, -0.041799013422196794, -0.025058693981101124, 0.019794733333775467, 0.02305587936022535, 0.03631600379844054, -0.014267314369203176, -0.04081579164508668, -0.03335149852530553, -0.08132439282571449, -0.038117547061177384, -0.08117581309830191, -0.09794044823137511, -0.0925984743121441, -0.02468801134462012, -0.05477246775905021, -0.0005845796220862613, -0.005471375422333569, 0.018107580433643886, 0.034072146550252404, 0.029259260127106015, 0.009398339648659076, -0.027865925419077835, 0.006958876660455693, -0.034456426404499134, -0.0026200725339852824, -9.517102620608399e-05, 0.018595138832056986, 0.02904993115116636, 3.807838219015162e-05, 0.009212460796136555, -0.033970806079543205, -0.04854961346441558, -0.03589765548239229, -0.023922564315400147, -0.0038476960653164387, 0.011947126100961243, -0.0016775305169314224, -0.038670097679380705, -0.035258816082360235, 0.009680848443051086, -0.04150821027875372, 0.010320127394428634, 0.0072394878356578755, -0.03134549620081701, -0.004321258145932349, 0.004916089589757527, 0.005694259158514563, -0.030334259024490978, 0.029157631871452955, 0.0015850219682482722, -0.009652303316701485, 0.004759178246841862, 0.02401369255048924, -0.03214572818040449, -0.01878148697360156, -0.020951806892755033, 0.019525866605832096, -0.02751760386844137, 0.03283945059779247, -0.018986399727951377, -0.026787888994835106, -0.007976979228428969, 0.017162576685370856, -0.03147671192367146, 0.005386672982536118, -0.02588470983381487, 0.013616781881388774, -0.022355340108393674, -0.027726127548942298, -0.01852586448766581, 0.031224408987342012, 0.019451902056627522, -0.004959003699959233, 0.028305354483968037, -0.005091138504151285, -0.010842133666652924], "bias": -0.2741663664713626}, {"weights": [0.024906904548618408, -0.02200051192452345, -0.004648429931250156, 0.0016939401447850777, 0.03222840379239039, 0.022670799279160554, 0.03452386478193201, 0.01647581684134529, -0.00951839007074623, -0.01628844808484611, 0.026914300905841015, -0.0016456652345309894, 0.030358955804531643, -0.03599794143891884, -0.012542191212896183, 0.008887646931488434, 0.02971789818335091, 0.007131012690604455, -0.011251202021986546, 0.007048641416053915, -0.011178348801724351, -0.019404265348666207, -0.011022409406444382, -0.028707682511086303, -0.016976587419103382, -0.034254844213716495, -0.020837779461015875, -0.020814716872759834, -0.003183610159910359, -0.005563411315116777, -0.034978438961880194, -0.031431299887167245, -0.024666412984125006, 0.006233392898537593, -0.011545162168534195, 0.007519845668575554, 0.017392334033703282, 0.0036512925807818627, -0.005056319606795814, 0.002266684242358086, -0.01282498719233563, -0.012692499357645624, 0.02111849646398346, -0.03817116776368614, -0.01736424421544267, 0.00458029447080668, 0.014859529004426922, -0.027997386762353436, 0.015114505685592161, -0.0341225975211935, 0.005518443806057374, -0.033870608977296324, 0.03446525920949754, 0.03338189528857777, 0.004980111571755423, -0.011961343588527643, -0.010908266203668818, -0.022168348888777736, -0.015349908177846124, 0.029968259537219127, 0.0013711858576512588, 0.00010283394236421853, 0.020371435886592217, -0.036655813651002914, -0.006838803440927554, -0.04164923141909093, -0.05289685590862587, -0.0304526175121307, -0.03573664859522678, -0.038675021205895395, -0.034535662802324306, -0.035788809493079055, -0.002348343907798739, -0.053908698713520255, 0.013580649395148846, -0.003886769574515342, -0.02591418872796845, -0.0018592730592953302, 0.019907763209120546, 0.013851324810885593, -0.020189207980328836, -0.03213824417960422, -0.018586051541215332, -0.025702859666472937, 0.0021464821342243104, 0.0024383436665946986, 0.03010234173699633, 0.004469424000115117, -0.02879266955727422, -0.019398917975237275, -0.025793018085321362, -0.0302011707502786, 0.002286766549435219, 0.010847327124310371, -0.0354099948431423, -0.03722567925399931, -0.08582710034601619, -0.06882568569274032, -0.08498295056829519, -0.11762931317742487, -0.09998766970647523, -0.08736419093752586, -0.056935771070555495, -0.04886297579741141, -0.020389522258469357, -0.05399765628173106, -0.0036978347779791664, -0.01017229758874441, -0.011146498602368484, 0.019388685361419113, -0.030697634057700804, 0.017484305958630715, -0.00877275549618612, -0.016455316242440277, -0.00012372654074455612, 0.03523785392527414, -0.014804348593951449, -0.02672041270773512, -0.021672360147954903, -0.07230228799393515, -0.07462424285536254, -0.06253426294207758, -0.1267694496251619, -0.1466830411427022, -0.11709209637341687, -0.07042904895056347, -0.04572596506692955, 0.05308122503882388, 0.05658421701433576, 0.07439314683591873, 0.09213561607439566, 0.09746713921773735, 0.08372679178846618, 0.06501583008283579, 0.0695918646771835, 0.044742213567938165, -0.0009385072575315219, -0.016258486567092976, -0.012482006242020734, 0.018062860743839122, -0.034640862416345286, 0.02071272134691833, 0.016789320572935914, 0.008582517590906636, 0.007078754834811165, -0.05393105711969812, -0.038810557577440195, -0.05634951351773538, -0.02080585370706766, -0.05572709016339896, -0.10081010876552025, -0.01774857862179899, 0.029784898367830142, 0.11378997814779286, 0.12017864548330914, 0.18408307635514123, 0.23587211809665198, 0.40995445518433765, 0.4880477286606975, 0.44419337029197425, 0.36797185226455736, 0.2861409604592966, 0.25889480401633935, 0.13506192318455268, 0.0772460404761024, -0.016151758516812196, -0.009136261867980838, -0.007024198166315169, 0.010338102472488016, 0.011261648741025133, 0.005472267641542226, -0.03545818938847153, -0.05919575909627097, -0.010033801573868524, -0.029205003335025032, 0.07599310824285, 0.040030970634978735, 0.039015959341877945, 0.009156779187022932, -0.022486159204763337, -0.006994410344724315, -0.03997064381947769, -0.16180958208398413, -0.34249202030684534, -0.26021100166833383, -0.012746643119364836, 0.28965336968642896, 0.4256189052061491, 0.4396965708901725, 0.3509521716188801, 0.36903261223883993, 0.3168096349444485, 0.11293610222711237, 0.08034829629089778, 0.02622004515790906, 0.0005000106510550111, -0.02688043280242572, -0.03529477262595062, -0.02190892723805687, 0.013816632857734637, -0.10616450768801143, -0.026008724990034537, 0.07068323983816557, 0.07973443018399635, 0.10923701593626735, 0.0724025847336095, 0.016679001720893004, -0.04150637576445175, -0.11075309094897733, -0.13931698980827154, -0.32573266847594257, -0.4704829808007095, -0.45577921894016465, -0.1049722247820887, 0.27579483733810134, 0.32881074701828594, 0.2437233368310355, 0.24193522501581213, 0.32519627917897126, 0.3202022470818854, 0.18335962816464269, 0.08047481031476039, 0.05375088056802803, -0.0186510917712226, 0.02243330908644497, 0.0043668931838295325, 0.012433612374236867, -0.005466271566630771, -0.05916594779389507, 0.003970799207785465, 0.049266240661802296, 0.013715977309562543, 0.003203173341832719, 0.07492201865612239, 0.08581757041267167, 0.111120561155651, -0.0010149591124109403, -0.12365083314441033, -0.29654400360945304, -0.33484343072079586, -0.10315117364964564, 0.127587522051012, 0.32858757201592625, 0.32405808240559825, 0.1444876991724511, 0.17868102769110425, 0.2162715435676769, 0.2899943044779915, 0.23918425130293694, 0.1547006883368455, 0.008559416389008354, 0.023104798700386033, 0.007825767654213528, 0.015639054694898555, -0.027354623948665745, -0.020331583637734133, -0.06729790863111866, -0.011791551762685742, -0.005387579992746498, -0.02743287999172069, 0.012727075413700531, 0.038222230378398364, 0.05578071377333036, 0.03647495767701843, -0.06297485430937684, -0.27156805880465645, -0.5518664133871309, -0.431730312550485, -0.016326003310235808, 0.20067084269053465, 0.31269470305061325, 0.24676087994760523, 0.08846356845830051, 0.07978918811662462, 0.1531590841566891, 0.3480789152064168, 0.23745720548482088, 0.10460652702234335, 0.0604315742506467, -0.035600207326006474, -0.0019689859846904667, 0.0008142648720282705, 0.019940837859777506, -0.016884196316773726, -0.021772744193417296, -0.0743238748187723, -0.08693008303969794, -0.030887369898299325, 0.009640114326144495, 0.04548503512967498, 0.017733739209739932, -0.024057784691132424, -0.10189978232128155, -0.332212482140297, -0.39658451079562573, -0.1525387114843536, 0.06192615832926621, 0.22483253259381472, 0.2493723109828047, 0.10824038153960527, -0.05249868127630378, -0.08619905564389277, 0.07071410554817105, 0.2292556330275114, 0.1586495605564908, 0.08731676100152479, 0.0025975797048594395, -0.022678676521877977, -0.014910960468900199, 0.018951359954064974, -0.04076417355346838, 0.0011057408077086038, -0.02343145274034224, -0.03220744782607407, -0.08650996480452082, -0.07644345622969773, -0.017897379178849013, -0.0017390984207473943, -0.013170120334818325, -0.11983431658997408, -0.11358958288707491, -0.1687728936082449, -0.12445942825639862, -0.07200142634584214, 0.057826305334280396, 0.09357999316622956, 0.03578709205004385, -0.08983096587455253, -0.26892703593202, -0.20387157324970354, -0.051932356378851185, 0.09728808856923812, 0.14432693733274465, 0.07326201910590618, 0.009756419633568174, 0.02213970245202775, -0.032653450547201056, 0.022403302976077767, -0.023579297000959377, -0.026393528638447152, -0.07129496733972679, -0.05279607371463267, 0.0047931739073408626, -0.06662509704109343, -0.1107381889727153, -0.05254103572053125, -0.030005747149421558, 0.03141883864723043, 0.04325284998986535, 0.06715158802679325, -0.05896580654619052, -0.1258493322173866, -0.09960200763230438, -0.07389700651567142, -0.06411702076111661, -0.1505498253374722, -0.21918258049463696, -0.1923851356201502, -0.10188119231399133, 0.015175230531114362, 0.07024286386366427, 0.01546377028102773, -0.007940192976262113, -0.03182146219372471, 0.018520134219699905, 0.020434630651075536, -0.010899027877734845, -0.027730891886789594, -0.06545540051378496, -0.02998785204725538, 0.039672713505407034, -0.02884280282011585, -0.00320926245097322, 0.003075038587570055, 0.0909352705262217, 0.24020402658634607, 0.3336278020538023, 0.20747592658630487, -0.029874040810305154, -0.12970137944750507, -0.18085496002895945, -0.15209297659071547, -0.16343270758069908, -0.2232602349800265, -0.0609430588883354, -0.08630645198280545, 0.0370233220015374, 0.010010635865154164, 0.012462156072561861, 0.024919009778601908, 0.007007810043683833, 0.004469444468709263, -0.019442569493081187, -6.227000113512835e-05, 0.014512480013434807, -0.0077957042811260925, 0.01106799267741682, 0.027228474675256884, 0.008471954230142784, -0.008993505242082115, -0.07636859683925341, 0.06225058820794085, 0.17186742160427534, 0.24183907675041544, 0.3085081585552636, 0.2132887959425012, -0.010996445398886608, -0.07621624773523408, -0.18060607522234493, -0.1733423706926553, -0.1910481299547656, -0.15440884497573124, -0.15886932582652344, -0.1382633994017579, -0.018444987962291475, 0.06628278997437169, 0.042851092242564934, -0.005502382286034219, -0.0062873900926367, 0.006560305563169783, 0.013634548301835173, 0.0294903981704895, -0.03236839731766246, -0.03073516243943719, -0.022750770657173427, 0.012514030487043566, -0.016764503112135738, -0.034790915218866465, -0.06426414102355019, 0.09524839789462758, 0.055825504346745464, 0.19416100646429013, 0.26391911770381227, 0.23662258981090972, -0.009818506671328137, -0.09582391453589109, -0.18308680129036572, -0.29726007577312924, -0.21504473170143645, -0.22637524325216848, -0.2886124657946218, -0.2349727145381113, -0.05707885370393285, 0.07736272742356369, 0.05620847035773112, -0.035726423088697536, 0.00024234132275027705, 0.029326455109330126, 0.014119728668469366, -0.02437303930333931, -0.01579689714814379, -0.008182105164067255, -0.0351038017666393, 0.02961441357889583, -0.0523056456807056, -0.13773749021026968, -0.052699079783701266, -0.002818973672139058, 0.07355702799244992, 0.07316126487715192, 0.22785568197471173, 0.17576057568004327, -0.02534475287301372, -0.07797663050785288, -0.15501571544780815, -0.14761032502901553, -0.18662959200697074, -0.19983256639850425, -0.24209065774659463, -0.20480352731536972, -0.07753231167849825, 0.05360893914105773, 0.0807119143822364, 0.03685996250618047, -0.006465096819286952, -0.02382882195554563, -0.03290616856374917, -0.019247257666372714, -0.02955845954643136, -0.03850522963249771, 0.008349308004105844, 0.09145682438350768, 0.0632747138956392, -0.043791966773656335, -0.05945561686783936, 0.0726075571501094, 0.06481273639110753, 0.15603093282030797, 0.2701868682703824, -0.00831177453061613, -0.10869354894430329, -0.14402921370959929, -0.04660196839856042, -0.053043238607509056, -0.12288007060772255, -0.11675309441187602, -0.1006791725917844, -0.05688977550131878, -0.039091667018109774, 0.022210499909197687, 0.08760720749127521, 0.03983225394123757, 0.016795335420840725, -0.0014679750614420904, -0.028982757405487315, 0.0006871505930901179, 0.02165114098991202, -0.00034904446955720607, 0.03306417720558795, 0.13180088832767775, 0.1703134389824879, 0.14597990305584008, 0.12413331283078273, 0.1768708560033275, 0.17548250699251822, 0.20916134581342632, 0.23976456819381192, -0.0007591786085907532, -0.14769023807786252, -0.15735361878558665, -0.07735034982247302, -0.019664323211734627, -0.026116681846002212, -0.09845671348732042, -0.06147016788150108, -0.07049323476515827, 0.07350092111826255, 0.05647130185126009, 0.07437775718034549, -0.03643306293345635, -0.0111697775454656, 0.0008397083410394287, -0.028229036371000344, 0.002644041645426404, -0.02900335141106643, -0.03136273461248997, 0.04962973448283795, 0.15765994862431393, 0.22826076945416954, 0.23540338127886057, 0.2796599160546517, 0.3262403274940172, 0.2738526746933587, 0.2554918025793673, 0.17134840501730259, -0.024205087065527185, -0.06791707898297557, 0.02517589989855528, 0.006082218468603536, -0.002796479799210058, 0.06827167612337529, 0.009480710319686662, -0.015374638654880745, 0.06240129215959239, 0.07019007911513357, 0.07601622050423405, 0.019306465394122983, 0.03596012611270778, -0.01826717323402656, 0.023598407087622664, 0.018017074495919896, -0.0184928908714929, 0.004913539914552518, -0.03474379955840587, 0.007900603075389243, 0.15716030461526745, 0.266042945519845, 0.3122992493372581, 0.3427517508989983, 0.37323774557932843, 0.33975113096718174, 0.20926079806490194, 0.10263151657585698, -0.03271254269904765, -0.09788877400224476, 0.03290185462601129, 0.04601808664199526, 0.04528777428287456, 0.045635715920818706, 0.01295388026929456, 0.02715557496887315, 0.12610073676405573, 0.13751512251062825, 0.07853325884133928, 0.061436929857543066, 0.014270028756920372, -0.033078127575464945, 0.03534458679282563, -0.0018250187743006894, 0.03168886736220624, 0.030169338022929468, -0.035427766423716436, 0.06956299548146896, 0.15955518223601659, 0.29191094837978543, 0.434273361683263, 0.4604059495738502, 0.3363805352661628, 0.24185838656882588, 0.15883627807442113, 0.07498382124690589, 0.07288787060736811, 0.10901443554024774, 0.056150820925103, -0.020673885733196888, 0.025749211421301033, 0.002570002578046965, 0.03336927286793344, 0.07501908127826036, 0.2133686485664116, 0.15664518602741925, 0.08166003377064095, 0.018289268304549022, 0.004848785146392614, -0.01624884572027684, 0.025012619319323044, 0.010489448874559862, 0.026953930074819592, 0.01460039415077986, 0.0027009077957178803, 0.05917580649546331, 0.07860570143857726, 0.23185865089159255, 0.32615283480218715, 0.40362172168247834, 0.34917441518787584, 0.26407803018394266, 0.27259072416472224, 0.18995593423057164, 0.2408050891962776, 0.23988022193155353, 0.21516021519687006, 0.11787232495325672, 0.05881177361883082, 0.1051942294698809, 0.13915298928824538, 0.12440464639810989, 0.14878081489639375, 0.1264660661998107, 0.008519542543957807, 0.03810946390445869, 0.004505483279845379, -0.0206452378710209, 0.018026119096426717, -0.014558964738891352, -0.0174580290805766, 0.02637696633851398, -0.0282504332233184, -0.016628329323933006, 0.032046561667796514, 0.07589842433600161, 0.11236842160239205, 0.1557171194330601, 0.17073022657147038, 0.17702544289163294, 0.2058467004727737, 0.22111273114665816, 0.29432345151007355, 0.30615906216113714, 0.18145260214607553, 0.20159278268914757, 0.11494974010768376, 0.15661332806903278, 0.1467264262110276, 0.13796319856752923, 0.0714890411754291, 0.028399201379038827, 0.015743902657906227, -0.010327199449911608, 0.009243498154755062, -0.034847138260123346, 0.02137584419203653, -0.031743538728149494, 0.018043811631131015, 0.030137805130086334, -0.034401810017001884, -0.0631843571548424, -0.06550845596881104, -0.0588575619812575, -0.06589042142996053, -0.13923244902201018, -0.10298925471949771, -0.08196862377859798, 0.014684696213788994, 0.08379582066351936, 0.15676573505152555, 0.17502624910555667, 0.18617000471569894, 0.10690772512083282, 0.03794521620610211, 0.12849339169637297, 0.11943022638591569, -0.017497553664229486, -0.08614466492379261, -0.0484534931970096, 0.009656623896412225, 0.01896850103350941, 0.027797626451803177, -0.02647313507563408, 0.008511047008293762, 0.001866433014822741, 0.006283432334819268, 0.008308221196594391, 0.0021567066580119665, -0.012214314768196918, -0.056267587180403235, -0.09197265472914344, -0.17320397945275848, -0.2673211376599638, -0.289644437114963, -0.2658393796630734, -0.19522129554942033, -0.26021347965708247, -0.11209236917356316, -0.08110438694930726, -0.03683581908053126, -0.09551804011975687, -0.08306054867808449, -0.0833778258540903, -0.08900555152910522, -0.07665363075619121, -0.05649985822191738, 0.00356987414591866, -0.01569039404682985, 0.004908092962801872, -0.023288215122121328, -0.012203737576491132, -0.028319271284077397, -0.013602302245354348, 0.032225759259427875, 0.02748347668208713, 0.026464899797223582, -0.009312555027612334, 0.01041976115291938, -0.057050650136589255, -0.04647446063083781, -0.07041563748250577, -0.1053079781281619, -0.15475298157831208, -0.11418957691422034, -0.07256485325651943, -0.06756079557501816, -0.16555737315557775, -0.10068669409558162, -0.08124062168190052, -0.08384417357320888, -0.10000359018437713, -0.07466835665866597, -0.06700578302299308, -0.029639125316177305, -0.03769337301777659, -0.029153367222941623, -0.03345609250456145, 0.011258010210154164, -0.012976969016953301, 0.02221958934921707, -0.03117054903108345, 0.00943770598709151, 0.033716479486726236, 0.010685699261853476, -0.022589751977148298, 0.009751577400919984, 0.016325324753020388, -0.004397451277226886, -0.012279580892675277, -0.028485341742714023, 0.015237498076332366, -0.014329084506855938, -0.005538754017981344, -0.0445183746766834, -0.0642219042349955, -0.04750053595604567, -0.012101067670096817, -0.007679143624149769, -0.04045296598833524, -0.00685110031761899, 0.021149003738017612, 0.023956554620108907, -0.010729715764496259, 0.007490829200936373, -0.016141743056250497, 0.01518419898635627, 0.013621783489416, 0.03131433342333982], "bias": -0.40479003855679824}, {"weights": [-0.025864358529701086, 0.015611290072380588, 0.02034386755066231, 0.022412483072855226, 0.007789936320206754, -0.026157879119966997, 0.030085666245928316, -0.005985159427196844, 0.023085284501440914, -0.03479233030082625, -0.028772976905655785, 0.015030829798226494, -0.0017037912391827282, 0.021167139879341226, 0.01428767783471332, -0.014696004765445374, 0.0022018627637269556, -0.011685776072538099, -0.015976603981597906, -0.02885379376278961, 0.014073605933084973, -0.034805800703647964, 0.021282678486952034, -0.015957171367194576, -0.021821561731466564, 0.006162469519512277, -0.0020705494178854256, 0.02887180453765685, 0.027326242867063144, -0.027364785268397487, 0.026920859167508984, -0.004463939063372231, -0.02133342788417673, -0.003565542731613057, -0.03222139583191821, -0.0355068842945915, -0.005675199401117424, -0.028082858730271706, -0.037066008442146234, -0.00903027263380059, -0.011870174269690495, 0.024869794267162366, -0.02583718820934189, -0.023009007839547187, -0.014619341244657242, 0.0029660378811569073, -0.026335137518441014, -0.028557754329747647, 0.026590953562990984, 0.0035587032982348815, -0.030744870260908826, -0.01676529353502837, 0.029086980546251626, 0.01825135734526112, -0.022095217703440133, -0.017012093730016956, -0.01827971838805269, -0.03291425183932004, 0.0353653474091483, 0.02730087298616499, 0.01141044502044657, 0.031112172495999468, 0.020186960564759666, 0.0028455361787129633, -0.012543667197683466, 0.0020455880495976416, -0.025913814932552327, -0.03403979164092431, -0.020731213854031462, -0.035902543418438806, -0.04255826189330405, -0.08487139960614878, -0.01655340426446245, 0.00039441380887665536, -0.05502720716853591, -0.010372768831622895, 0.017121026358102934, 0.013625552606590317, 0.003278686047994049, -0.0317360400139115, 0.023309787542647276, -0.027297615386144582, 0.010254803461989537, 0.01196269829880519, 0.03065427167216478, 0.03467904310386348, -0.007283920048322409, -0.03575944139573869, 0.03138185360099273, -0.012347744851385994, -0.03969079073670267, -0.05310927447076113, -0.04735046825636554, -0.042837854663573746, -0.052528794604400644, -0.09754673528314904, -0.12692357118215267, -0.09453714637941564, -0.14390492559602883, -0.1390214695607126, -0.1463162638889403, -0.06659846885191195, -0.013936035201155801, -0.02001183375994982, -0.049505348113464416, 0.01611633979122786, 0.03141113313338895, -0.010511704746599744, -0.0005598802144117078, 0.02155673901480358, -0.031128314869769393, -0.02071763042847735, 0.0213892954146361, -0.022734039566986473, 0.011162414953408018, 0.02459231997297379, -0.01995127887453081, -0.006667442720791144, -0.013431403201592973, -0.022985166964665994, -0.06344790251085794, -0.06303722277539894, -0.09891888799520085, -0.15203905660772538, -0.17004201795137266, -0.17048791236966146, -0.23598840307991403, -0.24356464772975683, -0.2257203876898639, -0.1477502310879967, -0.11278439065630598, -0.0786432183134896, 0.02583689507286536, 0.03866940218857882, -0.023439219694091448, 0.03002264987293746, -0.028341373812299724, 0.010715613473285774, 0.02560142274794682, -0.035147158449773286, -0.009900511683654918, -0.013136724820777886, 0.01855101787008267, 0.0364551665507827, 0.019187910980458002, 0.01237402964137419, -0.033778737339574434, -0.06833404344873727, -0.039540068647582326, -0.06404442277698533, -0.09703747987757093, -0.12396160914259743, -0.2027949638889365, -0.3215089851139189, -0.36319198647668105, -0.28456843752611627, -0.32886867360470234, -0.23203733723035175, -0.12531003418330586, -0.14846522129957018, -0.10268661341823271, -0.032714975040795534, 0.011338989497000565, 0.006218008619666423, 0.047555370977406926, -0.0011318845708212593, -0.03565575948729816, -0.013485525847722847, -0.005361408179631568, 0.008840810256880612, -0.007020906559762612, 0.02164097473906607, 0.001721534291168344, -0.03160154889875129, -0.04964733022647006, -0.06473986153245052, -0.06143747852917873, -0.07176267287901059, -0.0475952394628685, -0.04551875614735665, -0.0579881207967462, -0.09981729884583856, -0.16478417864570666, -0.15543791867064133, 0.013460081614412108, 0.11927543736122975, 0.048351911272115196, -0.049082407661721825, -0.09232661003964948, -0.04919572227614473, 0.0019034859768242353, -0.04896687926417865, -0.04883111843479694, -0.05992693610131409, 0.004078535863464616, 0.02772537313588242, 0.001768375531778725, 0.02576432177270352, 0.005070731384671861, 0.007704826764260896, 0.03827611526635981, -0.009950922698990979, -0.047421268341051405, -0.07750489530957727, -0.06893264462832742, -0.017773307367443494, 0.03757638162840397, 0.04221852782488472, 0.12290380481663707, 0.005214139126658765, -0.10544676208915318, -0.1526011485534423, 0.06403047199149496, 0.14158870418887287, 0.10487243126203159, 0.07081821427782022, 0.11314290086328777, 0.0461494778044193, -0.05070455791961939, -0.0965348065249446, -0.13657881614826892, -0.08680288340022169, -0.0011855148754242918, -0.013295005018698581, -0.0008387011043257692, 0.015071550701883079, 0.016351274633171865, 0.00914473799751474, 0.047564742299722955, 0.011556949627883627, -0.047558592074666006, -0.0014271333074547877, 0.044402285889492396, 0.05294547174811551, 0.0522387397170966, 0.05685419903783212, 0.0444617179091537, -0.049808929829840934, -0.22651966201996832, -0.2040228029418851, -0.1134799162775131, 0.04933863229791427, 0.14368691078762547, 0.0745110194877337, 0.05690077282794265, 0.023476039494439528, -0.03898234480609548, -0.17778407281757955, -0.23628713716637958, -0.0998296769677146, -0.021886945431169074, 0.02472052292385009, -0.016233731291270738, 0.023286071589609804, 0.0431688815419546, 0.026406243187659134, 0.034901381275675825, -0.04298394755085994, -0.01584492845010731, 0.03710110079483033, -0.016634508824390225, 0.06147989599873126, 0.16842341131911415, 0.06782733927124895, 0.0763505745164701, -0.014916184160146707, -0.16453752005323213, -0.09955655641751907, 0.04392101630075772, 0.11956060986982174, 0.173802680206411, 0.11837087720657725, 0.0796348643934888, 0.019803821998512397, -0.1318193919860463, -0.2900624818482758, -0.2672991777544041, -0.09644472220383138, -0.014274437990876764, 0.020111663011673362, 0.0047830195278290855, 0.0223014513122147, 0.007692351626717203, 0.04299068923790853, 0.06988034542168893, 0.028124067748540375, -0.03596694447241484, -0.026544632871196294, 0.0570890350101866, 0.11289819847745117, 0.09105122610953131, 0.08539099252588588, 0.03753276465998662, -0.07986427181260608, -0.23700061133017827, -0.016924845820413748, 0.22066869844499437, 0.2653397578002095, 0.2499998989843472, 0.13199418574804436, 0.07532838244457087, 0.0618726286080245, -0.16953964205907107, -0.27811366698723494, -0.2801028597037157, -0.13974427882827375, -0.0023610185555503335, -0.01773967555559203, -0.024228582997365702, -0.029451265259185965, 0.010654455113293344, 0.052133696822137046, 0.04503152401741031, 0.00826565558528136, 0.051861459262571706, 0.03292152041588838, 0.09462524432843646, 0.06800564743155253, 0.11934088712369488, 0.07717091444343178, -0.040843888374721554, -0.26690007907008845, -0.11893318026797033, 0.28356982828136607, 0.44238907693121327, 0.4211397342589382, 0.3392068764114976, 0.2661060603235836, 0.2846216877676774, 0.06877167481037158, -0.11825801317219686, -0.23308543693891703, -0.22323507089846734, -0.09262815471829837, -0.017261222453100904, 0.01060088456645568, 0.009123210091145443, -0.02663521018934041, 0.009280328720647768, -0.004388891608173044, 0.0655681467957215, 0.08202588814343208, 0.12211395183461728, 0.162648889594467, 0.18750573633209677, 0.061791733749904466, -0.013016622719405953, -0.13417307543284132, -0.24055943628410356, -0.24921339821858035, 0.04789734361562871, 0.45179209974350704, 0.5367754850418944, 0.4951917235429257, 0.36130342424000755, 0.34256540968481347, 0.21122034632606185, 0.03506374178852528, -0.06498233055913415, -0.15005264885213507, -0.16468184976587472, -0.060622738867315035, -0.010281207519548247, 0.010935034178453326, -0.0031216047023925916, -0.00907091999854782, 0.02248870728175441, 0.0718235831496011, 0.12799023445657223, 0.14855540194261646, 0.1334020641492825, 0.18979402679439197, 0.11535582091962558, -0.05302676189726565, -0.10941848465903442, -0.2468981986329697, -0.37292202171062133, -0.13907398599273885, 0.18444498530469816, 0.3458470422248091, 0.37074502101174955, 0.39016354018612603, 0.34784532064311374, 0.34808536314959626, 0.16279355319780783, 0.044001834453618625, -0.08697578542753308, -0.1749346073399195, -0.1444538621658204, 0.004028647089976918, -0.009221824064419536, -0.0003540739597808783, -0.023317574619935444, 0.0302392794949126, -0.0068392281493718995, 0.038066697433965825, 0.11990001209045703, 0.11530630162592509, 0.07150344975510403, 0.1387639115935035, 0.08482223380183572, -0.06749863977745138, -0.07344929433791268, -0.13989318880167034, -0.10418026866521438, -0.03646141092715329, 0.04680159249725108, 0.220945766490312, 0.2991131256188612, 0.41692825548394624, 0.428676929765467, 0.44581874494508317, 0.25547107084132475, 0.03123585259414373, -0.05431504275388356, -0.11883577072706868, -0.0816442410405442, -0.024609640883487775, 0.011353654020411318, 0.021050950914172747, -0.015362310411481863, 0.027783928176393462, 0.024247090870730043, 0.020010036997095314, 0.08104246280549215, -0.024134648270357478, -0.002433182032387657, 0.10701011128380455, 0.065887922522209, -0.07217053624361919, -0.048746412435100195, -0.05857032958959625, -0.08020299800933779, -0.06165565759488886, 0.047705610919207914, 0.23976102217946607, 0.3490916575781057, 0.4764069803264372, 0.45097036024222437, 0.41995923675383845, 0.19450610124729595, 0.048291063581788134, -0.06943591413030055, -0.16120256354264767, -0.13242656097147162, -0.02520245490400663, 0.01324115829210629, 0.02763396616754541, -0.00949709171667033, 0.009006570244437934, -0.024275005503567457, 0.024135780145096385, -0.030133578435375362, -0.05031586570229262, -0.06605613971105795, 0.15404468085337364, 0.16103142118768182, -0.01267855118759892, -0.034641444657575744, -0.040578239319622726, -0.026727621327225365, -0.0061939915960943824, 0.09880395023637671, 0.3220455345839757, 0.273408829008706, 0.3330478732061301, 0.29113252849455806, 0.17024111869469918, 0.08132228029881294, -0.03369636033196021, -0.15781371059535962, -0.16005477307809038, -0.10590328298061745, -0.05604278238994831, 0.010214060431501262, -0.032956630390262386, 0.00959837191024348, 0.01090025071526703, -0.024329931439536087, 0.022704460712258605, -0.09171380203422622, -0.1841644657933046, -0.16884610070779174, -0.030846322492217592, 0.03488730982237511, -0.027312506324295563, -0.017071584007667402, 0.030799868155760232, -0.03563770102174018, 0.05082881765823525, 0.10543125881034339, 0.2818881548554166, 0.15078875453489882, 0.14584176619724873, 0.1182603404542615, -0.042921011576966296, -0.11782979735880379, -0.1797170318887852, -0.20335937157941925, -0.21698848029609502, -0.11210355760937596, -0.05737765396887766, 0.02072048597042332, 0.030381660430215722, 0.026935442667926406, 0.03333086519411858, 0.027751645639216994, 0.023003759047104645, -0.11957123675000826, -0.19585997789149104, -0.32701254839577143, -0.29190426698841254, -0.20889877753124125, -0.20123527841226965, -0.22116975737388606, -0.23637819774689448, -0.2285287635255983, -0.13258141643315943, 0.037585434185049255, 0.07623521762993886, 0.017778893909522968, -0.020962272134964897, -0.16865785843976414, -0.23345351756121238, -0.2357704562149213, -0.24748179821383628, -0.30271466572399763, -0.25284704936836344, -0.14343167882095717, -0.025538924087846915, 0.01772515775339534, 0.002537360241432701, 0.028103226891319878, -0.014939002031501097, 0.009548902911809575, 0.002831367300421563, -0.10508673415159404, -0.24259854029337063, -0.367873953345987, -0.4450021422936937, -0.47587159573462273, -0.479288649084767, -0.48126761350003394, -0.47723928488734907, -0.5309674722800707, -0.27472786162658835, -0.12258417765858433, -0.03963642638363, -0.05366884284747351, -0.13903260548754975, -0.267624438270045, -0.3070845917060323, -0.29856159376369346, -0.29701484460286803, -0.30426780304975215, -0.28474148968549634, -0.13622982909323894, -0.05573400011380612, -0.02481763989020058, 0.031518774196836574, -0.011824238053993248, -0.030830860927368912, 0.024910294793431653, 0.009726791853267884, -0.05575340957192604, -0.22377251552519542, -0.36466998295235464, -0.4550283998811912, -0.4496496141335935, -0.5618310513261281, -0.543749880047321, -0.5721854767212198, -0.4645306119553003, -0.299700408754288, -0.15430463972021266, -0.06664647922596725, -0.08752782209783606, -0.19303452985473296, -0.3248577532468657, -0.33343117340761774, -0.3238806335777574, -0.21511209988446806, -0.2611835311582398, -0.15529010334476834, -0.07018455602619561, -0.013333751735330116, 0.007638851689404087, -0.00869511450255656, 0.010914994778048718, 0.0333799198853142, -0.026582261660017245, 0.013229209821671882, -0.05149730101336412, -0.09762469176041702, -0.24381565322723436, -0.2569718933782563, -0.2596304097239962, -0.28639333524125815, -0.3688044123323476, -0.3747170085733674, -0.3449822242074355, -0.28304434897040814, -0.18963526985366597, -0.07334883913261703, -0.11689779860272818, -0.13665168780711257, -0.2555071632359388, -0.33372811737155195, -0.24493658553432576, -0.21657257498893343, -0.2163474801656191, -0.05428229022082546, 0.014792910690663094, -0.003497278616912227, 0.007956762752065825, 0.030837637103310965, -0.0022755475843148285, 0.009240181009236402, -0.013073235136942543, -0.01741384875025629, -0.012855772943618707, -0.0007862761397558137, -0.030173259859893553, -0.06842123366859656, -0.02145616568788084, -0.13535179015579893, -0.1657247336901149, -0.20807583833460858, -0.23378003241658493, -0.18532345665524144, -0.07835348062765465, -0.0749724989469592, -0.09136048892503497, -0.10644523087373246, -0.20236136628274554, -0.2512238436792981, -0.1544686156785013, -0.1261133020089584, -0.07119332406093262, -0.026824796512625322, -0.02876545972952291, -0.0101876891901405, 0.0176450545296304, -0.02267494599330077, 0.010371010313766887, 0.008033938868642676, -0.034002535673408676, -0.03359854903559619, 0.052154460937271316, 0.07488495362459334, 0.12234572681726678, 0.12170370099594509, 0.026357438623788507, -0.07314498968681807, -0.06580677356490584, -0.22392688795571913, -0.211367095266573, -0.18740092566102465, -0.13875924127512998, -0.24993870765539025, -0.22075796427078287, -0.1322399619178238, -0.15089303029882736, -0.14935084831618212, -0.07934051307943153, -0.06216488196195528, -0.0013943551001387284, -0.009844491802239695, -0.02055232904914452, 0.009977462460713337, -0.03429230108480342, -0.02533213471725399, 0.03361852948226307, 0.010891814319865745, -0.02646209835208773, -0.024131078087643386, 0.0820885763176594, 0.16243384150903128, 0.2245343827140524, 0.19785928809863193, 0.16266630281091218, 0.011154444952860311, -0.00015053628799719404, -0.1544321463056386, -0.16724542282863422, -0.2198481862991578, -0.25879069139461475, -0.31953363813415453, -0.17263939864681352, -0.0392870684532902, -0.07145598869193426, -0.04364385506126783, 0.041992598752204825, -0.00095276526353701, -0.018673902169712726, 0.03549649986994248, 0.02394831210185622, 0.0051844802524385015, 0.02503722031681945, 0.00238737931965112, -0.00010927185993253596, -0.001371666331388792, 0.010945643195957266, -0.022614111345366734, 0.023409071038635647, 0.06117589730017972, 0.07537712932940849, 0.16535395953529317, 0.22757622163568778, 0.13833609598591937, 0.028380713706903652, -0.01834598451407572, 0.05487976042218733, 0.0361212690399419, -0.017278128132725945, -0.06205177538323151, 0.009881190915687161, 0.08048692134292795, 0.13173024036620612, 0.07640402797652128, 0.06157903985027002, 0.02244095738276757, 0.010155070868435501, 0.03988153714577386, 0.0156949160090298, -0.0018091416163043684, -0.036419861564825164, -0.030311616146736543, 0.01835490112370771, -0.0043401831042588004, -0.027106171448496235, -0.00905256951679394, -0.0025617984222052284, 0.013231484244757492, 0.011247916639017667, 0.03111670182696878, 0.07961155381298256, 0.05848856100145026, 0.09302619454449108, 0.10203920736132706, 0.07504167804127694, 0.08074070882712887, 0.1486438959419402, 0.09187678884779063, 0.08507393501780822, 0.047823587468423176, 0.09861839629679409, 0.07046725738619368, 0.00834938656539244, 0.03621042289212641, -0.017657275447266852, -0.03300993182452006, -0.0014484991218944115, 0.01831910428203063, -0.027624942095406217, 0.0013488242764225847, 0.02902419336278181, -0.03126331210438701, -0.019917448393675864, -0.03207665739633867, -0.00911994391659086, -0.011056876378981841, -0.01337412798951867, -0.010636472025517024, -0.0118588140014346, -0.0059277767385056196, -0.02343912770773291, -0.023611710554529312, 0.007548901358819305, -0.0024548819607349884, 0.05799739694995639, 0.045529931569636174, -0.0009619302280746363, 0.0007044077283310086, -0.009978804013662343, 0.015827747061462304, 0.035828098947894675, 0.008672542766609299, -0.026127710789123338, -0.01924035114573712, 0.005450158734914605, -0.032568259486829065, -0.013315793597713121, -0.016365300764688125], "bias": -0.012115009786133678}, {"weights": [-0.010369517015777405, 0.02817089135171015, 0.023328551847497964, -0.02089940339130724, -0.029287297093402845, 0.0072807694555984195, 0.0007656120941154018, 0.014432427078610595, 0.029876926107123225, -0.03520632259167784, 0.030786045030862963, 0.015124706284201254, 0.024028851183516654, 0.020375424486493387, -0.035447683568793895, 0.013349480210478906, 0.01173328224768197, 0.030763561564117886, -0.015287388432588356, 0.02931068921227417, -0.020791731351946428, -0.026914277801436175, -0.02404232055044382, -0.00017814949266283658, 0.020132802420007048, -0.02499322926169463, 0.00017562263783049703, 0.021416996595537217, -0.01065378492514028, 0.025560602426887416, -0.022995943915267998, -0.011418765467885308, -0.011070823515050461, 0.010946794933118967, 0.012495069176596157, 0.032214190321553454, -0.02247951631341693, 0.005244051797754201, -0.02846251578142547, -0.033496551234830516, 0.015785743394308688, 0.0029032552546671, 0.01954207792304597, -0.028355197108503146, 0.011839825381718013, -0.01683272708395019, -0.025896670310808206, 0.027056753050353193, 0.03341404580521987, 0.02310391539786547, 0.021501998722098528, 0.03331885494802139, 0.008187935231189845, 0.0036888019373730874, 0.0006663035016438515, 0.026798045227776263, 0.02958649542133608, -0.006414494926388355, -0.006802296155856914, -0.020722681951456386, 0.022241162919906778, 0.007638681846302889, 0.024428120095325658, 0.022256545231888664, 0.010202642042119967, 0.01777496297688725, 0.02531930743370834, 0.00037476714374043755, 0.030744807511929883, 0.0008751647023726661, 0.016614453982406296, -0.03134071163770728, -0.027329465581584257, 0.0033769277355603132, -0.013827233434233515, 0.032037425104371055, 0.017236921923226074, -0.022214105132580986, 0.008375216188341049, 0.033904099312174016, -0.02163331992077422, 0.0014265248368407913, -0.010278237841354367, 0.011941183008090571, -0.010880335239250447, -0.012595993311603635, 0.0007439779831055703, -0.007268842284511175, -0.006473360833868547, 0.040375941464335645, -0.01495679674627329, 0.01357442237794425, 0.06950797721991198, 0.08200086146966112, 0.0757602116466642, 0.10110565266812216, 0.14640289583366828, 0.13503770112625102, 0.17113560439762932, 0.1379595904945122, 0.17312994687132388, 0.12530816054766367, 0.13147044747472653, 0.09141234620691593, 0.05047459863625762, 0.05650914449972826, 0.0007628215263534111, 0.05392001259213045, 0.011660855841181527, -0.012947425188328945, 0.009220958119740068, -0.02189429425492275, 0.008739769356281978, 0.016992093861852554, 0.009186095722535061, -0.023345125761835037, -0.002886877304730373, 0.0669130612250903, 0.039081156783671765, 0.13380136802360745, 0.16129918145267994, 0.2628066822261658, 0.28552843667082706, 0.2674210016766331, 0.22300477051236198, 0.20398940796619755, 0.0968580961811493, 0.004069638065278999, -0.00018155648080788494, 0.012951270105282303, 0.07374205115920414, 0.09279014229555052, 0.0924767647577101, -0.0577273395786339, -0.06222135548616181, -0.08775832726595376, -0.016093576780598813, 0.02692451365051988, -0.025968084529157113, -0.00576637920221417, -0.02997397020728047, 0.0028570823761919703, 0.003893283513828492, 0.0019960923347493104, 0.00971576893395181, 0.1014397219816771, 0.1883957106814103, 0.26941370511679674, 0.3313768426049647, 0.35036228552644993, 0.31875602296905003, 0.2039114169669839, 0.10789763782990798, 0.1844710219161257, 0.05037400097740912, 0.22910142082415302, 0.2998581926061413, 0.15388518212087313, 0.07264834129722784, 0.010570298443433226, -0.04629530788243026, -0.12007035597514684, -0.21160839072989665, -0.20838975887708808, -0.05512591170150546, -0.05322240996836175, 0.005911178820029503, 0.01642600879852363, -0.004965011289319421, 0.023794640547027165, -0.020214391715259315, 0.03142983928242769, 0.11085784749317817, 0.159440586654282, 0.25350355162507926, 0.25709088009465936, 0.22786785813534807, 0.08463437515258002, 0.1361399339056944, 0.05997190336914561, 0.12400047817797323, 0.26934139450369626, 0.22877606997732827, 0.22466072758407013, 0.24211045559155864, 0.17247906532961815, 0.12565154915960264, -0.03275163145335237, -0.09543256939966258, -0.13810388592946704, -0.2590002067007595, -0.27862153384052085, -0.2660711236533479, -0.09929754456209529, -0.0470756988804819, -0.006378066465642335, 0.03396289820762044, 0.026360609499226577, 0.009839604897005898, 0.01587584926666279, 0.1523757147287122, 0.18668530693700158, 0.2655777439207432, 0.11126205714885964, 0.0013534758032152313, 0.015772391881079154, 0.03675569558309346, -0.0483204101003387, 0.061529547195580306, 0.18237965976325649, 0.1831614445458356, 0.3010318661656084, 0.1870670338976921, 0.14860849463366282, 0.09232563646682226, -0.012321114585276976, -0.08189889656619044, -0.10800938007485078, -0.2636743389173827, -0.33770165728417256, -0.2901659855381217, -0.1761278003501581, -0.013638580703600373, -0.01509704417823801, -0.014322217904781961, -0.020052928454665955, -0.014240851728514078, 0.06996140013097761, 0.15917642253622954, 0.18843201149042013, 0.19646748854072305, -0.026477530295678148, -0.1507918423663872, -0.14254495539896986, -0.10642411489984241, -0.2558469138320258, -0.27239645890268765, -0.14363395874944054, 0.1904213782340687, 0.3934932118653226, 0.34162568397731113, 0.14280983375059994, 0.10297571397090302, 0.06927116449234395, 0.01057331491864899, -0.09617474249821678, -0.13612527462344906, -0.28134034533821084, -0.3330242147661547, -0.24027246593849014, -0.012231493224788568, -0.0231423249775419, -0.0011263533019983524, 0.01810552340142988, -0.008663046649558165, 0.04639857207521317, 0.11030742133933356, 0.08302560501412484, 0.022820350786964896, -0.20485621305275403, -0.36949365893840613, -0.37443708565567907, -0.37489265926043813, -0.6367592761405463, -0.5805496519337914, -0.23770605446331733, 0.15388759932869986, 0.4175565176823312, 0.4175818774078103, 0.2665022014940698, 0.09024514303040497, 0.15067648554353955, 0.09781417840706941, -0.03444666465379784, -0.1698873514183215, -0.23851456687023692, -0.29374102330436225, -0.16508783760407905, -0.040143632225222416, -0.03264208749253271, -0.030309186593017175, -0.022091041857078518, 0.020327370970685214, 0.050636404689713116, 0.04177921470828457, -0.04253097530163568, -0.16200454505251416, -0.47688775718121745, -0.5690980836489944, -0.6056497059240415, -0.7043247961883787, -0.6919884142506202, -0.7021091145333047, -0.4361906670366123, -0.14044731393156423, 0.03420649197770773, 0.24982524089390568, 0.17748444084229695, 0.15652252350489887, 0.2741369426444006, 0.2827405941085716, 0.01575508827195409, -0.013904067341784074, -0.02430371517347006, -0.15324347669615418, -0.14009657146359575, -0.04651514845106824, 0.015489071764350914, 0.032934677716158996, -0.02246096837733153, 0.006475052001419015, -0.009054089098837245, -0.03590821087145576, -0.18228029945357663, -0.3356328311369983, -0.6314385043096378, -0.6376360569094432, -0.5537083609923583, -0.47907803502781593, -0.3242614751613652, -0.341345391034003, -0.43850106130096744, -0.43161724827231274, -0.33291381994748653, -0.10351286839140492, 0.11611681679624884, 0.1089204296126591, 0.18797906310784623, 0.32487352487570775, 0.1705071232376837, 0.14598850672341537, 0.16350141985249947, 0.06613846262772986, -0.014746426108864001, -0.02794569901241491, -0.009273475938514247, -0.02082401110855197, 0.02184167006918919, 0.014510197675054298, 0.015538966008574438, -0.05261660861294591, -0.1838791485614417, -0.3102277635860101, -0.47779635199787635, -0.4539052009900486, -0.3494709563584265, -0.2543025112321209, -0.1597730428729046, -0.10322330557003873, -0.37018431249760486, -0.551927592687347, -0.40394682961451944, -0.15913135599566877, -0.13949969215321983, -0.11925588309343271, -0.05577467115901869, 0.005913594893524389, 0.033990239364231324, 0.13159309281217868, 0.2038032479912529, 0.21352217810485913, 0.013785908293042121, -0.009388693756112823, -0.0027071369290199766, -0.01866199373444863, -0.03506702121007859, 0.014922569379260012, -0.030336076310523652, -0.06913191802285504, -0.1368783503537774, -0.1000915409242634, -0.16671653649788742, -0.1951563721019039, -0.13196119667753728, -0.0957683113669421, -0.11771395633902579, -0.07976241328612572, -0.2894772661970342, -0.38629359615092795, -0.4003630113103507, -0.18723704207347408, -0.07270124992170178, -0.16000834153649815, -0.2466385934145602, -0.1775537329911256, -0.03511023545599187, 0.10210439002683688, 0.24490129221999718, 0.1731813992249852, 0.04407036842353291, 0.012481335698926123, -0.015886111929713977, -0.003358929377756766, -0.011739331682684484, -0.02313585169280514, -0.03284928233889488, -0.02607755189666734, 0.058601901123409385, 0.12055131882621191, 0.1763945254572597, 0.09761660972628525, 0.12537389681618683, -0.07961790007533658, 0.003683352873774275, -0.012604452950140987, -0.21261494349816284, -0.43494191479895594, -0.4814059539390774, -0.26381256538177883, -0.032381648600711424, -0.0975474619737681, -0.11243019551679169, -0.011291052210143582, 0.09355983226550546, 0.08684845895498454, 0.16746745748105807, 0.18434966954393917, 0.0411200710374269, -0.015941659825999013, 0.015970946725868282, 0.0293722155077387, 0.004811920426011958, 0.033524541654599394, 0.01584992453938224, 0.017427520342735137, 0.19749527665379363, 0.26541219376921993, 0.3950075799577701, 0.3071385414664467, 0.2051782325578055, 0.0655322854352486, -0.014670265030485624, -0.11508153543856846, -0.24026982669816596, -0.32892260660094685, -0.3595625932962672, -0.16445756137242465, 0.14158073863653048, 0.12275060451022587, 0.06721366220890043, 0.142575348656067, 0.1285558538998925, 0.19867168240903066, 0.19855908296618446, 0.16445628655945413, 0.06862804801548911, 0.02937749190622917, -0.00826535031317039, 0.010836982854672703, -0.0036849023129998312, 0.029104311574456126, 0.017236851745828206, 0.04543000447307534, 0.2111564004721264, 0.31690536609975123, 0.4089142288341446, 0.321905487589341, 0.18292175106736958, 0.07434232973067885, -0.003949780553275435, -0.020199405545846986, -0.10812283119192899, -0.3019113578848797, -0.28868245147627614, 0.014986611295394369, 0.3026697574659058, 0.3269861621346479, 0.25385670543388633, 0.1971372817877861, 0.20807309764073917, 0.19900676211205034, 0.14757297810407854, 0.10872227263010661, 0.05636751846381044, -0.013778575234878455, 0.035536202916102905, 0.014910634042930276, 0.011792214008758187, 0.02205750499344021, 0.06028791380847908, 0.09433576816472142, 0.14166194248208183, 0.2045078862591191, 0.2061292449082419, 0.23555462906995667, 0.06590043768988249, 0.03616747069501451, 0.021178882664474503, -0.0014829981313280456, -0.0691444590407973, -0.22946059626456647, -0.09383032571484068, 0.258366672305845, 0.31484451224903565, 0.25112723541063087, 0.27650226914976445, 0.1089266363141844, 0.13934875680044892, 0.19862988197749865, 0.09163962392937747, 0.08468295311789178, 0.0871457809758222, -0.008059671168108124, 0.004815558730596986, 0.014065824589078773, 0.015400637044409762, 0.02854465921640883, 0.04791968341999685, 0.08887472210919528, 0.1447363579818403, 0.09373983304738737, 0.05501335210817506, 0.13730839287708052, 0.0803013076338145, 0.038432319411748045, 0.010660313451334853, 0.04212095265115069, -0.04425484438866807, -0.07662747846827425, 0.23143356041640997, 0.4451748037167899, 0.3026329613241716, 0.27025490365861327, 0.2210219183120394, 0.08882787414960701, 0.17266368156943973, 0.16528984900953766, 0.11296967115388376, 0.05564554219960644, 0.04264712501163576, 0.03893836265852356, -0.023030596809574127, -0.03367192518244526, 0.014865557842508823, 0.022569386501580607, 0.14166534330321648, 0.15143443948275137, 0.1790243813666856, 0.11080460943115782, 0.1098403267811494, 0.06402231629879977, 0.0146302701750537, 0.15232244544135787, 0.15115691700023742, 0.17510777498666305, 0.05622244525518862, 0.09809022022353983, 0.2600408764437718, 0.38950142997932063, 0.2696285726341907, 0.332264099073877, 0.13920770020680384, 0.1634939059102188, 0.17451309531234313, 0.07921236384494339, 0.020657464382076156, 0.030549780849875273, 0.05341849470783629, -0.0111390537400498, -0.035656868152796374, -0.015203090394726528, 0.0012331562424225415, 0.007811415091314833, 0.1751986161971046, 0.21673782679418188, 0.16788305739367446, 0.13073481818082572, 0.18569023154092285, 0.05821264446044144, 0.11597044539664406, 0.19188896901108743, 0.19767207008923623, 0.10070580596334648, 0.03149858981443668, 0.15801109046096362, 0.24073640156213397, 0.26133013156098855, 0.24454404967347743, 0.24794887125035323, 0.12121096340118669, 0.17775753574980432, 0.0775319017885374, -0.039261717355006505, 0.034170494177141866, 0.03393659125078712, 0.029300979193869207, -0.01270378953285983, 0.031329594055078, -0.02894649403105137, -0.02509726321554632, 0.01770594602108831, 0.07779863696023945, 0.18457289513177705, 0.17388896735076045, 0.07088602707181785, 0.0719959421777739, 0.09992154383383191, 0.07745414964135305, 0.052230842477240136, 0.12909240816321405, 0.15556336568454546, 0.11717926222116984, 0.11295975846178984, 0.14309617415688353, 0.2811567743432289, 0.21677666657957725, 0.17904501959027144, 0.17185910207400237, 0.07365481711849728, -0.11733596284799924, -0.06616963868342786, 0.025824707682856714, 0.015949268678600696, 0.0048009714174633645, 0.0039087974888723795, 0.03244217961780348, -0.011720191033722929, -0.026443602230823298, 0.05821040302882835, 0.0997501578113498, 0.1323489733992004, 0.07569207935739292, 0.08999533191731524, 0.0644466977438219, 0.022144864461210223, 0.03729707892997395, 0.052044286705588555, 0.09870076593327874, 0.011089199024033736, 0.007240677755520501, 0.0020870738809027132, 0.07473317101587143, 0.061694898019264435, 0.013796366611184593, -0.043483351609962605, -0.04171425084590154, -0.10939290894458817, -0.08354357838854543, -0.03146114360828665, 0.0419712516744665, -0.01417423593335493, -0.028686437727218423, -0.03067470618924017, 0.00018321625910466523, -0.025151441899139815, -0.0048244104331133, 0.03447777317271957, 0.01736337950103897, 0.08573022039240027, 0.05152468400844902, 0.054933877506632506, 0.11112624449182641, 0.039012134836017044, 0.0756842570361233, 0.01754311759292237, -0.0020405694670766455, -0.012894001255174129, -0.11164026916848327, -0.1032770653405446, -0.04102749151127276, -0.14955777970483072, -0.21497759882525797, -0.1404725736125346, -0.08839679704207683, -0.10440071992758859, -0.01588133876802351, -0.025578303256241323, -0.04044424082721005, 0.04973549049628689, 0.03335915670605889, -0.02233059222839103, -0.030008634753304238, -0.013690758537908337, 0.027034383177516927, -0.00886748953663715, 0.006913969628345652, 0.06635692377384335, 0.01086478030004396, 0.03924820571892854, 0.11732068389961872, 0.14239994190845665, 0.06723410821264403, 0.09108107648838944, 0.12321169614766565, 0.16373759042001887, 0.13297357966579723, 0.07742848980524317, -0.055786386855215725, -0.0980555784161302, -0.13586236473501948, -0.13230008562269496, -0.17397294891796852, -0.08612532127382033, -0.08266099367394251, -0.023318563377375284, -0.03363059864068, 0.02680646020986241, 0.03179930039253884, -0.020555845963324073, -0.029291773341709022, 0.022256110561692508, 0.01192558567864379, 0.025577157325839726, 0.030257761115104368, 0.034183087924047284, 0.001051873742037611, 0.032477752144780915, 0.02482587602514272, -0.04669726607712964, -0.02542007871189722, 0.022005586158138725, 0.0008251001846606784, 0.011835965887748866, -0.03163336154508669, -0.03827800988938764, -0.08741637829289864, -0.11098445435131522, -0.1126308544269223, -0.11330981818075092, -0.035005322751149565, -0.05866704977350712, -0.009092431838838164, 0.002771926339168126, 0.02908663214373755, -0.01603019067530955, 0.025451026638173797, 0.011466059429599865, -0.029009718397937666, -0.018780092956669037, -0.017923738301505943, 0.004565780129806865, 0.0072632189744916194, -0.010537827749161328, -0.004076393626409346, 0.024433630035325924, 0.033376424202880305, 0.012826992495499146, -0.04309359619042507, -0.0345253782384635, -0.05235284696089612, -0.025166073493696157, 0.011421662482323722, -0.04214849275873421, 0.0017224579936034596, -0.0031677258210231506, -0.026735640670031435, -0.014742232419657475, -0.001998167816409169, -0.018150543207495155, -0.046982602293128284, -0.011445122312623401, 0.025603503855099536, 0.026759997655686946, 0.01314542324095453, -0.004197677531226081, -0.027429907858592173, -0.03255896868410293, 0.023955989410137594, -0.005020665595888277, 0.024306530639751717, 0.0297895069509347, 0.009841285922388124, -0.010025457052832674, -0.0023908827422235404, 0.01210797497634503, 0.004261377515012381, -0.009051757099778297, -0.021318589984353507, -0.03454063460816432, 0.017381070914468024, 0.005649926919392804, -0.020943706847104938, -0.011272163972370195, 0.014962322629547697, 0.031236920807635432, -0.008146784913000572, -0.03432191287994997, 0.02700843757241697, -0.03902323650588618, 0.001650454759372413, 0.023196858083118096, 0.01999040079623112, -0.034687316252534815, -0.016065748588851663], "bias": -0.6385982238982}, {"weights": [0.03517369899138159, 0.01604166033405005, -0.014839145209337046, -0.02870797552970611, 0.004954785377737879, 0.011933743792740037, 0.022441640023552478, 0.024776842989101065, 0.00697865300501356, -0.004569283981611452, -0.012547435273482448, 0.017422744350317716, 0.03173348572925879, -0.005873865159776704, 0.03190981418092356, 0.017233708820309255, -0.025039100771729033, 0.025070910122740757, -0.0003586967671768207, 0.012858876488473885, 0.017437514562189498, -0.008594973823817964, -0.022805551628150338, -0.011996973481236788, -0.034693269124213735, -0.027913659306821863, -0.022302196157002928, -0.013283743861719457, -0.014717985935731672, -0.027771422504022036, 0.0013020491813595103, 0.020757726830363657, 0.031332697937187834, -0.031928305970794005, -0.021851073256225734, 0.002137070097985397, -0.011298727180793942, -0.02334549817121287, -0.016178236237482574, -0.008569431315308412, -0.02126921085649474, -0.009244669943221652, -0.0201183527344039, 0.013586089882747052, -0.016268374935123082, -0.031090138454557558, 0.009073382270315771, -0.024119782119147778, 0.02329333779704473, 0.03428572958261904, -0.008298714584650374, -0.015918801940942768, 0.021144722491528663, 0.003303855435504259, 0.01784974923898048, -0.005190391759069275, 0.008187917588399492, 0.030007588248416844, -0.03203274402376815, 0.018994739681853827, 0.018226918677153536, 0.025578381370726273, -0.02931756866453923, 0.023340857648384745, 0.006075310854381348, 0.038738636877128564, 0.004033519856037584, 0.004684836105649572, 0.06520727901839436, 0.05224946450131234, 0.024799380956258735, 0.0313777657779298, 0.07754130084043294, 0.028103632528021914, 0.07108746084162083, 0.04936429610508538, -0.009092096095017379, -0.0035778129592085885, 0.0367895260657044, -0.02047152300543462, 0.005315623430631607, -0.013830314744473333, -0.011378007351393708, -0.003623960458283025, -0.007448448686799607, -0.010074611631362251, 0.0350206854116444, 0.02872431394784811, 0.004090355931988623, -0.024400323998719328, -0.018799577744038995, 0.03104794968940994, 0.0578891056995118, 0.06428827139134231, 0.00851789966342722, 0.03432202380879215, 0.06534099219047426, 0.11931109319519524, 0.09512420214889858, 0.07440806891467013, 0.14109830500443196, 0.14343504967277343, 0.11725768527521531, 0.10240633605028007, 0.10703989363608409, 0.03226719055184438, 0.023470976148406694, 0.06460064242374715, -0.02010303603025661, -0.014863236878380997, -0.01684001445803653, -0.004550008543577882, -0.03274946819443628, -0.005293822484981388, 0.025514385725679857, -0.021842922793387162, -0.008239570439255096, 0.016991493919435285, 0.007783489094783639, -0.015926176656205458, 0.03328219267590628, 0.03870947975254395, 0.03415264289894403, 0.040404723567178086, 0.07228743543795849, 0.014058292405173667, -0.003869449559341053, -0.053236318651996795, -0.007330507867692878, -0.0727763067972557, -0.037262004894281844, 0.05017982127164228, 0.01714558998644153, -0.0014907981399750836, 0.027127911958185112, -0.03084906674496481, -0.03534010908510218, -0.02064639567723859, -0.031853066855750574, 0.018612971500301275, 0.02190103871103706, -0.007871956883334655, 0.035409473910047666, 0.007329900267706485, 0.04384404926686488, 0.03135536348379723, 0.03894833840740486, 0.03291920734894494, 0.04503679557430395, 0.006594080263958413, 0.0022482846010102617, -0.033923467625307305, -0.017223360484350744, -0.1220518500218116, -0.11637615818028325, -0.04438180553105336, -0.01882042795871459, -0.1731938761253601, -0.24241555901942213, -0.1522227892862464, -0.13326887919587357, -0.2011204962619254, -0.16890693327270925, -0.06103310391997481, -0.04725633986846321, 0.029983867297043998, 0.030950139809309787, -0.0032814536245398206, -0.006056917033796405, -0.03043030953619317, 0.017393512175298366, -0.006031465710334443, 0.024039685279115323, 0.06325855816304382, 0.08639777983581173, 0.08869280127424078, 0.06677646376964921, -0.011414566982991902, -0.10953607815157142, -0.05872356143781146, -0.0021579163627834935, 0.03547585260159462, 0.17533475463572787, 0.3772863191283892, 0.4698233842130997, 0.2111415157615184, -0.051919138211868596, -0.1693434416322936, -0.24791199230655545, -0.3499739207451428, -0.3403783204999349, -0.1558611445419139, -0.05519924070822756, -0.06077715139699463, -0.0008651851764100436, 0.002717611852957443, 0.023892971912644542, -0.02189064393535625, -0.01729982874939445, -0.0023308617025118313, 0.0634756393375732, 0.025031061357715358, 0.013869630965597795, -0.03553169415871187, -0.041515227258472634, -0.06003825826331341, -0.018011303451184207, 0.03946856209884561, 0.05168706336995689, 0.05709797273716928, 0.2641208792027301, 0.5325414179697209, 0.5241990377236424, 0.30649866983412366, -0.015504608693686805, -0.11933009428799675, -0.07094000855879252, -0.1540175580497718, -0.24574526782285258, -0.21888283368301467, -0.1378657128996375, -0.07209495868777986, -0.0627239811620375, -0.022124953448782098, 0.021449373694967383, 0.007089922372849412, -0.021154988906812517, -0.00939120621872878, -0.015452591088707964, 0.03546517415773001, 0.012423044482791575, -0.05148021158568156, -0.049398287764303286, 0.00774361076882202, 0.007195227901702464, -0.14008520087329404, -0.14742378988171978, -0.06459788955669557, 0.11519257474943247, 0.35276415798325594, 0.3775900211384836, 0.17997741366126743, -0.08196862930481648, -0.12254144344882902, -0.09433741776370747, -0.15859251086806855, -0.26443746802603946, -0.2676406945687054, -0.20088623522226565, -0.12231198583015723, 0.0069350793052682155, 0.000169543191772443, 0.0037782730507116813, -0.03446747797483014, -0.043629851862938315, -0.029438711446724046, -0.02061741381539424, -0.11344555367933733, -0.04696945163369824, -0.07018475417668066, -0.0024652466652031304, -0.09629721886166454, -0.1980731231123064, -0.275300361277263, -0.28947183390205355, -0.1872228429304867, 0.10237983917216016, 0.3423614489810453, 0.2068364148937679, -0.10748295995824025, -0.288055543295753, -0.2711795613023361, -0.100632739955157, -0.2075146464454344, -0.2285799379747319, -0.3053797267351845, -0.25273272481485426, -0.08679462753113686, -0.009375446129093, 0.013072392671509604, -0.02073153953802305, -0.041890534498163066, -0.010298205246956545, -0.05828703100663614, -0.12286655999949332, -0.08612357792570893, -0.024388953108773224, -0.08627681162667329, -0.10871439765782065, -0.14177107224906016, -0.274921104154219, -0.3461558918513086, -0.338238819527394, -0.2481277684948145, 0.0603450034588179, 0.22254743596168097, 0.09380893268913221, -0.12984296686645935, -0.35124400961388325, -0.31692299148007375, -0.16947097694797905, -0.10043453335703426, -0.1350313294640063, -0.12533165831350412, -0.1765187519880242, -0.10084590035274706, -0.04604416334419959, -0.0048159257855552254, -0.026198840985003576, -0.015330390337337858, -0.027926596361801274, -0.052652121424736714, -0.023162530076699456, -0.010092899101176162, -0.01829483819431996, 0.001136334024700987, -0.05392093309737815, -0.16372231111470306, -0.26138471058780305, -0.3490089553279397, -0.41849099359314224, -0.2574961421468691, 0.16859819304150528, 0.3992007940343562, 0.27734647953647545, -0.03211027758092925, -0.2812272807796635, -0.14295422952166625, 0.04406586602959032, 0.12381215429961556, 0.06785457954909987, 0.024961204271555158, -0.01681443256313462, -0.06020348474552312, -0.007262394348074362, 0.013410409943289988, -0.02761607022317834, -0.04201094788669625, -0.04942776723282601, -0.021369873539158334, 0.021364676346827413, 0.006662852456428885, -0.03819930546844137, -0.06606306473922412, -0.12271807407211177, -0.098551346912874, -0.33066814494184854, -0.462270270284806, -0.42013082224440496, -0.0354048349640782, 0.40410683251174184, 0.5042221732466798, 0.27272679303570524, -0.06180678271844706, -0.22692585002767995, 0.02772038077441111, 0.1685628607006521, 0.3228199922710368, 0.1334855560052329, 0.09336875042112304, 0.08073159629026173, 0.015670302693810916, -0.008531212648289507, 0.01588010001178424, 0.030282249591620746, 0.01769033891655739, -0.013362046599328704, -0.0219781358776094, 0.04670163750094311, -0.018167439948654288, -0.06124159562451594, -0.12241134145965214, -0.1510956189542933, -0.18488966539953422, -0.35932311618808216, -0.35195607575212917, -0.08704617725382363, 0.25414983426195115, 0.5140605758519629, 0.588328629059388, 0.20026881900659288, -0.022869749417005807, -0.03211603885205321, 0.1907876772063317, 0.15567278599610757, 0.18515723495986947, 0.1112620345824633, 0.021329978679468318, 0.05286955986795054, 0.01182250230096799, 0.011904770866732611, 0.019120938965404344, -0.003999662234797821, -0.03345928859275436, 0.006520950165641921, -0.017158605358641374, 0.006454218182126713, -0.026982024452473767, -0.005343476260251687, -0.10372296562169447, -0.1001682919281604, -0.11721724735559709, -0.18079769886212413, 0.032412529232767266, 0.2548144260284566, 0.47406414348905546, 0.5569798192691066, 0.36029915976104254, 0.19301817092770648, 0.04485801645909197, 0.10808080542288206, 0.07377805681797957, 0.13602051959093558, 0.12223788655716364, -0.001440815723694421, -0.07818860579663937, -0.004946257042439612, 0.020934476289515086, -0.0037319168446478482, -0.0338369884832374, 0.01589657754629971, -0.02100677751124103, -0.03810694459912368, -0.03140190343828813, 0.011775688560049855, -0.03964951474828999, 0.05146915502439435, 0.012298279546030811, 0.05036171524307706, -0.06809814658816819, 0.04491647483624671, 0.3061950018256694, 0.40902887757794326, 0.603934281375808, 0.5277558001203203, 0.34474022383847347, 0.24664380399150976, 0.2351596461727599, 0.10866271244053193, 0.03879852088977743, 0.030137608844191963, -0.04301156257898406, -0.09481164456173533, -0.09959079619702638, -0.0697442014606808, -0.026734960176784058, -0.0005382179789061111, 0.011712239140054596, -0.006048753935205339, 0.022539160971640722, 0.028319902626311476, 0.014267068971684617, -0.002368843736613177, -0.024272724098888813, 0.09004156709576473, 0.11657957514527953, 0.11538716230703944, 0.12357372409091551, 0.10717765407375994, 0.34644522140101286, 0.438745660247614, 0.5343022697387286, 0.39231523316692263, 0.31694192180305886, 0.22899213751704445, 0.15059541959449213, 0.051960979171866026, 0.015538845653359515, -0.024192506358935408, -0.13280565708008107, -0.057618464023127536, -0.05023496352065045, -0.03579455429263553, 0.002566716699870758, 0.016285643969859494, 0.008414957539984941, 0.018864670273011516, -0.03100620409901931, -0.03048705609514483, 0.011251432072539083, -0.08955818219728304, -0.10157721114769969, -0.04934148158541373, 0.15605127465300814, 0.2005732913933031, 0.13797798272164807, 0.12395727711550175, 0.17091316398849452, 0.25789001813777246, 0.3247020778701154, 0.2293507057108751, 0.23063653875359366, 0.2136530402372652, -0.03383210130461086, -0.04560474391161636, -0.024485585589558146, -0.0036781349012526563, -0.041002663020043705, -0.033177237729308424, -0.05214135202692515, -0.06152193968301566, -0.010375207379588006, -0.021021906046288254, 0.0028124390737753863, 0.02323585580118429, 0.023555230399305335, 0.02179235912482566, -0.004669506780764025, -0.01581966741632173, -0.10564188895835684, -0.08000843754978393, -0.042592884477384005, 0.13421479642110956, 0.04735634795950274, 0.1007083661073052, 0.08228275675592675, 0.10971563770104674, 0.10605791638455803, 0.10186046262894223, 0.12701964079832145, 0.09719574865338262, -0.027236674273003112, 0.0005175129448724746, 0.032815791277120115, 0.033992624000745854, -0.028903655192711885, -0.058541776317603864, -0.07978001345098722, -0.06285948251436098, 0.01953951866508336, 0.01939754313946843, -0.004685190712434487, 0.00438108315500534, 0.0005642307391218867, 0.0035046072086965295, 0.03985102704631178, -0.01084907653499226, -0.06856950412753027, -0.09990977965112587, -0.10798566861553793, -0.13935420298933945, -0.08725730400058641, -0.048087195520871054, -0.02977605030660491, -0.07366380160846711, -0.056715050483230285, -0.06557894406041216, 0.04352743892855463, 0.08882146764686417, 0.054185646999999, -0.047606461413686754, 0.038518820534650555, -0.01588928070267673, -0.0702124285896705, -0.06897446378503536, -0.07057561699970663, -0.03714736759120477, 0.0028104743808828087, 0.011762155274548707, 0.0073638412384271915, -0.013758147222729136, -0.00928996276927978, -0.021678827344446084, 0.017473979569941088, -0.038534729352175424, -0.07650938040853839, -0.08122621031055398, -0.03822070194687435, -0.17697630042637205, -0.20576657736559742, -0.26818300991296257, -0.3092861648307448, -0.2509279749848961, -0.08986389815905955, 0.08443309606009103, 0.18182684529209245, 0.14709926256274053, -0.0036452088967832467, -0.008048530783136781, -0.013867962167345767, -0.004543221625470427, -0.02213807329359341, -0.07405848021238375, 0.000780052543384854, -0.01588727704711225, -0.010228944951670123, 0.02970991884267843, 0.028722637062130702, 0.004847665387321882, 0.024493156304144916, -0.009392836741862481, 0.04718653004860411, -0.016121829469953112, -0.04370086747806844, -0.08437185568969602, -0.012501638432970056, -0.058277296212706386, -0.13042214497810628, -0.16231426358691362, -0.23733444655880298, -0.060688471135169515, -0.02604262942668272, 0.10551432617314882, 0.21805594795313604, 0.11858751350176583, -0.013849342378435651, -0.06609400419859193, -0.11427038335797027, -0.04630898781502619, -0.019755355257639967, -0.02704928106831204, -0.01522159881189102, -0.0019335676851916955, 0.019863735999533758, -0.03227989439170163, 0.0038735373594564995, 0.02219166534060699, 0.01988336944819903, -0.009182905371813863, 0.007928827206315917, -0.01376911559354659, -0.010889481920607435, -0.07489600591055542, -0.05776352405047436, -0.1118146492812625, -0.17798407080228848, -0.19025880260821118, -0.2369811098968599, -0.16368155949811022, -0.18590983006444017, -0.03678008760559408, 0.015452014637788433, -0.08506569521663893, -0.10617144814443669, -0.05752259458376556, -0.10494911186906247, -0.011698097549738105, -0.048075327584923125, -0.04272738678034276, 0.019570618311635424, -0.0055533995548881976, 0.034377148957251635, 0.023318486071984546, -0.0316248229357819, -0.0022399706246295573, 0.021256209497091276, -0.014932473255311418, 0.03549432820943357, -0.0012468380162260456, -0.024844293956650734, -0.02412461037288736, -0.013412513782741125, -0.04283700538083254, -0.17801554715892895, -0.17017076974312942, -0.2787934380165491, -0.21242694321104916, -0.17572491647527624, -0.15880817386232807, -0.08277224092601725, -0.08810212863406891, -0.09349646377203348, -0.004004526166702124, 0.009316606496435, 